326467 128
255426 0.00833739 0.22237 0.366821 0.305122 0.657784 0.235931 0.909584 -0.188335 -0.780841 0.489725 0.408296 -0.81509 1.00193 0.0826197 -0.334676 0.33967 0.0123195 -0.273573 0.257096 0.39989 -0.689101 0.0186976 0.476749 0.447561 -0.594597 -0.180236 0.184145 0.70781 0.117345 -1.10444 -0.39031 0.1435 -0.386624 0.993077 -0.439798 0.334471 -0.329234 0.617489 -0.811598 -0.217238 -0.387591 0.176423 -0.316471 0.473974 0.180991 -0.533223 -0.339894 0.237942 -0.469584 0.396147 -0.355597 -0.471889 0.550879 -0.266862 0.216657 -0.224077 -0.641985 -0.0414808 0.404262 0.30947 -0.610839 0.319227 -0.26365 -0.113015 0.0447953 0.22627 0.281914 0.41976 0.154891 -0.0673384 0.608342 0.734434 -0.00453571 0.0541274 0.199558 0.0122419 -0.0185856 0.0445193 -0.129012 -0.0633954 -0.222463 -0.0991741 -0.20831 -0.0220141 -0.0448308 0.09425 -0.303207 0.567705 -0.66324 -0.243714 0.218146 0.190424 0.007801 0.176626 -0.0991522 0.21882 0.129701 0.132375 0.156102 0.0905648 -0.165053 0.472644 0.283974 -0.166572 -0.200495 -0.200342 -0.0806983 0.0886795 0.197551 0.188777 0.170768 -0.218702 -0.11511 -0.637133 -0.086332 0.281916 0.472898 0.0427037 -0.219873 0.069091 -0.109415 -0.459604 0.0598536 0.00756591 0.0512321 -0.0239042 -0.382241 0.159245
255427 -0.676583 0.722541 0.756072 0.420658 0.990965 0.648124 0.982462 0.112727 -1.00206 0.861898 0.471354 -1.21416 1.2789 0.226262 -0.3402 0.325952 0.164463 -0.573425 0.12119 0.310908 -1.13104 -0.0980555 0.981963 0.449095 -0.370849 -0.391558 0.55199 1.03963 -0.226711 -1.33312 -0.388716 0.13273 -0.614297 1.23953 -0.658455 0.490246 -0.367498 0.899799 -0.940235 -0.84991 -0.0902958 -0.196884 -0.159395 0.512449 0.554959 -0.167179 -0.364318 0.0952635 -0.670335 0.653831 -0.336819 -0.812054 0.492457 -0.350049 0.262261 0.0771721 -1.10341 0.349931 0.671497 0.49501 -0.786774 0.190126 -0.249276 -0.29001 -0.052353 -0.117167 0.344824 0.192127 0.00957672 -0.0616763 0.362775 0.624592 0.00566055 0.274053 -0.0625215 0.161488 0.421592 0.367818 0.27814 0.0112677 -0.242225 -0.336726 -0.819339 -0.208233 0.231931 0.157104 -0.443499 0.357149 -0.332886 -0.203588 0.182559 0.178046 0.146561 0.123896 -0.344135 0.481715 0.0115454 -0.0161952 0.571841 0.0169899 0.274521 0.0851264 0.166797 0.16012 -0.185839 -0.0832345 0.240129 0.143195 0.234754 -0.0470046 0.056945 -0.133635 -0.285302 -1.20535 0.0117832 0.313151 0.117181 -0.292848 -0.837894 -0.351613 0.0129521 -0.0605575 -0.0477681 0.0292467 -0.110337 -0.0117473 -0.190859 -0.266218
255428 -0.571679 0.899203 0.83891 0.426472 0.861712 0.796959 1.0366 0.043336 -1.10252 0.707835 0.561837 -1.0316 1.30946 0.0363566 -0.363622 0.241204 0.0435835 -0.60538 0.0736604 0.231555 -1.10833 -0.148195 1.15362 0.493772 -0.361377 -0.137787 0.22652 1.23843 -0.0888062 -1.59051 -0.688983 0.239431 -0.436583 1.41459 -0.774267 0.323444 -0.213891 1.08853 -0.703631 -0.556348 -0.116537 -0.160071 0.00878419 0.512886 0.630728 -0.199819 -0.275321 0.00520433 -0.408167 0.514914 -0.470305 -0.757673 0.740961 -0.521594 0.155167 0.0877427 -1.27437 0.279874 0.637191 0.628274 -0.897007 0.251934 -0.245145 -0.269856 -0.00363675 -0.204233 0.314166 0.173841 0.142808 -0.325589 0.534549 0.309459 -0.0850071 0.164309 0.112377 0.191863 0.309613 0.18386 0.218371 -0.158389 -0.384591 -0.404368 -0.793097 -0.256734 0.118866 0.156115 -0.419363 0.48445 -0.386474 -0.345192 0.24854 0.242999 -0.0557774 -0.0225611 -0.343341 0.448081 0.0943573 0.200474 0.810984 0.0412477 0.343552 0.245618 0.233014 0.484102 -0.0539226 -0.0754146 0.152882 0.148694 -0.162528 -0.0916698 -0.115711 0.110928 -0.236817 -1.18349 -0.0815203 0.133686 0.00857074 -0.268348 -0.825468 -0.336975 -0.110057 -0.430289 -0.117561 0.184172 -0.102146 0.0629057 -0.0586865 -0.204899
255429 -0.230928 0.502913 0.6469 0.478486 0.904101 0.41703 0.929866 -0.261152 -0.74081 0.536078 0.423625 -0.809332 0.937423 0.120349 -0.330371 0.20822 0.167558 -0.471989 -0.135838 -0.0927316 -0.667439 0.00588824 0.815885 0.777365 -0.542871 -0.00136488 0.772376 0.862992 -0.0717439 -1.42018 -0.785075 0.21369 -0.497321 1.3334 -0.696815 0.294386 -0.128973 0.978867 -0.62618 -0.53277 -0.100181 0.120506 -0.361151 0.067079 0.808648 -0.359578 -0.255315 0.256523 -0.33461 0.593896 -0.826099 -0.714494 0.700771 -0.862298 -0.0979611 0.114788 -0.902916 0.161355 0.322241 0.19423 -1.055 0.0745263 -0.17279 -0.106118 -0.487924 -0.150276 0.221443 0.296502 0.150345 -0.27372 0.564503 0.595108 -0.128561 -0.0743197 -0.105274 0.183438 -0.0188965 0.157343 -0.0856773 0.193824 -0.360322 -0.372105 -0.717131 -0.0771735 0.190867 0.112142 0.196173 0.363921 -0.401131 -0.393694 0.295802 0.31479 0.152256 0.130719 -0.156804 0.0648294 0.279344 0.48854 0.459057 -0.143437 0.0344575 0.0875575 0.336864 0.344847 -0.231108 0.0231969 -0.118401 -0.0920554 -0.0897297 -0.241583 -0.0882313 0.167529 -0.341746 -1.0885 0.0701376 -0.0616018 0.0362548 -0.148427 -0.636668 -0.339748 -0.0361916 -0.715445 0.0952985 -0.224419 0.105982 -0.131157 -0.1066 -0.0294519
255430 0.0654495 0.188871 0.47349 0.190688 0.655751 0.238781 0.869447 -0.246852 -0.552491 0.31373 0.344269 -0.553798 0.962088 0.0345184 -0.215781 0.560689 0.34283 -0.0349799 0.119833 0.171503 -0.708293 0.139541 0.495534 0.854486 -0.548073 0.0667629 0.632838 1.14157 -0.248066 -0.957472 -0.486258 0.00277774 -0.492933 1.10935 -0.40807 0.454767 0.0272512 0.830367 -0.544856 -0.626516 -0.183194 0.285419 -0.521654 -0.101012 0.670718 -0.46384 -0.227088 0.372207 -0.600465 0.723356 -0.753881 -0.831733 0.393187 -0.861521 -0.0146588 0.00774563 -0.637202 0.134648 0.616992 0.18712 -0.856643 0.0704647 -0.16064 -0.237632 -0.353978 -0.0159483 0.0887525 0.540757 -0.0823276 -0.294986 0.482196 0.895664 -0.0807559 0.154497 -0.00137016 0.380982 0.2847 0.219249 -0.100463 -0.0145239 0.0560659 -0.380604 -0.454376 0.0712344 0.0894277 0.425963 0.218547 0.270433 -0.929343 -0.0466472 0.138917 0.0971594 0.335294 0.338598 -0.194013 -0.0200034 0.159503 0.282114 0.255538 -0.28446 -0.142328 0.381629 0.0998932 0.0395596 -0.173357 -0.301082 -0.424507 -0.0549734 -0.0130629 0.0196138 0.118188 -0.238739 -0.297947 -0.829963 -0.214531 0.351369 0.55026 0.286788 -0.386013 -0.405239 -0.15275 -0.374842 -0.224815 0.0861124 0.115837 -0.236065 -0.0121187 0.0324247
255432 -0.0691257 -0.0667486 0.429033 0.468805 0.664299 -0.211405 1.04801 -0.0993954 -0.602807 0.791124 0.280501 -0.912707 1.00695 0.139312 -0.752083 0.51781 -0.0745741 -0.565308 0.351898 0.366073 -1.09877 0.223274 0.375898 0.575294 -0.169477 -0.117975 0.483271 0.690785 -0.0165358 -0.7543 -0.236837 0.0339542 -0.103833 0.702423 -0.0507981 0.435855 -0.445522 0.60039 -0.717891 -0.187176 0.124188 0.481203 -0.296623 0.37236 -0.164733 -0.0802522 -0.173973 0.241247 -0.506327 0.461703 -0.208303 -0.364241 0.128423 -0.151888 0.0704062 0.250108 -0.854217 0.140388 0.12058 0.474746 -0.822611 0.607528 -0.483699 -0.155856 0.265416 -0.0119743 0.440038 0.36302 -0.160094 -0.270717 0.536769 0.421899 0.15619 0.411529 0.278994 -0.357787 0.149931 0.285748 -0.290216 -0.280341 -0.0139587 -0.08349 -0.365586 -0.202638 -0.165981 0.024748 -0.364508 0.510379 -0.411008 -0.138744 0.0759602 0.0396856 -0.0146202 0.65917 0.317208 0.015797 -0.0606666 0.165002 0.275159 0.155667 -0.028952 0.274144 0.185922 0.0959673 -0.425021 -0.111831 -0.143749 0.20285 0.0842229 0.438318 -0.0907747 -0.700808 -0.293423 -0.732783 -0.00861453 0.292705 0.450173 -0.502563 -0.302589 0.122106 -0.186077 -0.345535 0.185142 0.026594 0.151429 0.170488 -0.368516 -0.0262959
7 -0.0783678 -0.0577842 0.253585 0.122549 0.0934246 0.219697 0.484068 0.182047 -0.460762 0.191411 0.19283 -0.613029 0.550216 0.0667676 -0.086823 0.218948 -0.00476703 -0.27617 0.400816 -0.0805514 -0.392555 0.023925 0.320196 0.555931 -0.325357 0.050654 0.209953 0.441046 0.0136899 -0.640451 0.0838798 -0.0328606 -0.286646 0.194538 -0.317188 -0.040922 -0.452127 0.370559 -0.397104 -0.45022 -0.02716 0.00335629 -0.219495 0.0185304 0.140698 0.0198479 -0.139962 0.158585 -0.276702 0.234165 0.0259915 -0.335843 0.0356969 -0.119403 -0.122818 0.293235 -0.233463 0.0796398 0.407868 0.479249 -0.177758 0.311038 -0.347466 -0.131854 0.0447077 -0.0621818 0.0734723 0.172183 -0.0080065 -0.145972 0.0929977 0.494147 -0.00591754 0.108121 -0.0217716 0.0418953 0.0128502 -0.0223223 0.0052636 0.00786344 -0.0258368 -0.044708 -0.16198 0.0799353 -0.0497689 0.359787 -0.283853 0.229553 -0.0137568 0.100315 0.174835 0.0581777 -0.187867 0.0618992 0.0362145 0.0414873 -0.0412312 0.124264 0.192489 0.0087605 -0.104615 0.0358796 -0.0726397 -0.089894 0.0661076 0.0513936 0.0862513 0.112016 -0.00529311 -0.0768589 -0.0970854 -0.0134823 -0.112473 0.0500901 0.202255 0.184937 0.115048 -0.0237188 0.0711846 -0.054255 -0.113005 0.0587739 -0.0832793 0.0822635 -0.203224 0.000587847 -0.212804 0.0774251
27873 -0.0340216 0.328569 0.797915 0.182457 0.449231 0.379976 0.653359 0.247999 -0.735302 0.297695 0.681803 -0.268062 0.383398 0.289064 -0.0131887 0.141575 -0.155661 -0.32253 0.427873 0.190865 -0.332839 0.0458104 0.136387 0.34325 -0.374846 -0.290687 0.353512 1.04321 -0.269792 -1.02968 -0.591478 0.309533 -0.18053 0.921697 -0.424887 0.17962 0.163498 0.358405 -0.52168 -0.139278 -0.0181583 0.531463 -0.26015 -0.146386 0.230393 -0.0289728 -0.0942504 0.0725192 -0.334901 0.723776 -0.363446 -0.130823 0.988063 -0.347207 -0.102991 0.301183 -0.633905 0.174479 0.640601 0.788443 0.0446206 0.144345 -0.58225 -0.272346 -0.281425 -0.275646 0.114746 0.203615 -0.219128 -0.404356 -0.178966 -0.128978 0.319447 0.121889 0.105378 -0.469681 -0.181652 -0.147812 -0.24687 -0.0543777 0.0533882 -0.288922 0.0410139 -0.0723473 -0.0352616 0.274967 -0.189975 0.216879 0.254394 0.150035 0.056104 0.217785 -0.149484 -0.0318336 0.296149 -0.344762 0.292607 -0.325901 -0.218474 -0.13132 0.0125634 0.250618 -0.100109 0.0675406 0.189792 -0.073396 0.0480338 0.041703 0.285159 -0.195234 -0.25378 -0.671092 -0.404368 -0.0796612 0.191495 -0.165985 -0.202414 -0.153441 -0.156249 0.0718959 -0.252822 0.0536074 -0.376382 0.315811 0.229277 0.0728756 0.244768 -0.0713876
22 -0.0512646 -0.0139873 0.890186 -0.139571 0.580973 -0.0546393 1.02763 0.290026 -0.240429 -0.0606649 0.25841 -0.313719 0.338698 0.0897932 -0.360866 0.471914 0.150809 -0.148645 0.0976969 0.4612 -0.27943 0.184885 -0.0144015 0.400401 -0.234373 -0.0809508 0.304335 0.593964 -0.0623605 -0.857354 -0.423562 0.120795 0.0860919 0.278156 0.0300534 -0.0167372 -0.126963 0.191304 -0.306285 -0.0770781 0.0767101 0.797407 -0.275344 -0.162378 -0.09054 -0.0684793 -0.298461 0.112019 -0.101517 0.214828 -0.263852 -0.307822 0.272673 -0.522504 -0.406405 0.328272 -0.25197 -0.0374318 0.387304 0.412234 -0.253455 0.242069 -0.684171 -0.32044 -0.145904 0.00346905 -0.0879047 0.0194021 0.216094 -0.237539 0.00813686 0.394324 0.263229 -0.0770777 0.0271476 -0.0985333 0.131928 -0.282962 0.0526397 -0.280831 -0.028734 -0.268888 -0.0445685 -0.063146 0.454984 0.0263295 0.106833 0.184394 0.0566429 -0.197893 0.264956 0.262722 -0.14843 0.0800797 0.206278 0.0410258 0.0434075 -0.0474955 -0.189152 0.396262 0.223163 -0.0691558 0.256321 -0.00923343 0.093295 -0.0403608 -0.258092 0.0390913 0.0499583 -0.0232316 0.0822857 -0.197279 -0.361405 -0.57934 0.193916 0.0493097 -0.110937 0.150475 -0.280416 0.248498 -0.219797 -0.172209 0.0560257 0.278407 -0.0996549 0.084047 -0.269447 -0.0759464
15406 -0.195632 0.332929 0.797449 -0.168808 1.27884 0.116052 0.740332 0.252843 -0.624178 -0.152755 0.421985 -0.572637 -0.296136 0.175278 -0.681923 -0.091571 0.54152 -0.413708 0.277432 0.167484 -0.737741 0.368082 0.347582 0.875011 -0.511943 0.348821 0.515165 1.00901 0.0225337 -0.942302 -0.592292 0.0418349 0.171812 0.35257 -0.471631 0.037429 -0.339017 0.171501 -0.386209 -0.0132566 0.199036 0.700583 -0.20937 -0.0555528 -0.0267732 0.196798 -0.263371 -0.147778 -0.103719 0.801027 -0.363997 -0.531758 0.534774 -1.02388 0.23144 0.400797 -0.697866 -0.042649 0.181226 0.845605 -0.880747 0.579857 -0.737616 0.0215667 -0.231962 -0.260884 -0.0508354 0.209219 0.321121 -0.169929 -0.200791 0.563883 -0.0541289 -0.147453 -0.0976733 -0.121228 0.192871 -0.102117 -0.0722436 -0.575176 -0.0832153 -0.326359 0.0195388 -0.322556 0.294087 0.449323 -0.102308 0.532147 -0.458299 -0.54336 0.401565 0.0428239 -0.150831 -0.0753429 -0.0531069 -0.25923 -0.117996 -0.0137886 -0.0917903 0.294514 -0.263945 -0.171452 0.232972 0.0634694 -0.319303 0.251283 -0.180973 0.0779567 0.281358 0.322914 0.286616 0.130353 -0.627744 -0.498645 0.115627 0.0810309 -0.208283 -0.114043 -0.559948 -0.111314 0.0774686 -0.0382754 0.196127 0.428818 -0.294993 -0.106695 0.0442993 0.0269287
241089 -0.289355 0.716418 0.592078 -0.274584 0.636788 0.119138 0.540186 -0.00405184 -0.621297 0.612666 0.73112 -0.564177 0.435694 -0.163451 0.140754 0.268342 -0.106979 0.144825 0.0769573 0.188449 -0.377993 0.210857 0.29234 0.406147 -0.720798 0.269267 0.298877 0.955712 0.0393793 -1.06178 -0.248898 -0.021528 -0.298613 0.564345 -0.689785 -0.0661417 -0.793748 0.795474 -0.350068 -0.685121 0.267616 0.987864 -0.0798006 0.326823 0.599344 -0.184687 0.284819 0.438776 -0.294454 0.95344 -0.16798 -0.616152 0.326843 -0.931796 -0.351708 0.235842 -0.886907 0.231217 0.98176 1.35217 -0.865618 0.615387 -0.319348 0.15755 -0.388932 -0.330409 -0.160594 -0.314541 -0.0223499 0.0155863 0.101255 0.36751 0.332711 0.0272613 -0.292748 0.336807 -0.128328 0.195831 -0.315385 -0.0379885 -0.0162541 -0.297568 -0.0781653 0.254418 -0.303446 -0.00384561 -0.06803 -0.481074 0.161347 0.388208 0.303675 0.00583787 0.0691336 0.137751 -0.153804 -0.129555 0.053026 0.337994 -0.261884 -0.371805 -0.349379 0.0241074 0.133742 0.456941 0.212241 -0.73008 -0.260698 0.154926 0.144588 -0.0870176 -0.0831311 -0.150652 -0.375379 -0.182475 0.180611 0.153249 -0.195298 -0.545029 -0.478303 -0.247076 -0.124213 0.222538 0.0233337 0.00731502 -0.319642 0.0337034 -0.269982 -0.0718507
241088 -0.340893 0.71443 0.647493 -0.298922 0.591225 0.124401 0.479955 0.0494996 -0.60489 0.544552 0.80525 -0.704289 0.437361 -0.0881105 0.197383 0.230216 -0.102495 0.088245 0.0277614 0.20008 -0.36737 0.190837 0.449216 0.476904 -0.810403 0.288805 0.234238 1.06285 0.115678 -1.01398 -0.298674 -0.052015 -0.370307 0.585284 -0.808354 -0.0828856 -0.797283 0.851737 -0.441116 -0.713999 0.24223 1.12805 -0.0945861 0.449917 0.656983 -0.236511 0.230802 0.507337 -0.239373 1.03618 -0.197385 -0.680862 0.440661 -0.963286 -0.48979 0.282117 -0.951575 0.180476 0.993416 1.45863 -0.98503 0.682444 -0.249302 0.037357 -0.329233 -0.335659 -0.112288 -0.327142 0.0127335 0.121617 0.0448965 0.324066 0.338538 -0.065403 -0.18872 0.340612 -0.142757 0.215906 -0.377376 -0.122345 -0.0601538 -0.350237 -0.105324 0.301548 -0.377409 0.0458585 -0.0834508 -0.623552 0.220241 0.420677 0.250815 -0.0160009 0.0909284 0.11958 -0.167498 -0.139746 0.00879964 0.373608 -0.25271 -0.301732 -0.17615 -0.0463568 0.0826868 0.591248 0.315939 -0.790756 -0.223155 0.17917 0.16266 -0.147929 -0.0763177 -0.142617 -0.415009 -0.0931438 0.239722 0.129073 -0.162029 -0.506257 -0.550721 -0.351941 -0.128581 0.209308 0.0338165 -0.0952906 -0.355949 0.0229278 -0.243775 -0.187472
241083 -0.375076 0.851938 0.809721 -0.241805 0.792895 0.191537 0.732869 -0.0348085 -0.820396 0.811452 0.87701 -0.731479 0.583336 -0.21977 0.197642 0.324974 -0.108542 0.164367 0.134571 0.266142 -0.484244 0.373034 0.418144 0.499449 -0.93759 0.382641 0.416942 1.23082 -0.00358432 -1.47633 -0.332132 -0.00785138 -0.464079 0.659861 -0.955544 -0.111273 -1.03083 1.00214 -0.3837 -0.787466 0.289112 1.28437 -0.136236 0.345503 0.724219 -0.154918 0.396818 0.521207 -0.463209 1.22733 -0.160923 -0.803527 0.323916 -1.29731 -0.439046 0.277501 -1.29938 0.367405 1.25942 1.64129 -1.13997 0.75291 -0.427368 0.141667 -0.481982 -0.468713 -0.144514 -0.429212 -0.0701865 -0.0270491 0.0933914 0.394734 0.40995 0.0445535 -0.366199 0.414635 -0.215641 0.17258 -0.372029 -0.0500074 0.00576615 -0.383053 -0.152097 0.366464 -0.341345 0.0650564 -0.0468203 -0.482449 0.19336 0.457565 0.347398 0.0124518 0.0286383 0.145673 -0.30127 -0.150238 0.0776577 0.402835 -0.360434 -0.470742 -0.452806 0.0939444 0.183555 0.62016 0.214543 -0.834098 -0.30497 0.160665 0.180725 -0.0993216 -0.0955503 -0.174989 -0.482111 -0.148548 0.141262 0.200821 -0.340738 -0.731457 -0.671487 -0.396453 -0.189751 0.37896 -0.0134893 0.0754636 -0.3381 0.0861233 -0.373036 -0.126868
50430 -0.389651 0.780883 0.683977 -0.278798 0.677335 0.146945 0.571709 -0.00857727 -0.703971 0.678743 0.845059 -0.717918 0.524767 -0.175367 0.210345 0.304018 -0.125493 0.163809 0.0564669 0.219669 -0.424969 0.308454 0.431153 0.476541 -0.911828 0.339262 0.30478 1.10493 0.0878787 -1.23159 -0.285699 -0.0581857 -0.389248 0.619998 -0.795017 -0.0744812 -0.86261 0.924375 -0.427419 -0.79105 0.272576 1.17047 -0.0740964 0.366636 0.689748 -0.188644 0.279851 0.489738 -0.30515 1.103 -0.202385 -0.69541 0.373127 -1.08372 -0.395951 0.256212 -1.09327 0.253849 1.10858 1.57222 -1.07443 0.684418 -0.305872 0.133642 -0.413978 -0.397144 -0.0877562 -0.383147 -0.0446427 0.0509131 0.0932232 0.375092 0.364823 0.0105497 -0.279802 0.373734 -0.172895 0.186571 -0.359369 -0.0578806 -0.00399456 -0.346567 -0.129198 0.280447 -0.351566 0.0319145 -0.0699103 -0.474437 0.258727 0.494734 0.298328 -0.00707065 0.0716121 0.15708 -0.229032 -0.173807 0.0342301 0.338652 -0.287598 -0.437329 -0.322154 0.0260143 0.101713 0.548467 0.276566 -0.786382 -0.300888 0.137028 0.174315 -0.115974 -0.125605 -0.170488 -0.45488 -0.176741 0.172946 0.139383 -0.240541 -0.573838 -0.562791 -0.34935 -0.100415 0.239934 0.0251551 0.0150559 -0.318963 0.0116939 -0.329245 -0.133821
50435 -0.339443 0.78937 0.666489 -0.258762 0.710255 0.118825 0.668782 -0.0523007 -0.753284 0.69943 0.804487 -0.615293 0.483579 -0.252846 0.181599 0.335477 -0.112451 0.173833 0.128523 0.200496 -0.432751 0.30293 0.300814 0.475308 -0.804883 0.311724 0.375294 1.05525 -0.0152097 -1.25242 -0.24717 0.0121273 -0.315718 0.595375 -0.752516 -0.0899973 -0.874143 0.874339 -0.348932 -0.738657 0.290107 1.08023 -0.0868394 0.31042 0.617247 -0.164195 0.340572 0.452126 -0.360441 1.04298 -0.177119 -0.701582 0.321857 -1.06347 -0.352415 0.28381 -1.01595 0.314248 1.12954 1.51506 -0.988119 0.673353 -0.366041 0.147354 -0.439524 -0.359659 -0.137587 -0.35923 -0.0935992 -0.0389398 0.127374 0.423197 0.348063 0.0446624 -0.361751 0.359992 -0.150443 0.189277 -0.311399 0.00116973 -0.00421636 -0.303296 -0.0697347 0.270734 -0.308942 -0.0289197 -0.0571934 -0.495789 0.176453 0.39024 0.374275 0.031333 0.0388865 0.146943 -0.223432 -0.143518 0.0743618 0.340775 -0.344885 -0.487918 -0.452988 0.0490403 0.166002 0.509898 0.20746 -0.825827 -0.305144 0.13496 0.191771 -0.0905062 -0.119261 -0.203292 -0.441886 -0.241053 0.158955 0.146674 -0.252089 -0.617511 -0.531366 -0.298782 -0.153947 0.270907 0.0118595 0.0966489 -0.321444 0.0322023 -0.316331 -0.0688323
50425 -0.458368 0.768769 0.755064 -0.30332 0.858288 0.199549 0.654048 -0.112849 -0.964349 0.867537 0.938256 -0.790678 0.684793 -0.347121 0.218124 0.450471 -0.196646 0.29027 0.100786 0.383001 -0.374081 0.611106 0.451141 0.441911 -0.972402 0.440652 0.462094 1.25925 0.0633492 -1.6821 -0.227644 -0.0902435 -0.432742 0.613775 -0.91848 -0.102757 -1.08394 1.13414 -0.427103 -0.81403 0.134663 1.24099 -0.142444 0.0374742 0.653224 0.0841883 0.364398 0.469092 -0.60486 1.1605 -0.281799 -0.659721 0.25668 -1.14375 -0.454629 0.241103 -1.46365 0.517165 1.06588 1.90239 -1.2774 0.832454 -0.508087 0.218304 -0.531301 -0.493423 0.100804 -0.592622 -0.137471 -0.11903 0.277773 0.606533 0.454328 0.0921738 -0.490243 0.424511 -0.258479 0.0534507 -0.375559 -0.0471549 0.0897825 -0.395887 -0.305596 0.41179 -0.462673 -0.0197635 -0.138115 -0.266764 0.345144 0.532579 0.198538 0.0372431 -0.0439324 0.220518 -0.37401 -0.178115 0.214501 0.309272 -0.471745 -0.589819 -0.587593 0.0216138 0.086404 0.633182 0.05153 -0.612183 -0.420971 -0.0344115 0.123046 -0.158366 -0.0965663 -0.234115 -0.497338 -0.465112 0.115716 0.204112 -0.488697 -0.702785 -0.614687 -0.363044 -0.084895 0.528667 0.086544 0.118715 -0.250492 0.00253702 -0.404255 -0.157276
50433 -0.372128 0.725132 0.591623 -0.274435 0.691703 0.176964 0.494678 -0.0953373 -0.792535 0.7121 0.803779 -0.596384 0.535218 -0.239576 0.185297 0.341057 -0.125153 0.192498 0.115041 0.299104 -0.385653 0.354657 0.376503 0.408219 -0.79764 0.321288 0.342391 1.05318 0.0619868 -1.29811 -0.180279 -0.0286107 -0.342119 0.584303 -0.752729 -0.152013 -0.859722 0.97083 -0.376128 -0.714971 0.241643 1.08261 -0.069358 0.174224 0.520302 -0.0178928 0.292906 0.514792 -0.433412 1.08281 -0.256213 -0.68278 0.304784 -0.959225 -0.419021 0.32737 -1.1502 0.379221 0.95504 1.55409 -1.02605 0.673189 -0.339053 0.144569 -0.458255 -0.390386 -0.00190759 -0.401697 -0.124361 -0.0602381 0.183054 0.42142 0.327512 0.0356921 -0.364354 0.313831 -0.187747 0.136763 -0.333901 -0.059175 0.0440689 -0.317945 -0.23469 0.362215 -0.344225 0.0226507 -0.165511 -0.442175 0.24979 0.443735 0.233761 0.0157097 0.0106027 0.187807 -0.338179 -0.224165 0.118516 0.358594 -0.37484 -0.525889 -0.488568 0.0225829 0.103514 0.538554 0.056854 -0.688243 -0.311019 0.0499394 0.0263183 -0.0896116 -0.0790842 -0.248438 -0.379821 -0.307032 0.148355 0.147531 -0.342001 -0.502317 -0.462939 -0.312346 -0.0776522 0.311639 0.0399515 0.0695184 -0.284354 0.00692753 -0.331382 -0.117291
50431 -0.373149 0.73513 0.582873 -0.302216 0.702107 0.189256 0.527712 -0.11345 -0.748654 0.721794 0.792019 -0.59732 0.517043 -0.311874 0.159292 0.360905 -0.153131 0.159762 0.121347 0.245686 -0.328025 0.3672 0.289283 0.38219 -0.749318 0.304879 0.336015 1.05196 0.0566058 -1.26593 -0.162757 -0.0499679 -0.323936 0.538471 -0.661627 -0.118112 -0.838186 0.912014 -0.379392 -0.690562 0.20147 1.07261 -0.0830877 0.190022 0.523661 -0.0508696 0.313779 0.442811 -0.431615 1.00398 -0.230259 -0.67135 0.311241 -0.919442 -0.414813 0.287331 -1.09873 0.338951 0.905613 1.50147 -0.982564 0.68154 -0.370534 0.186799 -0.453358 -0.356962 -0.00519243 -0.420815 -0.0980239 -0.056676 0.20025 0.437872 0.38631 0.0623618 -0.411751 0.354005 -0.217094 0.122295 -0.248153 0.00261836 0.0666074 -0.287536 -0.206273 0.318208 -0.353464 -0.0229578 -0.0847577 -0.34614 0.242272 0.438468 0.242649 -0.0117639 0.0456406 0.15631 -0.326218 -0.214255 0.128641 0.265882 -0.382065 -0.499479 -0.503958 0.0334409 0.0842278 0.476184 0.148136 -0.700115 -0.323777 0.0361841 0.0686733 -0.0887325 -0.0689863 -0.194795 -0.38815 -0.323158 0.119773 0.158922 -0.34824 -0.564993 -0.510476 -0.305888 -0.140332 0.307955 0.0276652 0.0805462 -0.248995 0.0083068 -0.376865 -0.0963106
3697 -0.249309 0.330784 0.588593 0.0627988 0.474479 0.219526 1.02486 -0.345493 0.0593064 0.0367319 0.451657 -1.23486 0.563861 0.497842 -0.342854 0.844312 -0.469273 -0.171843 0.424148 0.685777 0.0616267 0.201833 0.892642 0.325539 -0.644507 0.470458 0.659474 0.555602 0.316989 -0.571826 -0.333875 -0.0527116 -0.619562 0.369017 -0.229698 0.854458 -0.452976 0.575671 -0.385862 -0.716281 0.334354 0.066567 0.164311 0.0682289 0.494425 -0.10257 0.587091 -0.106815 -0.560317 0.619071 -0.411765 -0.667812 -0.0929144 -0.506761 -0.554863 0.38659 -0.95144 0.254254 0.129511 1.02135 -0.309139 0.595432 -0.237342 -0.234082 0.0404414 0.235066 0.0646753 0.350177 -0.056151 -0.650806 0.326205 0.623821 0.305136 -0.0973955 -0.00836965 0.126095 0.120227 -0.714976 0.404882 0.0815293 -0.00180015 -0.201366 -0.439208 0.13185 -0.0430981 0.36698 0.299184 0.115934 -0.287641 -0.0434036 -0.287723 -0.0602701 -0.327411 -0.130146 -0.317762 0.25077 0.15389 0.0632986 -0.0135295 -0.169663 -0.300333 -0.0278814 -0.253777 0.333172 -0.105484 -0.191771 -0.24211 0.13313 0.129217 -0.303015 -0.196387 -0.12132 -0.344968 -0.639982 -0.0538485 0.171898 0.5875 0.0457113 0.0856938 0.154125 -0.0608963 0.0744382 -0.682375 -0.482769 -0.269839 0.10156 -0.234133 -0.225934
57529 -0.0761906 0.501534 0.551368 -0.367241 0.704613 0.0283605 0.842294 -0.260964 -0.284086 -0.187612 0.921749 -1.182 0.474402 0.0800604 -0.0143925 0.974068 0.308721 -0.136469 -0.326019 0.78371 0.227404 0.255559 0.621277 0.227631 -0.470391 0.251468 0.435639 0.0730793 0.249126 -0.284751 0.0351095 0.0979255 -0.44067 0.4096 0.286123 0.195302 -0.614161 0.688106 0.165618 -0.706148 0.321886 0.00700618 -0.257678 -0.155578 0.278912 -0.0586713 0.248468 0.875453 -0.34254 0.402681 -0.39594 -0.818869 0.165643 -0.496041 -0.562676 0.516986 -0.342854 0.146919 -0.191053 0.910486 -0.348871 1.02082 -0.711229 -0.481985 0.0284325 -0.042127 -0.308283 -0.0829412 -0.0919921 -0.166904 0.59298 0.254449 0.264881 0.587997 0.0117942 0.505966 -0.22229 -0.0304776 0.0785046 0.00898321 0.111565 0.0399596 -0.357054 -0.285359 -0.200561 0.18068 -0.0190263 0.401598 0.0927843 0.0887514 0.0842442 0.104533 -0.527627 -0.114113 0.111918 0.0522303 0.317077 0.210747 0.126152 0.211564 -0.155214 -0.0451389 0.0818562 -0.0484736 -0.0356882 0.216287 -0.527672 0.544786 0.240235 -0.113814 -0.0153802 -0.48898 -0.194276 -0.21375 0.547042 0.226513 -0.202701 0.433543 -0.215802 0.147086 -0.222292 -0.158572 -0.248499 0.299909 0.123675 0.288362 0.188449 -0.0900317
322639 0.137419 0.299763 0.424066 -0.257328 0.395953 -0.0515989 0.633326 -0.711071 -0.463764 -0.000190447 0.733676 -1.11287 0.48611 -0.0472486 -0.145646 0.798967 0.409977 -0.503891 -0.0677287 0.579142 0.106551 0.292103 0.715783 0.492429 -0.689825 0.461132 0.345497 -0.00899485 0.179214 -0.373728 0.107058 0.0795377 -0.321368 0.337766 0.124851 0.251546 -0.585441 0.835646 -0.329967 -0.492601 0.394839 0.137309 -0.0695794 -0.0661222 0.410267 -0.0510629 0.185944 0.177193 -0.393342 0.33918 -0.440381 -0.575284 -0.0645122 -0.450056 -0.867665 0.234628 -0.606724 0.286672 0.020137 0.546445 -0.596692 0.27047 -0.48439 -0.249733 -0.16358 -0.116488 -0.187353 -0.0538552 -0.295062 -0.412375 0.440999 0.324627 0.0428852 0.168194 0.276831 0.117924 -0.0246887 -0.432476 -0.138687 0.169934 -0.298459 -0.0909575 -0.200193 -0.0141305 -0.0387929 0.179313 0.243362 0.326238 0.25741 -0.0563397 -0.194106 -0.0827722 -0.352522 -0.0993509 0.17459 0.0241888 0.4642 0.199266 -0.0315618 -0.011623 -0.0379052 0.289131 -0.336712 -0.116474 -0.128317 -0.130884 -0.0566908 0.322649 0.150424 -0.140554 0.164288 -0.162747 -0.0734567 -0.340791 0.10315 0.288643 0.158839 0.0940541 -0.0767143 0.0880124 -0.0688018 0.0106441 -0.438091 -0.0611012 -0.0512048 -0.133782 0.065855 -0.0570053
3688 -0.143674 0.0744636 0.810343 -0.275559 0.454971 -0.0959976 0.807533 -0.732116 -0.262422 0.31885 0.513146 -1.16334 0.408533 -0.0607164 0.121253 0.466685 0.241373 -0.737049 0.30289 0.539111 0.0938705 0.458279 1.00733 0.216012 -0.513941 0.263805 0.22043 0.425529 0.0814226 -0.583492 -0.242615 -0.00379342 -0.352911 0.75988 -0.0816943 0.582443 -0.044082 0.728326 -0.154206 -0.451892 0.664816 0.340302 -0.207349 0.18732 0.55793 0.0902216 0.403911 0.431573 -0.746878 0.284762 -0.458513 -0.793939 0.181656 -0.212293 -0.188392 0.369166 -0.587493 -0.0448502 0.0426123 0.570842 -0.331978 0.339904 -0.665949 -0.100902 -0.105636 0.127951 -0.212977 0.251482 -0.0145626 -0.273627 0.566118 0.538986 0.245373 0.182294 0.0378932 0.386673 0.130993 -0.279397 -0.210794 -0.144603 -0.0635021 -0.143628 -0.116968 0.366926 -0.0549473 -0.219752 -0.0136995 0.274099 -0.0479861 -0.0692074 -0.431538 0.292359 -0.144817 -0.161162 0.027222 -0.16689 0.381755 0.335248 -0.142641 -0.130034 -0.254675 0.2003 -0.176247 -0.0988679 -0.178948 -0.143831 -0.351116 0.160154 -0.0866739 0.0159801 -0.033053 -0.298999 -0.141888 -0.415928 -0.442613 0.0735841 0.321818 -0.0431271 -0.0125429 -0.035209 0.0653362 0.0846443 -0.411625 -0.312632 0.1941 -0.131656 -0.160486 -0.0351123
72905 -0.366589 0.0706773 0.562226 -0.147182 0.486031 -0.0520185 0.890717 -0.404133 0.00985099 0.305688 0.410151 -1.10838 0.0979693 -0.177891 -0.143102 0.44767 0.142799 -0.0735525 0.0867068 0.425775 -0.40165 0.356939 0.999857 0.548386 -0.493259 0.375064 0.25471 0.189547 -0.0415599 -0.646392 -0.248594 -0.018838 -0.0801855 0.119718 -0.336422 0.628005 -0.124623 0.614636 0.0575727 -0.352156 0.324509 0.467261 0.0575191 0.0654983 0.277166 -0.0947489 0.0976007 0.429692 -0.203198 0.113514 -0.503482 -0.685514 0.372453 -0.173232 -0.55744 0.523221 -0.38765 0.315864 0.175187 1.05995 -0.650164 0.269423 -0.446929 -0.183686 -0.142041 -0.126883 -0.0661938 -0.0151158 0.0841742 -0.311615 0.415346 0.765737 -0.26789 0.41364 -0.0479228 0.243666 -0.0643979 -0.531635 -0.169681 0.0435068 0.0837604 -0.176166 -0.152783 0.245323 0.213888 0.432713 -0.077267 -0.0888011 0.00152348 -0.089627 -0.353905 0.301974 -0.0277025 -0.0402698 0.352062 -0.0396984 -0.0402163 0.418003 0.073506 -0.0608816 -0.0886006 0.0540909 -0.416117 -0.176064 -0.0503522 0.240471 -0.303663 -0.15811 0.264259 -0.114564 0.164011 -0.119249 -0.165245 -0.294863 -0.154657 0.313316 0.363732 0.212742 -0.176946 0.258387 -0.023446 -0.00962408 -0.268552 -0.216935 0.014486 -0.314735 0.0847703 -0.130255
222921 -0.209696 -0.12448 0.422763 -0.192479 0.316258 -0.0689316 0.554638 -0.120942 -0.447689 0.160563 0.905587 -1.11541 0.432433 -0.136543 -0.189778 0.508535 0.178299 -0.332538 0.038838 0.295885 -0.419252 0.275548 1.08151 0.206524 -0.553508 0.405093 0.553759 0.23006 0.15712 -0.43849 -0.330835 0.0354235 -0.234881 0.576358 -0.328353 0.423217 -0.184517 0.24093 -0.0284277 -0.940799 -0.0449086 0.00952536 0.0809739 -0.170247 0.514598 -0.113578 0.0644379 0.0732494 -0.297962 0.353893 -0.404462 -0.668664 0.13152 -0.432865 -0.470289 0.242662 -0.402314 0.00151119 0.3322 0.598897 -0.744948 1.00879 -0.443744 -0.0955594 0.0623714 -0.210994 0.141174 0.0128612 -0.0239808 -0.28198 -0.0353023 0.651129 -0.301239 0.121622 0.159199 0.218847 0.308237 -0.394332 -0.16713 -0.0423024 0.0770802 0.142773 -0.291843 0.0545647 0.12935 0.351929 -0.137354 0.183933 -0.219303 -0.0417299 -0.267295 0.140641 -0.102249 -0.0209804 0.0955986 0.387681 0.196447 0.138785 0.368994 -0.0346914 0.0435904 0.102719 -0.184675 -0.369441 -0.109135 -0.0197563 -0.125271 -0.0755217 0.0285955 -0.352474 -0.154208 0.167416 -0.102294 -0.265281 -0.104421 0.476089 -0.0816692 -0.0637691 0.026684 0.254351 -0.0825417 0.0102912 0.00434889 0.0207632 0.196042 0.0486335 0.0148536 0.103233
10382 -0.257886 0.104297 0.644728 -0.482603 0.382032 -0.374206 0.631001 -0.0740107 -0.0757946 0.557028 0.591823 -1.26092 0.542087 -0.0938663 -0.482438 0.54656 -0.0452032 -0.399895 0.147098 0.606404 -0.459728 0.533177 0.900227 0.0680079 -0.823828 0.482815 0.291469 0.145785 0.617882 -0.664665 0.131823 0.169105 -0.567222 1.08631 -0.106491 0.30245 -0.449149 0.660777 0.272102 -0.963697 0.190068 0.44351 0.0472368 -0.445536 0.983382 -0.142558 -0.143783 0.37646 0.179087 0.402408 -0.480478 -0.817839 0.0760608 -0.21397 -0.116718 0.270419 -0.590239 -0.168312 0.630802 0.659903 -0.429926 0.710945 -0.214492 -0.350604 -0.0868322 0.00986185 -0.156497 -0.15918 -0.106974 -0.324024 -0.1824 0.449811 0.0327316 0.336408 0.0510583 0.248182 0.0474935 -0.359639 -0.53095 -0.0653523 0.138535 -0.295501 -0.287917 0.311082 0.325502 0.361757 -0.287949 -0.0626173 -0.36136 -0.0569498 -0.183155 0.472105 -0.257114 0.360509 -0.0816009 0.117187 -0.382686 0.113627 0.286697 0.264675 -0.0940037 -0.310347 0.483841 0.0684095 -0.25889 0.0278876 -0.166265 0.152729 0.184523 -0.351551 -0.49412 -0.187948 -0.323944 -0.0650564 -0.148966 0.204755 0.280323 0.174894 -0.180912 0.19654 -0.0169811 -0.346825 -0.421351 0.281141 0.177915 -0.102423 0.0822504 0.34053
222922 0.117151 0.0568974 0.469752 -0.413198 0.378848 0.0160173 0.815126 0.079039 -0.267708 0.423185 0.866871 -1.20189 0.480888 -0.0843051 -0.154084 0.217935 -0.00933876 -0.506584 -0.0548215 0.440055 -0.593767 -0.0161206 1.04301 0.541856 -1.03081 0.384249 0.386893 0.318238 0.210805 -0.455474 -0.312856 0.244305 -0.35827 0.558471 -0.66679 0.308481 -0.831411 0.702296 -0.0592571 -0.592705 0.264676 0.209876 -0.249699 -0.256249 0.595843 -0.100389 0.194074 0.124736 -0.393506 0.338631 -0.443151 -0.593415 0.238398 -0.327932 -0.116136 -0.172996 -0.317241 -0.123426 0.259089 0.867265 -0.689563 1.14937 -0.402076 -0.317395 -0.0086742 -0.188506 -0.0589868 0.476144 0.0139973 -0.499227 -0.0800621 0.858359 0.0175958 0.474806 -0.148547 0.641943 0.124214 -0.635957 -0.342807 0.0568873 0.244206 0.337677 -0.390639 -0.471634 -0.0641077 0.340005 -0.463188 0.217302 0.174019 -0.303239 -0.322885 -0.277615 -0.484177 0.0182544 -0.454293 0.219128 0.584958 0.0818447 0.783882 0.0869685 0.473488 -0.126418 -0.0976336 -0.284968 0.0568018 -0.00181117 -0.0348827 0.404209 -0.0768583 -0.362453 -0.125466 0.385753 -0.31671 -0.635758 -0.0127246 0.562247 -0.0538218 0.221195 -0.079014 0.413849 -0.432945 0.0738138 -0.38216 -0.0487981 -0.0597116 -0.156336 0.333136 0.0485651
72902 -0.175598 0.0956619 0.589069 -0.240736 0.34544 -0.00691994 0.817862 -0.143467 -0.172611 0.296466 0.72814 -0.898924 0.589285 0.32331 -0.267848 0.510923 0.201522 -0.24383 -0.103098 0.527433 -0.0996268 -0.0968068 0.700445 0.0654027 -0.87683 0.423046 0.195617 0.324938 0.0496929 -0.720728 -0.0556566 0.102239 -0.326536 0.386538 -0.0870083 0.573845 -0.295407 0.814849 -0.392981 -0.643525 0.224501 0.180145 0.0817036 -0.0409226 0.291296 0.0818864 -0.32316 0.268224 -0.333475 0.363682 -0.547883 -0.813022 0.193097 -0.582471 -0.399375 0.0964227 -0.28823 0.337522 -0.0143099 0.794089 -0.800213 1.18254 -0.392869 -0.416552 -0.0188755 0.0905362 -0.327857 -0.0500137 0.189499 -0.0838185 0.164462 0.576456 -0.233193 -0.17631 0.150345 0.100149 -0.0746443 -0.447483 -0.328848 0.084292 0.278528 -0.325639 -0.0106624 0.0364177 -0.02396 0.245194 -0.359285 0.17744 -0.409817 -0.454155 -0.172275 -0.219878 -0.212642 0.184612 0.0118061 0.179642 0.231928 0.129584 0.243048 0.0897699 0.0148208 0.0848971 -0.145896 -0.148957 -0.00144975 -0.0240674 -0.0912124 0.383627 0.00436308 -0.157523 -0.278553 0.167852 -0.103789 -0.0870923 0.0808272 0.266664 0.0057416 0.136497 -0.0693209 0.464123 0.227164 0.0763307 -0.254517 -0.261039 -0.0954476 -0.0582861 -0.409041 -0.0471201
188951 -0.00820794 0.535126 0.413764 -0.13545 0.194339 0.0312376 0.379713 0.132898 -0.717706 0.552474 0.343815 -1.28172 0.181563 0.161383 0.000976267 0.187586 0.019403 -0.487507 -0.682523 0.271899 -0.468461 0.528511 0.46313 0.623563 -0.482682 0.520376 0.261168 0.771891 0.246654 -0.486442 0.152255 0.282261 -0.403526 0.238393 -0.633018 0.252173 -1.00893 0.424753 -0.365649 -0.77867 -0.122588 0.505501 -0.423015 -0.0352079 -0.0782746 -0.336382 -0.164872 0.204273 0.153313 0.672018 0.00526264 -0.307464 0.0945422 -0.0530259 -0.114792 0.00592854 -0.505247 0.0905007 0.582902 0.617995 -0.163559 0.362593 -0.709861 -0.287074 -0.500783 0.0771326 -0.369235 0.549729 0.182391 -0.28886 0.132918 0.737471 -0.146832 -0.0519241 -0.304951 0.0614326 -0.42268 -0.0199868 0.0646508 -0.0689988 0.127107 0.0220456 -0.426902 0.0738861 0.297929 0.465687 0.0179786 -0.107888 -0.154589 -0.19296 0.184702 -0.34792 -0.149912 0.270512 0.434823 0.173086 -0.0337576 0.12588 0.372898 0.177646 -0.065015 -0.144662 0.0813223 0.310064 0.0586318 0.273354 -0.0225209 0.251324 0.361624 0.091916 0.211896 -0.177368 -0.419876 -0.160123 0.346812 0.265142 0.078553 -0.240875 -0.210825 -0.357301 0.127561 -0.369309 -0.390663 0.171566 0.0118332 -0.0470673 -0.00874491 -0.472359
138803 0.238186 0.427526 0.458489 -0.254806 0.421222 0.194374 0.148612 -0.0338102 -0.533541 0.751949 0.753378 -0.60707 0.290025 0.440648 -0.0116334 0.589078 0.402113 -0.346429 0.246507 -0.088454 -0.382231 0.629683 0.481837 0.809684 -0.547386 0.258846 0.22785 0.45622 -0.17483 -0.96457 -0.307606 -0.162775 -0.221544 0.448807 -0.7347 0.564281 -0.342079 0.695566 -0.00241482 -0.335445 0.495242 0.489256 0.0218712 0.396321 0.245676 -0.368043 0.463759 0.513287 -0.39351 0.507415 -0.104904 -0.377433 0.10196 -0.33739 0.0232609 0.0166084 -0.414057 0.0600573 0.76062 0.911352 -0.346471 0.584673 -0.713844 -0.254823 -0.329951 0.338855 -0.0336705 -0.393931 -0.2451 -0.0564627 0.265204 0.585507 0.367584 -0.316207 -0.0771387 -0.185965 -0.00471899 0.214224 0.441393 0.163551 0.248665 0.0397155 -0.217771 -0.308007 0.0626214 0.0267843 -0.247581 0.353305 0.230502 0.288268 0.390518 -0.321003 -0.199157 0.352499 -0.185413 -0.32157 -0.196974 -0.00254193 -0.378164 -0.310695 0.360218 -0.373827 -0.227511 0.410077 0.164133 0.185581 -0.152862 -0.0499046 0.261003 0.0394865 -0.295429 -0.0863768 0.123486 0.114854 0.143545 0.112708 -0.0698627 -0.0967072 -0.0114484 -0.336441 -0.276388 -0.115543 0.103621 -0.106286 0.060209 -0.101399 -0.073328 0.0276893
138811 -0.0811712 0.784898 0.525179 0.0598876 1.00296 0.114713 0.194722 0.0601026 -0.344903 1.30118 1.19441 -0.811053 0.311084 0.867397 -0.0580399 0.32822 0.192409 -0.578611 -0.0802921 -0.0593946 -0.714885 0.692839 0.44574 1.04938 -0.780595 0.234015 0.181014 0.186035 0.116497 -1.11788 -0.466978 -0.434474 -0.592536 0.673954 -0.740263 0.7022 0.0615281 0.674992 -0.228431 -0.439852 0.111111 0.580398 0.185189 0.354802 -0.023642 -0.588425 0.226468 0.285621 -0.343796 0.499926 -0.309078 -0.575633 0.156614 -0.267252 -0.0208817 -0.00184521 -0.435239 -0.311149 0.684309 1.11118 -0.413366 0.74018 -0.552719 -0.357707 0.0967392 0.252605 -0.11537 -0.0770279 0.0284942 0.010455 0.247173 0.579999 0.224636 -0.113604 -0.154405 -0.17465 0.00158433 -0.240503 0.190911 0.16788 0.209454 -0.0200775 -0.311222 -0.140066 -0.537983 0.00897601 -0.212706 0.634026 -0.0943028 0.412748 0.349692 -0.115917 0.0485841 0.245231 -0.122648 -0.415801 0.183209 0.27113 -0.282569 -0.252542 0.363326 -0.282502 0.0335996 0.719658 -0.322454 0.072251 -0.448527 -0.11787 0.458879 0.181955 -0.360057 0.089468 0.322379 0.208432 0.0926536 0.505662 -0.0263448 -0.00243578 -0.236579 -0.181806 -0.273466 0.236876 -0.048116 -0.333272 0.0117099 -0.0723232 -0.318453 -0.140905
203169 -0.0034973 0.386161 0.442275 0.128189 0.488611 0.216513 0.0646214 0.0180393 -0.440332 0.62263 0.789561 -0.7956 0.368999 0.594101 -0.0121457 0.599439 0.332395 -0.505883 0.322041 -0.116636 -0.828791 0.379948 0.40333 0.701962 -0.682277 0.0312715 0.393803 0.263757 -0.133246 -0.995709 -0.369817 -0.143806 -0.467104 0.6014 -0.755052 0.415363 -0.235868 0.508338 -0.303643 -0.432058 0.254728 0.542567 0.0554549 0.231918 -0.0514812 -0.249312 0.253133 0.461006 -0.259066 0.633335 -0.0635466 -0.549147 -0.0855045 -0.314724 -0.0647736 0.0932209 -0.741468 0.0369599 0.870203 0.631792 -0.342117 0.32157 -0.414788 -0.357837 0.204532 0.127276 -0.211137 -0.117751 -0.133021 0.117802 0.408384 0.856957 0.307 -0.126097 0.0898057 -0.0220569 0.0560505 0.425404 0.285415 -0.059459 0.261803 -0.044917 -0.225556 0.0677681 -0.0418098 -0.00910257 -0.0240884 0.475763 -0.259767 0.193887 0.302782 -0.158855 0.30342 0.253321 0.0810901 -0.117564 -0.00111629 0.213307 -0.220867 -0.202312 0.144251 -0.289671 -0.0224914 0.553623 -0.241556 0.221236 -0.0669545 -0.0760773 0.144524 0.360417 -0.312106 0.240735 0.135025 0.156634 0.279629 0.186978 -0.270624 -0.209917 -0.0984147 -0.222848 -0.393878 0.162219 -0.0956502 -0.357423 -0.165317 0.20629 -0.216953 0.0147074
138805 -0.188965 0.61206 0.682893 -0.179516 0.763384 0.142851 0.351303 0.0147759 -0.659847 0.620149 1.10272 -1.01597 0.48841 0.479252 0.0282642 0.817559 0.317157 -0.600156 0.45284 0.379727 -0.433059 0.561033 0.68883 0.652329 -0.626709 0.333615 0.541903 0.467962 -0.344216 -1.2119 -0.0796867 0.263228 -0.513499 0.70768 -1.20409 0.696999 -0.338287 0.909204 -0.331916 -0.388059 0.552565 0.646103 -0.135951 0.283837 0.132899 -0.645488 0.284984 0.224404 -0.233805 0.537663 0.118381 -0.744242 0.0910574 -0.676635 0.0105077 0.104192 -0.576903 -0.0741901 1.02708 1.32281 -0.525808 0.651303 -0.906088 -0.343109 -0.194049 -0.000947676 -0.139449 -0.156337 -0.233923 0.0664958 0.707468 0.480073 0.441484 -0.351722 -0.633464 0.0715864 -0.0566694 0.473538 0.22302 -0.366227 0.439109 -0.370368 -0.214284 -0.155798 -0.0751441 -0.36692 -0.398074 0.241187 -0.510135 0.449078 0.396607 -0.387658 0.276105 0.283955 0.0107933 -0.258409 -0.430445 0.0271942 -0.0347827 -0.0429637 0.261155 -0.199367 0.184541 0.890397 -0.083619 0.399355 0.132556 0.074901 0.198813 -0.0303502 -0.552507 -0.00739846 -0.0235143 0.115793 0.0581807 -0.0421123 -0.399077 -0.0501967 -0.447298 -0.240401 -0.490936 -0.132762 -0.630167 -0.14781 0.316794 0.596607 -0.283321 -0.207527
138807 -0.0294331 0.714773 0.566809 -0.0109203 0.674134 0.173023 0.0808114 0.188749 -0.520391 0.717313 0.731602 -0.831597 0.436284 0.782092 -0.165118 0.611044 0.152554 -0.446115 0.182843 0.125587 -0.461922 0.755445 0.415095 0.695939 -0.557032 0.742525 0.481261 0.757049 -0.407761 -1.17403 -0.471938 -0.0180345 -0.369893 0.686611 -1.09381 0.761296 -0.244341 0.823069 -0.627691 -0.219376 0.429813 0.877441 0.399327 0.365494 0.00375356 -0.240221 0.464981 0.447398 -0.210999 0.325887 -0.226198 -0.540998 0.277887 -0.530255 0.0603878 0.267123 -0.698739 0.09237 0.860803 1.24873 -0.331933 0.709701 -0.729771 -0.419319 0.0244002 0.0569498 0.214694 -8.48965e-05 -0.2686 0.0569562 0.133644 0.631426 0.429344 -0.356258 -0.184362 0.183886 -0.164477 0.665771 0.0142768 -0.121876 0.126879 0.048849 -0.246641 -0.0477303 -0.268847 0.437403 -0.40401 0.352689 0.0122112 0.551102 0.441068 -0.51728 0.0335033 0.347634 0.144945 -0.296338 -0.386566 0.277458 0.074055 -0.469317 0.188606 0.172283 0.0997442 0.917 -0.136884 0.645764 -0.294859 0.00188276 0.453061 0.0772682 -0.594462 0.24128 -0.0331715 0.261131 0.107124 0.0791653 -0.0738177 -0.070169 -0.160836 -0.345562 -0.4641 -0.183367 -0.262613 -0.245757 -0.0658443 0.217011 0.179964 0.0285772
138808 0.298214 0.493119 0.496061 0.0771688 0.695984 0.0189963 0.300605 0.159235 -0.5236 0.54059 1.02915 -0.833873 0.601654 0.478529 0.177933 0.491726 0.533041 -0.325151 0.227351 -0.0975842 -0.562775 0.582936 0.138156 0.671958 -0.603845 0.488266 0.603958 0.558281 -0.111769 -1.29733 -0.154226 -0.0530952 -0.677564 0.617393 -0.640011 0.638354 -0.451126 0.482769 -0.404252 -0.211083 0.15546 0.830008 -0.0804759 0.360989 0.135935 -0.491075 0.0821126 0.176888 -0.205252 0.47079 -0.454277 -0.673426 0.419769 -0.166307 0.247067 0.200602 -0.972887 -0.113264 0.609384 1.07824 -0.584377 0.970305 -0.521782 -0.283366 0.162917 0.0477515 0.0600523 -0.273722 -0.125924 0.0150748 0.520441 0.73755 0.312708 -0.023845 0.148559 0.0786119 -0.00590999 0.152229 0.210006 -0.134865 0.279566 -0.117711 -0.52962 -0.118431 -0.0112785 0.149892 0.189825 0.461709 -0.317537 0.583305 -0.108579 -0.445981 0.199036 0.374942 -0.0209358 -0.247829 -0.33502 0.0779965 -0.309833 -0.191205 0.278386 0.0953627 -0.106062 1.06247 -0.102278 0.711706 -0.377243 -0.337989 0.415692 0.262791 -0.293174 0.195126 -0.0267516 -0.253662 -0.01391 0.30024 0.0444444 -0.16545 -0.124315 -0.41331 -0.248523 0.00534217 -0.17008 -0.293857 0.281356 0.214913 -0.476077 -0.186866
41144 -0.406507 0.192033 1.11222 0.273226 0.140986 0.30671 0.689717 0.202247 -0.189618 0.608635 0.620074 -0.680227 -0.224115 -0.442558 -0.181688 0.578999 -0.0834913 -0.256808 0.932614 0.256523 -0.354224 0.537051 0.612231 0.690676 -0.775641 0.368142 0.622606 0.599697 0.0906667 -1.34237 -0.772341 0.197581 0.208541 -0.0527336 -0.570631 0.359972 -0.605327 0.409007 -0.192259 -0.0427803 -0.516935 0.466351 -0.0708655 0.797662 0.311047 -0.240118 -0.305127 0.0210139 -0.574416 0.58433 -0.658673 -0.838557 0.0726461 -0.524319 -0.66646 0.947971 -1.56947 -0.174219 0.97497 0.439754 -0.443561 0.845361 -0.685469 -0.0723749 -0.820989 0.169155 -0.0762612 0.0175375 0.248477 0.347949 0.304699 0.788733 -0.0295503 -0.551798 0.151108 0.597222 0.0919296 0.134027 -0.122106 0.0175496 0.208281 -0.0216864 -0.414725 0.166676 0.276801 0.454638 -0.37793 -0.331127 -0.261638 0.245261 -0.446821 0.0437498 0.345912 -0.650937 -0.327888 -0.151691 0.572575 0.344594 0.432231 -0.263525 -0.648372 0.03236 -0.030632 0.0663031 -0.319249 -0.257594 -0.576958 0.132284 0.280538 0.196436 0.386186 -0.252087 -0.0219851 -0.0527498 -0.0353504 -0.194059 0.0783005 0.02252 -0.926103 -0.0376266 -0.162982 0.143932 0.35505 0.433324 -0.065291 -0.0420284 0.198277 -0.0322437
140878 -0.25235 0.320876 0.688719 -0.0618609 0.0521597 0.0989955 0.490926 0.264553 -0.0953942 0.9016 0.22636 -0.41792 0.137054 -0.226835 -0.0948932 0.246756 0.054004 -0.25315 1.217 0.188135 0.117879 0.523488 0.573124 0.265122 -0.690443 -0.0457693 0.374002 0.589817 0.39869 -1.20051 -0.90977 0.744306 0.223543 0.047197 -0.484911 0.201564 -0.865659 0.368215 -0.701392 -0.365954 -0.201103 0.017688 -0.103586 1.01749 0.212058 -0.114991 0.278346 0.155805 -0.487123 0.62974 -0.0862917 -0.433343 0.123175 -0.496914 -0.387133 0.61719 -1.16359 -0.235467 0.694381 0.701418 -0.540037 0.337061 -0.927056 -0.303598 -0.729673 0.00831446 -0.0368395 -0.0506133 0.488085 0.0278503 0.0942965 0.471213 -0.188637 -0.192376 0.281587 0.317906 0.0520371 -0.250762 -0.381378 -0.134766 0.20059 -0.0705326 -0.333453 0.0133409 -0.0279028 0.273356 -0.381876 -0.0943238 -0.144155 0.173434 -0.263741 0.216486 0.173279 -0.326725 -0.389975 -0.151222 0.425421 0.220148 0.419412 -0.346321 -0.389329 0.233708 0.0183664 0.0803437 -0.196362 -0.347226 -0.114359 0.220106 0.409605 0.154278 -0.0492933 -0.383272 -0.14884 0.244398 -0.24918 -0.0311283 0.262113 0.114869 -0.793172 -0.05906 -0.10471 -0.0275077 0.0809031 0.272064 0.23898 -0.0756719 0.0554471 0.244152
140885 0.0225117 0.545558 0.467819 -0.144467 -0.0309199 0.145767 0.427369 -0.0729792 -0.13182 0.852884 0.320091 -0.566518 0.281393 -0.160135 -0.0686673 0.447671 -0.0252097 0.13985 0.481518 -0.112196 -0.370276 0.414015 0.464837 0.42453 -0.59863 -0.0110931 0.226491 0.621508 0.324935 -1.25744 -0.534471 0.507102 0.0878726 0.0636779 -0.206365 0.0413409 -0.698638 0.0636351 -0.651613 -0.63651 0.029918 0.21395 -0.492164 0.616462 -0.0349013 -0.27099 0.488858 -0.105955 -0.301383 0.491606 -0.425054 -0.372416 -0.16359 -0.278874 -0.217391 0.308346 -0.746164 0.0196632 0.430249 0.982301 -0.615054 0.265008 -1.28031 -0.613254 -0.656071 0.158768 0.23219 -0.153373 0.492888 0.35067 0.225197 0.581975 0.132367 -0.283684 0.199744 0.0135849 -0.185871 -0.072038 0.0519414 0.36709 0.327924 0.11936 -0.415699 -0.132852 0.0388055 0.574977 -0.0881048 -0.212919 -0.0397384 0.160659 -0.0367316 -0.0937673 0.212647 -0.42294 -0.509377 -0.0292694 0.411058 -0.0357132 0.549737 0.0738547 -0.280751 0.33589 0.133033 -0.22596 0.0668387 -0.234284 -0.307093 0.272489 0.599566 0.393588 0.222466 -0.243633 -0.561154 -0.0500616 -0.235275 0.0687545 -0.239106 0.0628747 -1.01133 -0.39561 -0.329692 0.127272 -0.0382686 0.0121718 0.20865 -0.0783487 -0.122648 0.20912
41136 -0.523586 0.210096 0.734496 0.189207 0.187234 0.44956 0.472337 -0.0853751 -0.519041 0.665879 0.70994 -0.663695 0.223935 0.249176 0.1317 0.547576 0.0633878 -0.556927 0.212241 -0.0430796 -0.253996 0.261863 0.0627225 0.309325 -0.718961 0.400944 0.769856 0.56788 -0.0718799 -1.08827 -0.518271 -0.0125916 -0.0374977 -0.0105507 -0.0349219 0.52038 -0.875454 0.325268 -0.231851 -0.542567 -0.534748 0.464503 0.0175823 0.248437 0.164206 -0.248986 -0.207924 -0.197823 -0.511608 0.66879 -0.62958 -0.613835 -0.0989411 -0.17613 -0.49683 0.227182 -0.838597 0.0779143 0.44092 0.134478 -0.330399 0.767223 -0.577673 -0.00441394 -0.499351 -0.0148665 0.0997822 -0.222435 -0.103026 0.165586 0.260192 0.692013 0.0913673 -0.299386 -0.176296 0.564925 0.0190876 0.195891 -0.236705 0.0224916 0.331936 -0.0458963 -0.436319 -0.230529 0.368754 0.292397 -0.0182917 -0.351758 -0.23627 0.0416845 -0.422285 0.0855192 0.205557 -0.620358 0.172355 -0.067063 0.221522 -0.153653 0.498161 -0.195773 -0.276995 -0.140414 0.074177 0.00650732 0.0856388 -0.285067 -0.139387 0.0390021 0.103758 0.179104 0.746636 0.164129 -0.134729 -0.262539 -0.0325086 -0.12249 -0.285496 -0.180296 -0.597406 -0.0918062 -0.133986 0.113176 0.177444 0.399835 0.0147583 -0.136904 -0.16459 0.0947202
41143 -0.54651 0.111008 0.845705 0.194602 0.15041 0.335627 0.366285 0.121987 -0.608586 0.835203 1.09178 -0.485938 -0.1634 0.568234 0.293954 0.401952 0.0517458 -0.98327 0.339031 0.185636 -0.578488 0.533038 0.148003 0.154341 -1.15851 0.0391639 0.712219 0.840968 0.197734 -1.2499 -0.584077 0.0892197 0.251013 0.40061 0.00278133 0.85022 -0.607649 0.0489181 -0.228007 -0.507652 -0.478187 0.0858573 0.0409992 0.293878 0.284917 -0.338346 -0.124895 -0.169777 -0.427365 0.530875 -0.530619 -0.719301 -0.257769 -0.245546 -0.550567 0.392867 -1.16686 0.0543264 0.615192 0.0498223 -0.252509 1.06563 -0.494457 -0.266359 -0.436513 -0.246526 0.205784 0.273293 -0.523298 0.156972 0.192984 0.669964 0.339673 -0.248984 -0.21068 0.744007 -0.340043 0.104226 -0.181573 -0.345123 0.50975 -0.543907 -0.388335 -0.0272437 -0.0356588 0.244918 -0.0422738 -0.767776 -0.208557 -0.0288445 -0.0718015 0.26656 0.0385545 -0.927375 -0.0974911 -0.359632 0.0418997 0.0670503 0.293911 -0.227231 0.197433 -0.106712 -0.000171258 -0.147163 0.213609 0.0571994 -0.00705244 0.0469944 0.50477 -0.0176571 0.408716 0.0897344 0.0406159 -0.140286 0.00433449 0.0670426 -0.655425 -0.523024 -0.453582 -0.176814 -0.0639307 0.0105845 0.669314 0.549597 -0.20015 -0.338122 -0.247464 0.622811
290366 -0.558078 0.151368 0.998079 -0.0950343 0.121961 0.67694 0.241574 0.447679 -1.0867 0.82442 0.983358 -0.975924 0.271071 0.133222 0.24784 0.227578 -0.165311 -0.40348 0.117817 -0.17653 -0.346317 -0.338926 0.280835 -0.0499267 -0.827285 0.37351 1.06623 0.596623 0.0624943 -1.00734 -0.537037 0.359562 0.136244 -0.202049 -0.199235 0.559493 -1.40112 0.357627 -0.600818 -0.412438 -0.324762 0.601355 -0.0781407 0.172746 0.206753 -0.0207387 -0.420932 0.0325374 -0.525523 0.54793 -0.338451 -0.387314 -0.104983 0.0661747 -0.171651 -0.104406 -1.32825 -0.115283 0.34028 0.143096 -0.472135 0.949288 -0.608596 -0.108999 -0.211958 -0.204675 -0.0220992 -0.0429398 0.104564 0.263452 0.142897 0.845574 -0.285758 -0.26351 -0.186992 0.60406 -0.221126 0.300899 -0.423174 0.0308321 0.256476 -0.0537797 -0.473744 0.0183981 0.439027 0.555146 -0.290022 -0.0459291 -0.259096 0.0152846 -0.416764 -0.083503 0.172979 -0.81676 0.185229 -0.079469 0.205859 -0.086163 0.433654 -0.055051 -0.436112 -0.205366 0.18758 0.34422 0.339974 -0.1352 -0.465821 0.0402634 -0.0608422 0.0885805 0.55519 -0.154438 -0.373812 -0.537644 -0.111392 -0.166062 0.000501579 -0.240323 -0.707974 -0.150286 0.186558 -0.00284672 0.29556 0.0430308 -0.000945266 -0.131875 -0.261509 0.0529335
41142 -0.26118 0.278504 1.08061 0.112038 0.308577 -0.142569 0.428153 -0.209087 -0.605571 0.734097 0.873196 -1.32317 0.266445 -0.212207 -0.154632 0.262812 0.252368 -0.56704 0.827912 -0.175452 -0.547903 0.253919 0.137089 -0.0353615 -0.821284 0.0101555 0.623491 0.556183 -0.507563 -1.00936 -0.635634 0.228773 -0.22819 0.534306 -0.0281849 0.81123 -0.671705 0.506746 -0.358498 -0.191226 -0.483555 0.0851732 -0.0351366 0.743884 0.356885 -0.336708 -0.11743 0.246465 -0.42251 0.666129 -0.592857 -0.62104 0.0625602 -0.21756 -0.336994 0.78115 -0.609344 -0.0496852 0.270989 0.418245 -0.349073 0.731557 -0.439376 -0.473843 -0.288391 -0.196459 0.201888 0.354935 -0.146069 -0.279575 0.0252124 0.369359 -0.286941 -0.450204 -0.0292456 0.512886 -0.537664 -0.00440329 -0.22724 -0.0255477 0.0912974 -0.092689 -0.661437 0.248241 0.234958 0.104496 -0.14794 -0.050093 -0.256842 0.0345731 -0.083878 0.372295 0.0065611 -0.297445 -0.141545 -0.246204 0.0966173 -0.024928 0.163698 -0.228247 -0.296483 0.30762 0.106383 -0.0870687 -0.199771 -0.035107 -0.157714 -0.522175 0.0430671 -0.264136 0.368454 0.0792927 -0.355181 -0.137251 0.11578 0.0807816 -0.0341966 -0.29904 -0.800596 -0.0239526 0.0497273 -0.0154703 0.418105 0.0682889 -0.137836 -0.0419246 -0.183209 -0.0267766
222923 -0.392118 0.0323641 0.553517 0.0136463 0.293718 -0.0708059 0.411889 0.066501 -0.418222 0.544457 0.870433 -0.842908 -0.0568427 -0.230163 -0.424548 1.03753 -0.0633716 -0.120866 0.507408 0.102249 -0.711086 0.444218 0.409376 0.670573 -0.809672 0.24447 0.364096 0.704361 -0.106692 -0.890291 0.138178 -0.258657 0.0903733 0.18484 -0.626215 0.554471 -0.416788 0.510013 -0.5699 -0.623768 0.0448745 0.511376 -0.0426776 0.0197985 0.335183 -0.148743 0.183821 0.33885 -0.20877 0.0935146 0.276004 -0.519461 0.099443 -0.499963 -0.202441 -0.0269516 -0.813669 0.158211 0.350299 0.84438 -0.197532 0.817181 -0.367482 -0.213303 -0.148472 -0.4461 -0.16956 -0.145638 -0.209934 -0.0184931 0.365597 0.493017 0.189556 0.264576 0.158754 0.137798 -0.172411 -0.239093 -0.385009 -0.150652 0.130463 -0.185356 -0.225541 0.334797 -0.31208 0.515974 0.298132 0.0306717 -0.235721 0.247287 -0.605673 0.0518779 -0.379918 -0.338274 -0.094664 0.0376483 -0.0705908 0.0849518 0.255356 0.428119 -0.181856 -0.342639 -0.0860012 0.502056 0.0378643 -0.237179 -0.349647 0.30982 0.0092702 -0.117499 0.626711 0.258068 -0.0550588 -0.0229606 0.146691 -0.0150719 -0.0766959 -0.27948 -0.0798664 -0.159401 0.116961 0.244441 -0.254584 -0.250996 -0.333833 -0.0222697 0.201974 -0.128637
222927 -0.309127 -0.0142385 0.336982 0.315812 0.163702 0.192106 0.322549 0.325268 -0.18072 0.693474 1.03498 -1.15184 0.0747206 -0.312276 -0.411619 1.07205 -0.151118 -0.108269 0.600731 0.0902723 -0.734296 0.475381 0.340537 0.269689 -0.824486 0.272367 0.469346 0.963629 0.105965 -0.667983 -0.421577 -0.815028 -0.024435 0.209399 -0.582637 0.915644 -0.579099 0.538408 -0.447795 -0.686037 -0.241246 0.385089 -0.258538 0.0845323 -0.0559059 -0.293333 0.248504 0.404354 0.0725022 0.134758 0.284851 -0.540699 0.419495 -0.284603 -0.403925 0.0172784 -1.13701 0.204414 0.47376 0.993319 0.151422 0.919472 -0.65087 -0.0199085 -0.272807 -0.127427 -0.321349 -0.10721 -0.245961 -0.18619 0.79368 0.73346 0.153158 0.125732 0.139409 0.283245 -0.265959 -0.0929637 -0.576799 -0.323116 0.318409 -0.40643 -0.527096 0.534212 -0.448862 0.692439 0.106026 -0.016913 -0.438541 0.339025 -0.659588 0.111046 -0.280963 -0.369315 -0.00201797 -0.255322 0.0160855 -0.352926 0.160735 0.544739 -0.427129 -0.342667 -0.113196 0.363856 -0.0136838 -0.339718 -0.363705 0.0848892 -0.067619 -0.167035 0.6349 0.14273 -0.284684 -0.182065 0.186704 -0.141938 -0.139972 0.01535 0.0991366 -0.331952 0.212519 -0.0689887 -0.388529 -0.0824943 -0.222075 -0.351155 0.295396 -0.288621
222931 -0.561079 -0.00197483 0.945664 0.232641 0.45392 0.267945 0.143035 0.147674 -0.665982 0.432961 1.04912 -1.1162 0.104058 -0.565914 -0.486526 0.97545 0.0399173 -0.200154 0.329653 0.322342 -1.01186 0.593079 0.520583 0.560773 -0.719663 0.589014 0.409115 0.855578 -0.0634384 -1.42512 0.0571671 -0.012784 0.224398 0.125515 -0.920973 0.784271 -0.477508 0.429438 -0.76905 -0.409975 0.176854 0.200519 -0.00642469 0.041918 0.431703 0.0117736 -0.0398782 0.320307 -0.197334 0.24627 0.133939 -0.619066 0.142823 -0.784355 -0.214593 0.0449463 -1.10788 -0.0821804 0.0692298 0.992283 -0.204649 0.703457 -0.192933 -0.232876 -0.109717 -0.275529 0.184788 -0.0160454 -0.319167 -0.426987 0.295139 0.649809 0.378629 0.488656 0.357245 0.0623041 -0.235997 -0.294559 -0.264736 -0.0294603 0.360167 0.0761544 -0.263381 0.126374 -0.270171 0.577083 0.297357 0.475074 -0.179742 0.233651 -0.664095 -0.169822 -0.459869 -0.548345 0.142837 -0.174158 -0.372137 0.297509 0.353318 0.394066 -0.412078 -0.449423 0.190095 0.282149 -0.0878473 -0.114945 -0.227628 0.323647 -0.154532 -0.00238605 0.880471 0.316586 0.148453 -0.168606 0.0119359 0.0828541 -0.0873762 -0.334203 -0.489926 -0.111405 0.275645 0.304937 -0.208851 -0.357599 -0.439947 0.11121 0.0568909 -0.0181154
222928 -0.237858 0.148969 0.161513 -0.304762 0.277424 -0.361814 0.225818 0.079068 -0.190949 0.962942 1.16465 -0.898017 0.425761 -0.29033 -0.601601 0.787804 0.0391249 0.279415 0.260169 -0.357714 -0.71981 0.504674 0.362016 0.457728 -0.998701 0.480601 -0.0884838 0.84143 -0.343979 -0.702986 -0.0157964 -0.593353 0.0691296 -0.0357616 -0.441632 0.419774 -0.145686 0.811299 -0.557355 -0.46261 0.0467338 0.95351 -0.0210793 0.504342 0.458036 -0.25914 0.434669 0.451589 -0.541739 0.306334 -0.258608 -0.778825 0.107417 -0.180027 0.0821286 -0.0253409 -1.15148 0.00379058 0.251072 0.907626 -0.56167 0.988765 -0.608532 -0.079331 -0.0990464 -0.290254 -0.19259 -0.273658 -0.0487689 -0.403153 0.379076 0.350647 0.201331 0.428097 0.133547 0.39767 0.252413 -0.23071 -0.266636 0.102471 -0.0211576 -0.445558 -0.485238 0.110553 -0.33005 0.198016 -0.14909 -0.301935 -0.190839 0.48717 -0.596481 -0.0446984 -0.497886 -0.25734 -0.161863 0.63416 0.212304 0.116686 0.359078 0.812506 -0.343521 -0.154687 -0.208561 0.611441 0.213776 -0.223183 -0.0596464 0.391737 -0.00113496 -0.230152 0.490865 0.27051 -0.400729 0.0102622 0.0928689 -0.28533 0.136354 -0.491299 0.123051 0.240711 0.0105374 0.0246321 -0.293065 -0.155672 -0.319541 0.129713 0.40929 -0.282047
11664 -0.201095 0.308891 0.418975 -0.237001 0.625184 -0.0734053 0.661986 0.111175 0.0527509 0.881821 0.594083 -0.454419 0.147979 0.3817 -0.375517 0.454531 0.236248 0.115492 -0.373214 0.0782446 -0.60748 -0.234562 -0.0246759 0.431613 -0.560715 0.378216 0.3444 0.944898 -0.0769894 -0.758635 0.0456793 0.404133 -0.434971 0.773807 -0.202845 0.0064817 -0.345876 0.57665 -0.710161 -0.2257 -0.258146 0.55079 -0.1347 0.00541719 0.209017 -0.299512 -0.0300266 0.0558754 -0.406265 0.709343 0.368377 -0.895056 -0.308717 -0.221744 -0.415716 -0.0685111 -0.653917 0.111908 0.599924 0.489708 -0.551853 1.15658 -0.680427 -0.0510415 0.398695 -0.666603 -0.116172 -0.125504 0.439125 0.533891 0.374517 0.364361 0.0664968 -0.0634342 -0.220952 -0.0161629 -0.0272649 -0.0716435 0.0932054 -0.337754 0.608688 -0.0633293 -0.364095 0.664309 0.143883 0.023921 -0.369601 0.172805 0.328221 -0.0851111 0.388366 -0.218176 0.420881 -0.0716344 -0.290771 -0.504109 -0.137582 -0.0181702 -0.0706757 0.320111 0.338037 -0.487439 0.346125 -0.000111629 0.721443 -0.0221374 -0.3338 0.045654 0.388163 0.0647477 0.201833 0.266599 -0.0464792 -0.309826 -0.226053 0.206077 -0.0489609 -0.380816 -0.427863 -0.0767572 -0.325813 -0.167705 -0.0947832 0.067981 -0.370083 0.618482 0.651107 0.253809
11663 -0.225692 0.606677 0.836255 -0.178071 0.363165 -0.168728 0.530175 0.557441 0.112412 0.450835 0.655988 -0.466911 0.639417 0.560005 -0.324733 0.630754 0.14135 -0.0872814 -0.525681 0.312876 -0.92142 -0.14031 0.416368 0.600174 -0.383575 0.180105 0.265465 0.493128 -0.0015323 -0.677143 -0.13914 0.20436 -0.530619 0.796192 -0.0320653 0.0576687 -0.692662 0.528693 -0.225722 -0.471233 -0.519241 0.54778 0.141455 0.531638 0.259546 -0.253297 -0.272474 -0.268484 -0.873011 0.589162 0.199078 -0.668386 0.0250035 -0.315838 -0.578003 0.0763359 -0.401884 -0.0658654 0.173896 0.447213 -0.0778333 0.952047 -0.651141 -0.294292 0.0301237 -0.5273 -0.105778 -0.260809 0.476607 -0.0893608 0.25935 0.755907 -0.348442 0.0208848 0.206759 -0.42235 -0.0292372 0.0124241 -0.406987 -0.345529 0.397681 -0.220985 -0.23675 0.445795 0.381663 0.181222 -0.12486 0.361887 0.00321319 0.0564197 0.466557 -0.215213 -0.00512699 0.0873297 -0.285609 -0.549611 0.112681 0.17699 -0.426744 0.278849 0.229279 -0.084531 0.218108 -0.254542 0.354558 0.261729 -0.463898 0.070574 0.251847 0.0414287 0.311054 0.412784 -0.147622 -0.158921 -0.249937 -0.08099 -0.140439 -0.325932 -0.185147 -0.256623 -0.27403 -0.117048 0.116802 0.105123 -0.420149 0.56742 0.225572 0.0986079
173494 -0.379466 0.491213 0.530836 -0.325375 0.826218 0.00705472 0.638965 0.858144 0.243361 0.202653 0.756499 -0.467102 0.922841 0.278838 -0.259676 0.936207 0.0420398 0.21226 -0.839752 0.567362 -1.38796 -0.195376 0.557458 0.592684 -0.626142 0.6276 0.286891 0.648712 0.261717 -0.892529 -0.306659 0.137899 -0.385627 0.699103 -0.0541093 -0.000184175 -0.852633 0.637077 -0.440368 -0.503305 -0.129196 0.757587 -0.114494 0.621904 0.116794 -0.114019 -0.163184 -0.455874 -0.63248 0.732658 -0.00159337 -0.502008 0.0974637 -0.517432 -0.612331 0.0823628 -0.773334 -0.209658 0.638219 0.308566 -0.41736 1.04564 -0.650878 -0.125275 0.0341072 -0.47203 -0.0924282 -0.257699 0.455555 -0.276589 0.331397 0.554917 -0.273194 0.0241186 0.341925 -0.373824 0.0519832 0.145698 -0.248556 -0.507497 0.0797986 -0.217711 -0.23398 0.831336 0.418421 0.276852 -0.04075 0.0546309 0.159207 -0.0113704 0.307204 -0.236845 -0.100482 0.225026 -0.139954 -0.707899 0.518931 0.25878 -0.143796 0.795064 0.14455 -0.0388564 0.0796207 -0.173146 0.974241 0.355983 -0.42883 0.0135362 0.0826642 0.104908 0.234423 0.512415 -0.469772 -0.304502 -0.163648 -0.0181839 -0.44802 -0.24919 -0.181974 0.00690223 -0.117189 -0.148257 -0.136115 -0.151337 -0.648597 0.578328 0.102481 0.410128
131842 -0.217924 0.439994 0.797597 -0.0509804 -0.0633323 -0.441542 0.79603 0.434963 -0.0384507 1.00877 0.47011 -0.344359 0.638768 0.523709 -0.470888 0.516401 0.580364 -0.269437 -0.280951 0.203938 -0.686563 -0.358798 0.244372 0.288821 -0.343156 -0.149879 -0.0434444 0.809406 0.0859107 -1.03034 -0.105034 0.238975 -0.36472 0.784248 -0.45796 -0.00757416 -0.287433 0.690118 -0.53052 -0.462283 -0.160533 0.162613 -0.150911 0.549775 0.0819741 -0.4358 -0.187788 -0.221341 -0.785062 1.05854 -0.0141121 -0.993127 0.126171 -0.855947 -0.676768 0.34845 -0.173193 0.253606 0.0327791 0.512604 -0.039359 0.970319 -0.520953 -0.570641 -0.0530634 0.026052 -0.460381 -0.321681 0.397064 0.241147 0.0638732 0.986677 -0.394377 -0.224477 0.15881 -0.192898 -0.0993837 -0.486352 -0.571569 -0.204886 0.11905 -0.137818 -0.288495 0.312019 0.47673 -0.00640541 -0.00625845 0.342547 0.108038 -0.0933238 0.324132 -0.117397 0.336278 0.39857 -0.0416688 -0.0368469 0.0935216 0.0895423 -0.159776 0.0573614 0.595417 -0.13713 0.0890399 -0.156622 0.117657 0.320364 -0.256542 -0.0848667 -0.196912 -0.238368 0.246342 0.533123 0.0652258 -0.0366318 -0.216514 0.374945 -0.114116 -0.367096 -0.0684481 -0.0131345 -0.032539 -0.243713 -0.0222442 0.0901884 -0.871708 0.53327 0.24081 -0.0464346
325906 0.166837 0.277172 0.576129 -0.0911981 0.517018 0.367344 0.718244 0.51027 -0.475916 0.909463 0.508334 -0.440721 0.475861 0.424724 -0.37119 0.103385 0.0925911 0.0136281 0.35613 0.171663 -0.437 -0.375453 0.603585 0.305273 -0.610824 0.198515 0.153904 0.742129 -0.0153534 -0.612468 -0.0626414 0.0979095 0.294341 0.158308 -0.347876 -0.171953 -0.384595 0.720002 -0.526774 -0.513864 0.0389088 0.161871 -0.216537 0.207159 0.042124 -0.248179 -0.564934 0.0120448 -0.643758 0.53908 -0.424542 -0.737507 0.0240249 -0.522737 -1.04907 0.250759 -0.559809 0.231031 0.304286 0.622392 -0.383888 1.11065 -0.200856 -0.362311 0.177586 0.0376406 -0.377561 -0.149933 0.360508 0.2735 -0.163045 0.765584 -0.188822 -0.202561 -0.334896 -0.0635099 0.270334 -0.164906 -0.567434 -0.274255 0.417244 -0.230414 -0.342643 -0.00689153 -0.0767004 0.0985605 0.0450233 -0.0502923 -0.399197 -0.195068 0.0908598 -0.0462026 -0.0454458 0.000582174 0.496557 -0.510608 0.470056 -0.0739688 -0.0249448 0.439535 0.138826 -0.00656095 0.0783743 0.0252851 0.151489 -0.0906898 -0.397339 0.120766 -0.15068 0.116801 0.336945 0.0986163 -0.126548 0.0546644 -0.329261 0.068993 -0.0401105 0.0639601 -0.214045 0.179933 0.0298299 0.00609145 -0.182867 0.0626265 -0.620927 0.45631 0.298701 0.144896
325908 0.019305 0.185038 0.887659 0.0228703 1.01111 0.137347 0.855811 0.439977 -0.696254 0.805014 0.782554 -0.477603 0.427128 0.262389 -0.340866 0.261461 -0.000781147 0.201591 0.433943 0.299647 -0.50037 -0.204761 0.718733 0.1693 -0.31311 0.402673 0.0758379 0.87128 -0.306042 -0.727299 -0.227254 0.185481 0.141528 0.366273 -0.579251 0.00783928 -0.380004 0.558626 -0.225466 -0.693577 0.484537 0.208536 -0.50958 0.0447578 0.358316 -0.0836802 -0.873565 -0.166434 -0.711332 0.623883 -0.38494 -0.907239 0.17097 -0.93012 -0.840503 0.0912181 -0.772503 0.355282 0.33221 0.691655 -0.287204 1.01457 -0.582245 -0.25725 0.000563667 0.188342 -0.254636 -0.485212 0.608865 0.0502567 0.107852 0.916878 -0.0208755 -0.458991 -0.367483 -0.583606 0.116213 -0.119152 -0.333294 -0.421803 0.392039 0.280034 -0.580882 0.107399 0.112805 -0.00370689 -0.0674723 0.117962 -0.463351 -0.205137 0.0457744 -0.370718 0.192864 0.279397 0.526138 -0.932527 0.0903432 -0.0120218 0.0600953 0.293707 -0.222186 -0.372862 0.0405485 0.199694 0.563934 -0.282199 -0.331408 0.195466 -0.195528 0.497855 0.491382 -0.00533515 -0.136314 0.213357 -0.0146429 0.30065 0.0380564 0.180723 -0.0735333 0.209944 -0.195016 -0.0695715 -0.526545 -0.213217 -0.441217 0.595145 0.21844 -0.106837
325114 -0.0557858 0.223278 0.467764 0.159188 0.155055 -0.188176 0.55597 0.254678 -0.837492 0.633938 0.597592 -0.798563 0.106198 0.145909 -0.683774 0.0608405 -0.527087 0.0924954 0.396247 -0.107713 -0.794528 -0.0140189 0.463379 0.370116 -0.442762 -0.0855509 0.197129 0.544978 -0.217487 -0.659006 -0.149608 0.255489 -0.47679 0.495162 -0.376352 0.242517 -0.685953 0.806938 -0.273962 -0.668463 -0.13119 -0.00997472 -0.427747 0.0851623 0.433877 -0.438555 -0.37142 0.20328 -0.299705 0.0935845 -0.567674 -0.929875 0.194048 -0.86666 -0.371246 0.175345 -0.57021 -0.409279 0.0313192 0.245251 -0.463862 0.556024 -0.459277 -0.826819 -0.108589 0.387546 -0.173221 0.356332 -0.0313637 -0.707182 0.00126458 0.704112 -0.0600011 0.230732 0.113429 0.374835 -0.0984834 0.133774 -0.181493 -0.235897 -0.0410319 -0.282043 -0.166166 0.164742 0.299513 -0.163238 0.397204 0.380658 0.151514 -0.0141706 -0.0822276 -0.221179 -0.353971 -0.240534 0.330923 -0.226052 -0.11662 -0.365748 -0.141921 0.20421 -0.123542 0.285863 -0.162882 0.0670893 0.141057 -0.149908 -0.208564 -0.0067943 0.145922 0.0210079 0.131948 0.121672 -0.0115643 -0.12756 0.0835438 0.369222 -0.0508608 0.0182847 -0.425579 -0.37385 -0.389287 -0.0844922 -0.408207 -0.552521 -0.241816 0.00532681 0.0374986 0.0971376
245306 -0.0881852 -0.471034 0.973233 0.164141 -0.00984346 0.204679 0.801998 0.585666 -0.455767 0.621976 0.45837 -0.619426 0.081397 0.290572 -0.0753775 0.535681 0.0346038 -0.0853469 0.468797 -0.138181 -0.618406 -0.23943 0.671962 0.371739 -0.155182 0.267567 0.0658567 0.2854 -0.133175 -1.01058 0.314438 -0.0780812 -0.185625 0.472361 -0.483892 0.103529 -0.366633 1.01151 -0.189849 -0.609978 0.352855 0.236346 -0.178334 -0.451946 0.407129 0.118525 -0.0116809 0.447688 -0.215367 0.0940336 -0.0693067 -0.414645 0.571258 -0.226449 -0.711112 0.500674 -0.640213 -0.122893 0.387587 0.738195 -0.212314 0.466739 -0.625478 -0.174023 -0.0627292 0.29349 0.0611198 -0.0359954 0.369217 0.0739695 0.0784616 1.02623 -0.221311 -0.113775 0.0115059 -0.577879 0.00569344 0.408072 -0.409493 0.56962 0.086286 0.285026 -0.323341 -0.182902 0.0412806 0.463117 0.134633 0.132128 0.262483 0.229572 0.5329 -0.110728 0.220534 0.349196 -0.141723 0.0644804 0.104583 0.462622 -0.136142 -0.246418 -0.251337 0.391741 0.0193049 -0.042675 -0.500264 -0.0284762 -0.212143 0.0272235 -0.308604 0.32497 -0.17722 -0.221412 -0.121049 -0.068567 0.403273 0.12089 -0.341464 0.149561 0.203566 -0.164658 -0.1987 -0.158097 0.263376 -0.0388009 0.0682333 0.220514 0.168946 0.512276
245313 -0.00315541 -0.0162394 1.0635 0.0812336 0.150322 -0.214214 0.442353 0.626643 -0.555405 0.601443 0.87501 -0.942563 0.545527 0.597533 0.0488265 0.893651 0.326784 -0.444717 0.210913 0.141771 -0.590859 0.40392 0.440054 0.138506 -0.0473648 0.628129 0.153573 0.370665 -0.279008 -0.964833 0.386758 0.129298 -0.304133 0.351442 -0.629643 -0.0772307 -0.278416 1.10529 -0.0980802 -1.04183 0.0539274 0.46671 -0.685319 -0.309705 0.370261 0.0817449 -0.117499 0.420116 -0.19486 0.160593 -0.00431836 -0.489784 0.358937 -0.601541 -0.749145 0.295948 -0.967777 -0.265871 0.475321 1.00571 -0.206547 0.257761 -0.784446 -0.229878 -0.613704 0.128439 0.209329 0.181688 0.183919 -0.404032 0.0491492 1.01417 -0.146971 -0.00229266 0.000873237 -0.167145 0.220887 0.213087 -0.393227 0.377889 0.0688771 0.350391 -0.711695 -0.0992013 0.0998875 0.28313 0.222504 0.53739 0.216237 0.525719 0.466926 -0.209756 0.211377 0.00347299 -0.53596 -0.197075 -0.209737 0.270489 -0.0325154 -0.0638381 -0.458897 0.271605 -0.0893716 -0.0450564 -0.359358 0.0150107 -0.216907 -0.0618553 0.08768 0.219894 0.0682098 -0.404223 -0.0685058 0.3224 0.186989 0.13915 -0.56938 -0.0361763 0.508271 -0.0632251 -0.13309 0.302003 0.18414 -0.177061 0.0870233 0.325859 -0.0397926 0.271022
245310 -0.0362688 -0.493857 0.984102 -0.0300621 0.10536 0.304732 0.806037 0.690766 -0.351923 0.961011 0.568401 -1.00796 0.00893466 0.3182 -0.212989 0.227078 0.22475 -0.0423851 0.567514 0.0273373 -0.764789 -0.334668 0.761087 0.763484 -0.151463 0.45343 -0.44138 0.220326 -0.0457496 -1.19751 0.206508 -0.097845 -0.295977 0.607727 -0.663347 0.154941 -0.285803 1.00021 -0.47728 -0.464169 0.0932867 0.325532 0.0943299 -0.18937 0.625551 -0.0294811 0.184535 0.248425 -0.402143 -0.0133221 -0.666529 -0.859828 0.337492 -0.472883 -0.652262 0.54608 -0.832591 -0.19986 0.564622 0.868101 -0.94666 0.963759 -0.763039 -0.314141 -0.511272 -0.202229 -0.220479 -0.0689525 0.19843 0.115118 -0.0368791 0.989333 -0.0132355 -0.31555 0.140268 -0.425008 0.23914 0.113063 -0.53669 0.453916 0.0904017 0.402838 0.0429637 -0.173174 0.18716 0.531485 0.700323 0.236642 0.371726 0.592707 0.577649 0.074873 0.618609 0.429829 -0.0989204 -0.211335 0.374057 0.45551 -0.101785 -0.0189583 -0.249537 0.643043 0.136346 -0.0660346 -0.5971 -0.208021 -0.0647844 0.00399456 -0.486229 0.459035 -0.0860506 -0.0797291 -0.137946 -0.336302 0.484892 0.368679 -0.386437 -0.236033 0.0927235 -0.0624969 -0.343844 -0.182481 -0.367212 -0.0269177 0.0379651 -0.111504 0.0140226 0.216447
245314 -0.165246 -0.607009 0.948745 0.163493 -0.191021 0.315892 1.24294 0.419805 -0.7336 0.779371 0.828933 -0.694745 0.300768 -0.066916 -0.101667 0.162001 0.156152 0.0242965 0.766278 0.0676888 -1.09761 -0.0377428 0.692433 0.80459 -0.296048 0.104065 0.108959 0.147495 0.198607 -0.769118 0.319602 -0.0270614 0.041176 0.852356 -0.540452 -0.150889 -0.486685 1.0663 -0.366362 -0.931099 0.339162 0.77263 -0.161302 -0.310494 0.384673 0.0939227 -0.0135917 0.462558 0.0096643 0.24139 -0.00754757 -0.334796 0.568658 -0.216279 -0.615751 0.458893 -0.668772 -0.177167 0.355769 0.739354 -0.243958 0.667779 -0.89811 -0.250924 -0.245213 0.241871 0.380891 0.339251 0.261043 -0.128593 0.114575 0.879021 -0.255507 -0.270767 0.17793 -0.393524 0.0982012 0.307157 -0.189324 -0.127466 -0.304773 -0.0382648 -0.555501 -0.399633 0.195164 0.205919 0.193209 0.106892 0.33255 0.233748 0.406316 -0.418191 0.190728 0.364961 0.214576 -0.0170459 0.0113528 0.334755 -0.567376 0.0791664 -0.27911 0.191519 0.343563 -0.0213756 -0.0621703 -0.316394 -0.431346 -0.138106 -0.38509 0.442395 -0.2239 -0.335317 -0.0484924 -0.388873 0.356049 -0.0648819 -0.516021 -0.0649101 0.258522 -0.225846 -0.416395 -0.249162 -0.083649 0.103639 0.18813 0.051012 0.230189 0.436739
154384 -0.515673 0.878227 0.763803 -0.151403 0.57044 0.390433 1.18456 0.543158 -0.750828 0.671439 0.671797 -1.05843 0.507479 0.465074 -0.167642 0.894145 -0.00655661 -0.467463 0.244506 0.30426 -0.0342615 0.174504 1.00556 1.00484 -0.359767 0.0498643 0.301708 1.16887 0.0858548 -1.30065 -0.514345 -0.167986 -0.190847 0.308973 -0.7053 0.0357941 -0.39989 0.297104 -0.375456 -0.510988 -0.0432169 0.700505 0.166404 0.261685 0.378027 -0.31107 0.283965 0.374095 -0.45219 0.491663 -0.056336 -0.790047 0.274703 -0.673543 -1.06152 0.907332 -0.920299 -0.1955 0.0471183 0.384945 -0.443003 0.466076 -0.503204 -0.306239 -0.38753 -0.118993 -0.186103 -0.209784 0.171491 0.160314 0.0416695 0.0618205 0.146903 0.354011 0.245898 -0.0314713 -0.541792 -0.177491 -0.0163993 0.187923 0.375748 -0.536095 0.0866849 -0.21129 -0.00822464 -0.0372444 0.213171 0.571768 0.189827 0.161329 -0.0622241 -0.366328 0.00410181 0.327173 -0.35511 -0.485814 0.0126007 0.164454 -0.091281 0.269003 0.0624916 -0.202437 0.188326 0.0458293 -0.0127782 -0.0605969 0.0299363 -0.227103 0.284599 0.0477916 0.073525 0.0172238 -0.391413 -0.269677 -0.0935664 -0.0443707 -0.212219 -0.289854 -0.458451 -0.728081 0.0398869 -0.238768 -0.524141 -0.1621 0.168445 -0.0858496 -0.238454 -0.109492
154385 -0.705865 0.811026 0.75407 -0.0306948 0.788824 0.620508 1.29148 0.51105 -0.976532 0.720392 0.817473 -1.13201 0.537849 0.502932 -0.275829 1.00418 -0.249938 -0.484045 0.136441 0.265948 0.0130359 0.0207316 1.10982 1.03346 -0.386709 0.195245 0.581646 1.44714 0.0942989 -1.48522 -0.420686 0.0667032 -0.129435 0.279412 -0.62617 0.0963323 -0.502012 0.360245 -0.623286 -0.720869 -0.115485 0.738954 0.0661752 0.307592 0.403059 -0.159228 0.385211 0.428791 -0.548548 0.674072 -0.0322042 -1.06185 0.317465 -0.806274 -1.15808 0.920706 -1.17101 -0.0396011 0.0447081 0.560123 -0.421677 0.542262 -0.545172 -0.214679 -0.206582 -0.107811 -0.188329 -0.236521 0.235377 0.199383 -0.174708 0.104138 0.146697 0.301723 0.389695 -0.0208155 -0.430652 -0.158996 -0.194397 0.17864 0.442757 -0.381496 0.108399 -0.211178 -0.226438 -0.112087 0.204732 0.73034 0.235039 0.13018 -0.0960324 -0.344841 0.00699803 0.344692 -0.33845 -0.505866 -0.0399296 0.15155 -0.131536 0.202482 0.212177 -0.256458 0.257005 -0.193173 0.0383585 -0.00635851 -0.0382304 -0.312766 0.235245 -0.0939644 0.101661 -0.169459 -0.490914 -0.420242 -0.287348 -0.0319931 -0.253376 -0.309326 -0.509967 -0.927521 0.00345673 -0.297354 -0.472187 -0.122416 0.1474 -0.20462 -0.359135 -0.193911
154378 -0.859308 1.07433 0.785342 -0.193106 0.803765 0.817623 1.56637 0.57735 -1.16624 0.693347 0.782029 -1.34546 0.65786 0.677388 -0.627861 1.03274 -0.30886 -0.620929 -0.010107 0.355337 0.166346 -0.193159 1.52537 0.713757 -0.438787 0.341496 0.623859 1.67109 0.170757 -1.71538 -0.594113 0.0245987 -0.38567 0.303471 -0.697973 -0.0629763 -0.564546 0.490334 -0.717336 -0.976653 -0.276158 0.656353 0.150286 0.475728 0.326179 -0.222823 0.234753 0.607589 -0.73899 0.921253 -0.0793708 -1.35676 0.401628 -1.00033 -1.42927 1.05205 -1.46272 -0.129379 0.0225687 0.850614 -0.662716 0.758075 -0.619624 -0.226038 -0.0091948 0.0572505 -0.0475862 -0.316479 0.211503 0.121147 -0.412711 0.156756 0.0318042 0.30506 0.603838 0.106098 -0.326184 -0.189689 -0.168247 0.176414 0.730586 -0.50678 0.286139 -0.403689 -0.578054 -0.230251 0.305792 0.823928 0.38039 0.154828 0.0850158 -0.230708 0.0107138 0.56708 -0.34397 -0.628663 -0.174255 0.0265331 -0.00990866 0.215617 0.184462 -0.538671 0.200671 -0.0534524 0.0636898 0.14998 -0.0639055 -0.388331 0.32306 0.122326 0.323224 -0.0922314 -0.700347 -0.5986 -0.401033 -0.0471304 -0.305534 -0.457538 -0.490758 -1.13595 -0.0712217 -0.402164 -0.601032 -0.181598 0.135235 -0.128327 -0.219294 -0.0843743
154388 -0.375994 0.607024 0.603523 -0.124027 0.512785 0.361643 1.13476 0.483412 -0.838251 0.678066 0.61994 -1.02312 0.583526 0.28529 -0.26191 0.92564 -0.0515889 -0.338453 0.246559 0.305734 -0.0530112 0.360101 1.01456 0.990444 -0.411371 0.0665347 0.297366 1.21578 0.240518 -1.24582 -0.563366 0.0142438 -0.237309 0.257125 -0.483197 0.0298308 -0.345257 0.47892 -0.34566 -0.485544 -0.0615214 0.605794 0.155954 0.208749 0.30906 -0.250344 0.134193 0.487637 -0.378771 0.526428 -0.234815 -0.738547 0.160554 -0.550733 -1.02954 0.833999 -0.801497 -0.0365107 -0.0493648 0.465088 -0.213236 0.473387 -0.459823 -0.316198 -0.295308 -0.0359733 -0.0709868 -0.322775 0.130959 0.333472 -0.204693 0.057467 0.152859 0.375083 0.237188 0.0148151 -0.288272 -0.197586 0.0814845 0.105283 0.276848 -0.518585 0.020461 -0.126244 -0.160162 0.187679 0.219062 0.596272 0.11309 0.110044 -0.171008 -0.211292 -0.119328 0.438681 -0.402148 -0.55224 0.0268796 0.0399741 0.183944 0.327056 0.0575304 -0.266432 0.066986 -0.0771795 -0.206126 0.0207049 0.113281 -0.260501 0.307597 0.0799874 0.208512 -0.17468 -0.353109 -0.285577 0.0457565 0.0761821 -0.29521 -0.29913 -0.550211 -0.80616 0.033003 -0.187048 -0.396976 -0.173441 0.0319732 0.0107643 -0.0433331 0.115544
154387 -0.495872 0.813722 0.84566 -0.0867129 0.632306 0.35344 1.3301 0.584202 -0.815014 0.716152 0.771741 -1.13594 0.478853 0.408176 -0.19171 1.06838 -0.207778 -0.425457 0.218702 0.368979 -0.0212451 0.230858 1.04846 0.949712 -0.301069 0.00145161 0.336483 1.38019 0.228908 -1.40535 -0.540269 -0.0677878 -0.16053 0.353231 -0.582738 0.00785873 -0.358401 0.420021 -0.341716 -0.560632 -0.0387735 0.672962 0.104197 0.217738 0.465778 -0.319209 0.167158 0.359631 -0.421452 0.644449 -0.0004667 -1.00508 0.233785 -0.739496 -1.10668 0.93073 -1.07609 -0.0261309 0.107486 0.590052 -0.321208 0.564137 -0.489084 -0.254412 -0.385431 -0.102776 -0.106883 -0.350926 0.170014 0.265759 -0.202154 0.140399 0.214277 0.284689 0.225735 -0.173891 -0.450309 -0.201859 0.0492316 0.140878 0.295751 -0.507028 0.00687825 -0.171926 -0.129254 0.0170052 0.307048 0.753492 0.0636515 0.158467 -0.203436 -0.303419 0.00722749 0.490625 -0.368437 -0.532411 0.0540512 0.159037 0.000788521 0.195514 0.151054 -0.22467 0.232908 -0.00404241 -0.135982 -0.014723 0.0226822 -0.350635 0.207841 -0.0563399 0.122024 -0.0203024 -0.490611 -0.263141 -0.022126 0.0677534 -0.236242 -0.365779 -0.541932 -0.785904 0.0699719 -0.299023 -0.50417 -0.194055 0.0582349 -0.144424 -0.227791 -0.0886832
154382 -0.436373 0.673145 0.790927 -0.176285 0.668953 0.46101 1.27296 0.460505 -0.754305 0.741739 0.741347 -1.15498 0.59885 0.331343 -0.19601 1.12572 -0.0937211 -0.422814 0.370513 0.35761 -0.141779 0.264894 1.0567 1.15915 -0.399319 0.0944758 0.40073 1.27886 0.0880752 -1.34102 -0.592612 -0.0484695 -0.180006 0.248266 -0.624119 0.00421331 -0.433684 0.384622 -0.321002 -0.489655 0.011529 0.870644 0.163641 0.197121 0.42372 -0.325902 0.241953 0.310168 -0.527569 0.582659 -0.1705 -0.721147 0.189998 -0.749292 -1.00385 0.936624 -0.857018 -0.0267036 0.0154921 0.501406 -0.234888 0.579071 -0.491436 -0.292018 -0.422329 -0.0546209 -0.156268 -0.423929 0.103527 0.417691 -0.148022 0.0615271 0.233781 0.476473 0.165953 -0.0991336 -0.363852 -0.21865 0.0801322 0.130608 0.267767 -0.524898 -0.122378 -0.101371 0.0254737 0.130585 0.225178 0.809415 0.178627 0.120241 -0.245952 -0.35417 -0.0199392 0.364189 -0.453246 -0.475772 0.0171163 0.179893 0.0235191 0.294857 0.0384812 -0.118556 0.0602751 0.0637716 -0.043692 -0.0398436 -0.0633524 -0.270638 0.380519 -0.0731786 0.077968 -0.168839 -0.311881 -0.238117 0.0870439 0.0860576 -0.267059 -0.493335 -0.576178 -0.743799 0.0778298 -0.189024 -0.494301 -0.195347 0.0958718 0.0505546 -0.25625 -0.04884
21997 -0.145432 0.956724 0.815453 0.119851 0.766368 0.536821 0.924058 -0.0568706 -0.709188 0.668776 0.78563 -1.08394 0.511582 0.605157 -0.20685 0.402288 0.267054 -0.16136 0.120077 0.383649 -0.18124 0.352264 0.196923 0.736837 -0.667064 0.280598 0.24847 0.45788 -0.0258749 -0.706224 0.0211472 0.318244 -0.0735676 0.634688 -0.868091 0.539462 -0.657926 0.899251 -0.425859 -0.584203 -0.0438266 0.463453 -0.049231 0.0422859 0.108532 -0.0182348 -0.170008 0.455548 -0.512492 0.559924 -0.276427 -0.432306 0.428035 -0.308414 -0.452429 0.632766 -1.25084 -0.0613985 0.0537622 0.999066 -0.926985 0.756575 -0.659036 -0.238497 -0.441465 -0.0612048 0.118124 0.241134 -0.446775 -0.191145 -0.173497 0.0407622 -0.173397 -0.0506697 -0.134884 0.0332942 0.150195 0.0761665 0.035328 -0.212148 0.126484 -0.172609 -0.517654 0.27068 0.269546 0.357973 -0.212754 -0.375191 0.47054 0.428251 -0.0940893 -0.376226 0.139036 0.354519 -0.6862 0.074575 0.185524 0.35227 -0.014919 -0.163344 -0.0144258 -0.00326508 0.457845 0.639161 0.369559 -0.368262 0.250208 0.106959 0.644374 0.0179876 0.409793 -0.417385 0.115443 -0.195789 -0.0952722 -0.00212233 -0.553234 -0.494077 -0.0823756 -0.263401 0.0993147 -0.319888 -0.02809 -0.165842 -0.148769 -0.339289 -0.412442 -0.109813
21998 -0.0824002 1.0948 1.34281 0.100581 0.616897 0.52252 1.11236 0.131801 -0.760017 0.943844 0.907666 -1.0938 0.653597 0.615226 -0.13802 0.450118 0.173866 -0.181533 0.235845 0.444573 -0.00275234 0.328914 0.494689 0.679729 -0.540081 0.249712 0.74775 0.690469 0.0203029 -0.906679 0.167236 0.0647557 -0.0448378 0.831739 -0.799128 0.588605 -0.557249 0.982495 -0.695531 -0.808687 -0.0759665 0.56197 -0.167285 -0.0138172 0.114375 -0.111768 -0.402111 0.497717 -0.536411 0.561922 -0.394728 -0.56046 0.430855 -0.357364 -0.601426 0.417076 -1.36541 -0.0438636 -0.0730173 1.1214 -1.20211 0.710268 -1.15137 -0.430311 -0.74508 -0.135611 0.191506 0.382868 -0.474401 -0.34268 -0.14793 0.415261 -0.0860159 -0.1096 -0.162467 0.136427 0.222731 0.0275937 0.387973 -0.245554 -0.0724973 -0.330997 -0.678953 -0.0437083 0.471563 0.565188 -0.408196 -0.466812 0.287659 0.31893 0.0315003 -0.392254 0.339717 0.328203 -0.475577 0.128588 0.4121 0.27398 -0.072483 0.24686 -0.149811 -0.102694 0.502704 1.05203 0.299014 -0.401266 0.4545 -0.0227336 0.787291 -0.267127 0.329424 -0.437878 -0.352164 0.0442374 0.110251 0.181154 -0.837801 -0.506455 -0.0991669 -0.575829 0.458249 -0.248971 -0.153908 -0.118013 -0.424239 -0.192331 -0.828919 -0.226774
265756 -0.326484 1.31541 1.44865 0.118117 0.857763 0.664167 1.27729 0.133807 -0.787438 0.943117 1.05909 -1.27811 0.704602 0.48955 -0.179859 0.516632 0.23543 -0.164166 0.0741677 0.343701 -0.0794391 0.418196 0.677055 0.812598 -0.738251 0.384699 0.444633 0.636144 0.0794749 -1.15009 -0.146178 0.221569 -0.13973 0.738981 -0.87 0.405673 -0.92839 1.23401 -0.683649 -0.747739 0.138811 0.629528 -0.00245041 0.250867 0.171379 -0.127446 -0.414429 0.476932 -0.670249 0.693627 -0.152628 -0.706926 0.56926 -0.566461 -0.504206 0.688735 -1.37787 0.180807 0.0281223 1.02698 -1.05169 0.822814 -0.816485 -0.56483 -0.869004 -0.156432 0.2435 0.225864 -0.39379 -0.148044 -0.15872 0.304528 -0.157596 -0.13166 -0.211056 0.0212291 0.190397 0.0155443 0.237743 -0.089336 -0.0152131 -0.218132 -0.706218 0.287119 0.313067 0.398105 -0.183785 -0.31852 0.425828 0.338472 -0.322316 -0.793892 0.307775 0.23196 -0.767995 0.016045 0.307783 0.539978 -0.158073 0.0221619 -0.327911 -0.313867 0.532251 1.0174 0.315608 -0.624187 0.258254 0.124442 0.704237 -0.148965 0.196165 -0.359074 -0.0236391 -0.182913 0.00173374 0.0503264 -0.719497 -0.353722 -0.028586 -0.23977 0.415243 -0.498115 -0.467267 -0.194923 -0.207917 -0.281837 -0.524936 -0.230876
193439 -0.280969 1.24091 1.233 0.245283 0.729425 0.538973 1.1894 0.0495163 -0.752745 0.777753 0.958944 -1.15967 0.650855 0.39823 -0.355907 0.48364 0.250094 -0.175952 0.0221031 0.360227 -0.168264 0.431574 0.452433 0.702569 -0.727651 0.183073 0.623357 0.508655 0.00206956 -0.986082 0.0444461 0.236372 -0.241054 0.738791 -0.887032 0.448498 -0.896851 1.13138 -0.426293 -0.575656 0.11632 0.670449 -0.0975752 0.0792083 0.19257 -0.0810566 -0.292449 0.572509 -0.622211 0.560923 -0.251291 -0.519971 0.445928 -0.476989 -0.548709 0.781273 -1.31889 0.0751666 0.089629 0.929219 -0.973848 0.779691 -0.708945 -0.455454 -0.784359 -0.0461721 0.138428 0.309039 -0.352997 -0.139184 -0.232284 0.147545 -0.254747 -0.186956 -0.0365922 0.000130865 0.310005 -0.115394 0.273137 -0.123581 -0.0503374 -0.190537 -0.737908 0.342801 0.330291 0.614122 -0.150127 -0.316171 0.448581 0.283509 -0.18461 -0.640508 0.110872 0.240595 -0.687153 -0.032397 0.430626 0.542754 -0.151332 0.0847136 -0.154533 -0.255544 0.496572 0.974116 0.217259 -0.510064 0.273182 0.164795 0.723787 -0.139736 0.202924 -0.392365 -0.155039 -0.0939515 -0.165808 0.188312 -0.599708 -0.369425 -0.121527 -0.338016 0.358428 -0.458338 -0.340593 -0.112857 -0.364342 -0.199444 -0.477366 -0.280962
265762 -0.303339 1.19565 1.24064 0.181436 0.945609 0.63364 1.29748 0.0524421 -0.903102 0.80007 1.05034 -1.29401 0.777853 0.594976 -0.209843 0.49194 0.29351 -0.348252 0.0411376 0.273299 -0.236497 0.405239 0.57444 0.903957 -0.844121 0.340746 0.372769 0.42311 -0.0275456 -0.91036 -0.0805133 0.233472 -0.22147 0.676084 -1.03134 0.421991 -1.00517 1.13257 -0.41052 -0.630326 0.0439924 0.540669 -0.15445 0.0194617 0.153852 -0.0770317 -0.248411 0.561204 -0.638205 0.721533 -0.251874 -0.683738 0.515679 -0.472844 -0.55935 0.792591 -1.38371 0.108141 0.195747 1.11908 -1.05644 0.843104 -0.823885 -0.343807 -0.664688 -0.0897538 0.0938853 0.197883 -0.372425 -0.109996 -0.0659171 0.070162 -0.221432 -0.0950787 -0.0957026 -0.133398 0.267751 -0.0124956 0.107739 -0.0665021 -0.0297658 -0.25419 -0.629638 0.352005 0.329388 0.518206 -0.0975314 -0.227079 0.480599 0.434437 -0.249143 -0.673671 0.191052 0.366233 -0.714761 -0.0151234 0.247839 0.396594 -0.0262919 0.00191324 -0.264918 -0.0576337 0.48093 0.976682 0.259344 -0.500113 0.0512776 0.212095 0.787101 -0.148372 0.342276 -0.584201 0.156507 -0.144372 0.00710378 0.010936 -0.546248 -0.458332 -0.128103 -0.337457 0.219055 -0.519618 -0.240733 -0.113901 -0.3835 -0.298692 -0.537936 -0.196282
265765 -0.252742 1.02592 0.937689 0.127931 0.608318 0.421268 0.983805 0.00857321 -0.798592 0.696141 0.837569 -1.03517 0.654536 0.450681 -0.24426 0.384691 0.311939 -0.319944 0.0139966 0.253595 -0.218358 0.352179 0.34636 0.712412 -0.631889 0.24816 0.29546 0.314811 -0.00956098 -0.623419 -0.0425259 0.198087 -0.178786 0.584027 -0.836489 0.419289 -0.799289 0.948397 -0.3046 -0.561497 0.0756944 0.442004 -0.128459 0.0350696 0.127336 -0.127684 -0.185648 0.473144 -0.516341 0.586693 -0.2558 -0.495563 0.424978 -0.274523 -0.486769 0.639543 -1.12588 0.00197763 0.11263 0.917542 -0.821499 0.680928 -0.624649 -0.252516 -0.606779 -0.0435866 0.069477 0.206862 -0.279423 -0.0974041 -0.121568 -0.0085359 -0.205774 -0.153317 -0.0701071 -0.106244 0.210136 0.0238847 0.0187509 -0.132119 0.0013032 -0.219177 -0.545444 0.325836 0.268104 0.543733 -0.119649 -0.239433 0.391939 0.333535 -0.193536 -0.59386 0.0959253 0.358782 -0.566461 -0.0114475 0.205803 0.370381 0.0246613 -0.00903819 -0.203964 -0.102713 0.456849 0.823495 0.20549 -0.400058 0.0745054 0.187681 0.671866 -0.0836948 0.332327 -0.497802 0.101278 -0.189054 -0.0188156 0.0306491 -0.438688 -0.43724 -0.0756832 -0.277568 0.216118 -0.466807 -0.172137 -0.123299 -0.257594 -0.275046 -0.417012 -0.128321
265764 -0.259087 1.00492 0.981125 0.134759 0.703273 0.449938 1.00088 0.00046123 -0.820528 0.682772 0.880648 -1.12682 0.69196 0.516671 -0.2695 0.407558 0.318322 -0.304846 0.0258834 0.281302 -0.215887 0.351757 0.384989 0.705627 -0.76343 0.270047 0.290554 0.34721 -0.0524891 -0.697284 -0.056631 0.220241 -0.193292 0.60139 -0.900051 0.46147 -0.862978 0.983408 -0.333518 -0.566968 0.0570212 0.476937 -0.128451 0.0611003 0.119434 -0.0514823 -0.133091 0.460214 -0.545014 0.625114 -0.240418 -0.534694 0.464687 -0.339658 -0.460157 0.678491 -1.23206 0.0313232 0.165443 1.00258 -0.923051 0.790129 -0.686897 -0.291534 -0.576712 -0.0777299 0.0745707 0.207807 -0.297728 -0.103695 -0.0970059 -0.0192554 -0.214438 -0.111176 -0.0566503 -0.108395 0.19728 0.00318617 0.0205945 -0.126648 0.0596167 -0.262856 -0.569461 0.370491 0.296381 0.548684 -0.105192 -0.216452 0.397818 0.388697 -0.208761 -0.568828 0.0821735 0.367675 -0.600216 -0.0066231 0.197871 0.385847 0.0153659 -0.0449525 -0.194573 -0.0834371 0.476057 0.840982 0.245309 -0.433686 0.0327533 0.175489 0.732698 -0.0869816 0.361965 -0.54177 0.152701 -0.162515 0.00924321 0.0293374 -0.46577 -0.432781 -0.0782628 -0.279844 0.198898 -0.464615 -0.137252 -0.115889 -0.303765 -0.322862 -0.439101 -0.139766
193435 -0.10268 1.34175 1.18907 0.32452 0.528991 0.569134 1.23997 0.101154 -0.957568 1.04904 0.960873 -1.08151 0.670896 0.395988 -0.480607 0.635587 0.196278 -0.0454992 -0.00837959 0.375032 -0.289873 0.611274 0.193345 0.688622 -0.643292 0.3707 0.654303 0.476874 0.147094 -0.964255 0.201116 0.215867 -0.140468 0.66736 -0.96191 0.454615 -0.725083 1.19387 -0.473673 -0.771656 -0.103158 0.704164 -0.108152 0.139124 0.311456 -0.141459 -0.308031 0.670889 -0.687097 0.632236 -0.458078 -0.57822 0.654504 -0.380099 -0.635465 0.530558 -1.20433 -0.00901044 0.180823 1.21474 -1.06052 0.757888 -0.685084 -0.449621 -0.804973 -0.165449 -0.0229187 0.529662 -0.572411 -0.0770666 -0.15311 0.12522 -0.161251 -0.121741 -0.0649756 0.0293049 0.239649 -0.117432 0.084146 -0.097275 -0.0510181 -0.284361 -0.738998 0.418406 0.343409 0.783833 -0.269077 -0.274516 0.383044 0.228679 0.0058632 -0.512516 0.0093666 0.348185 -0.394576 0.0386811 0.409553 0.694912 -0.132723 -0.120745 -0.0567778 -0.127571 0.597383 0.874839 0.160754 -0.389445 0.361339 -0.0274735 0.8086 -0.106462 0.0389364 -0.625038 -0.0761266 -0.219433 -0.130618 0.0926956 -0.423069 -0.484416 -0.131235 -0.575945 0.115419 -0.5021 -0.155378 -0.422816 -0.213828 -0.0841581 -0.452119 0.057757
193438 -0.201978 1.01623 0.960183 0.0697749 0.583459 0.414248 1.01559 0.0667201 -0.888926 0.804178 0.846518 -1.02434 0.599848 0.398048 -0.257403 0.393571 0.23908 -0.186824 0.0413789 0.285585 -0.186602 0.398221 0.316174 0.642445 -0.573616 0.24689 0.411521 0.381784 0.071382 -0.609362 -0.00070515 0.161373 -0.124735 0.498865 -0.844821 0.372436 -0.63003 0.916627 -0.346208 -0.643813 0.054312 0.5693 -0.0565364 0.0611833 0.191405 -0.210605 -0.248332 0.57422 -0.539623 0.606969 -0.395092 -0.537937 0.404668 -0.274607 -0.543574 0.490738 -1.11027 0.065945 0.125036 0.972198 -0.847574 0.690374 -0.611851 -0.331991 -0.642161 -0.0192526 0.0425035 0.20405 -0.391782 -0.205137 -0.163956 -0.00316147 -0.200031 -0.237108 -0.102595 -0.0434797 0.159479 0.0478121 0.053503 -0.158747 -0.0267548 -0.206462 -0.575011 0.198037 0.279622 0.595435 -0.242228 -0.423548 0.321184 0.260719 -0.0391638 -0.436761 0.0847386 0.490168 -0.515289 0.0770204 0.225889 0.3892 0.057126 -0.0100958 -0.0829019 -0.0683521 0.344783 0.761078 0.264043 -0.302045 0.262075 0.107418 0.549274 -0.0675885 0.267017 -0.507433 0.0321602 -0.163593 -0.136162 0.100449 -0.392714 -0.452951 -0.00535577 -0.316898 0.121408 -0.425842 -0.136823 -0.231472 -0.188038 -0.142655 -0.296237 -0.103995
193436 -0.1639 0.938827 0.957811 0.201558 0.589921 0.471116 0.887577 -0.0227295 -0.90697 0.789428 0.790787 -0.985345 0.672151 0.419999 -0.375996 0.465612 0.37117 -0.298167 0.0693003 0.264121 -0.270365 0.423072 0.152832 0.571044 -0.542559 0.372867 0.479745 0.373151 -0.0166004 -0.762062 0.0583612 0.145417 -0.0537565 0.665522 -0.786016 0.580232 -0.725156 0.945243 -0.385784 -0.651947 0.112855 0.535249 -0.0141307 0.0924146 0.196688 -0.224916 -0.237297 0.665599 -0.489284 0.558828 -0.350808 -0.548425 0.482161 -0.288009 -0.527681 0.530921 -1.14276 -0.210459 0.0740312 0.935266 -0.802264 0.658663 -0.619261 -0.196429 -0.636791 -0.133053 0.129681 0.361062 -0.212222 -0.200762 -0.178916 -0.0162556 -0.225121 -0.165693 -0.0710673 -0.0168767 0.198382 0.018279 0.0365625 -0.303647 -0.100146 -0.264242 -0.613401 0.25991 0.295016 0.573732 -0.157647 -0.214711 0.435824 0.13636 -0.0742288 -0.542094 0.118917 0.229398 -0.384565 -0.0210316 0.182709 0.44802 0.0699071 -0.0660729 -0.1521 -0.178948 0.533461 0.76896 0.257168 -0.454928 0.213354 0.104535 0.622498 -0.131917 0.228929 -0.445732 0.0741067 -0.157987 0.0337107 0.12784 -0.417818 -0.509802 -0.0881874 -0.415732 0.230988 -0.449575 -0.0917787 -0.101723 -0.120196 -0.329347 -0.447229 -0.0691493
146510 0.00717118 0.895337 1.05368 0.0897022 0.452304 0.388638 0.770572 -0.1863 -0.94618 0.700888 0.60322 -1.28037 0.788653 0.794432 -0.508627 0.654146 0.521253 -0.555998 -0.134561 0.180145 -0.235808 0.370395 0.0223875 0.592788 -0.483352 0.432624 0.380147 0.578297 -0.0783284 -0.884695 0.108395 0.162846 -0.0338898 0.876478 -1.02865 0.489073 -0.904897 1.03269 -0.278935 -0.863056 0.248573 0.675729 0.1946 0.107918 0.393935 -0.357546 -0.37342 0.590732 -0.508398 0.550059 -0.408635 -0.672876 0.631725 -0.262094 -0.44823 0.634684 -1.42393 -0.164944 0.105157 1.25738 -0.987094 0.847787 -0.497289 -0.00140063 -0.479788 -0.0433437 0.163621 0.283877 -0.298634 -0.343198 -0.271092 0.014893 -0.131027 -0.212562 -0.158968 -0.0835525 0.255344 0.209448 0.027369 -0.291968 0.0280474 -0.26515 -0.592768 0.547375 0.338513 0.27679 -0.205925 -0.0080747 0.463198 0.215845 0.0487925 -0.668611 0.10854 0.307154 -0.54581 0.0737018 0.211831 0.385604 -0.115539 -0.111115 -0.128208 -0.107415 0.594627 0.787741 0.269392 -0.542033 0.0580284 0.43849 0.684583 -0.373763 0.494474 -0.329474 0.00859181 -0.20086 0.0128932 -0.0357733 -0.326958 -0.500932 -0.0695752 -0.549157 0.256388 -0.478773 -0.0543401 -0.0375478 0.00464141 -0.226332 -0.655499 0.0462891
21418 -0.290495 1.07277 1.03842 -0.0281083 0.721239 0.64554 1.0897 -0.275125 -0.881441 0.572354 1.07356 -1.21935 0.641047 0.47919 -0.614048 0.73346 0.184936 -0.357752 -0.228656 0.357247 0.0754542 0.419383 0.498125 0.800842 -0.736891 0.387643 0.59688 0.889438 0.184873 -0.793655 0.144962 0.308025 0.0854799 0.723766 -1.03573 0.429139 -0.722078 1.27284 -0.504661 -0.586692 -0.0816869 0.669826 0.125306 0.128492 0.0814954 0.0503559 -0.207803 0.507013 -0.752997 0.834946 -0.153877 -0.348476 0.67031 -0.0209542 -0.617088 1.00168 -1.35654 -0.290461 0.162968 1.23989 -1.07156 0.942214 -0.685904 -0.265382 -0.56864 -0.106273 0.0992907 0.732881 -0.482025 0.183978 -0.00986004 0.237448 -0.404186 -0.0804796 -0.21003 0.0162733 0.0516011 -0.24641 0.31472 -0.0843799 0.109951 -0.234631 -0.527165 0.120636 0.464904 0.500006 -0.317918 -0.462978 0.535738 0.43396 -0.482827 -0.406295 0.198302 0.180299 -0.388699 0.149225 0.581173 0.672446 0.0942555 -0.0635494 0.0849563 -0.351818 0.348093 0.922612 0.0607718 -0.420212 0.0837935 0.360521 0.926469 -0.0792813 0.2886 -0.201844 -0.275616 -0.0102835 0.00553712 0.433619 -0.744178 -0.366785 -0.269958 -0.477468 0.386855 -0.285537 -0.198372 -0.217639 -0.142743 -0.538697 -0.521069 -0.217623
21994 -0.0866214 1.07332 1.10996 -0.0447385 0.954339 0.762591 1.34814 -0.14826 -0.913993 0.864711 0.938126 -1.0804 0.79438 0.841457 -0.493141 0.512619 0.353847 -0.0157013 0.086351 0.260464 -0.241065 0.296589 0.410658 0.715705 -0.860947 0.215755 0.421382 0.459222 0.135033 -0.862504 0.156398 0.336496 -0.122236 0.60755 -0.876475 0.47152 -0.870001 1.17757 -0.528456 -0.410854 -0.110482 0.636376 0.0299349 -0.176538 0.0687845 0.261935 -0.255787 0.455399 -0.66947 0.570051 -0.203946 -0.770784 0.750309 -0.541705 -0.349399 0.900384 -1.35658 -0.0869675 0.257647 1.46079 -1.11739 0.934704 -0.793466 -0.269597 -0.379943 -0.0371638 0.0592245 0.671294 -0.535854 -0.146572 -0.42412 0.246283 -0.192857 0.19797 -0.062602 -0.112632 0.300273 -0.108146 -0.147429 0.114752 0.00381572 -0.322027 -0.602025 0.108821 0.463899 0.463318 -0.105928 -0.363 0.426287 0.505134 -0.507185 -0.559919 0.237475 0.374853 -0.272793 -0.0131068 0.299564 0.629713 0.0913414 -0.204389 -0.263402 -0.166389 0.676315 0.976308 0.272424 -0.37956 -0.349605 0.303305 0.982995 -0.0418167 0.411888 -0.460239 0.208224 -0.18145 -0.100776 0.143642 -0.516931 -0.335828 -0.0880122 -0.393878 0.410686 -0.394283 -0.187375 -0.32521 -0.457978 -0.340261 -0.642737 -0.0846175
203906 0.0960522 0.862209 1.0707 0.105411 0.943368 0.465238 1.3624 -0.266136 -0.727103 0.682693 0.910691 -1.19635 0.710587 0.888763 -0.438864 0.62668 0.308254 -0.101415 0.032975 0.272476 -0.168252 0.356397 0.388126 0.781819 -0.760087 0.151038 0.416914 0.362157 0.256383 -0.762181 0.304129 0.357694 -0.0909844 0.522627 -0.759386 0.543421 -0.778397 1.07724 -0.486022 -0.395068 -0.0656404 0.411969 0.0956929 -0.453472 0.151824 0.275339 -0.166137 0.367464 -0.456646 0.431748 -0.155573 -0.675359 0.787018 -0.605086 -0.253279 0.854136 -1.2317 -0.0466775 0.356832 1.43265 -1.0722 0.72234 -0.861945 -0.326503 -0.526485 -0.0802089 0.0819272 0.688999 -0.397591 -0.184288 -0.0912922 0.375418 -0.181621 0.225334 -0.0266569 -0.138887 0.351214 -0.0571448 -0.0683662 0.0868689 0.0483731 -0.357834 -0.558857 0.234 0.556333 0.286668 -0.0730458 -0.185732 0.36316 0.379728 -0.554521 -0.406193 0.238544 0.323927 -0.200598 -0.0197896 0.400924 0.573999 0.136101 -0.256656 -0.348102 -0.110747 0.571022 0.809412 0.192345 -0.251859 -0.516971 0.225226 0.932864 -0.0967572 0.355454 -0.50305 0.312323 -0.0548901 -0.000231 0.0181503 -0.463871 -0.203617 -0.302352 -0.246915 0.318721 -0.152848 -0.295168 -0.347606 -0.413065 -0.230054 -0.628757 -0.197502
150007 -0.207385 0.986939 0.84471 0.175345 0.804224 0.559289 1.14172 -0.134353 -0.84114 0.605361 1.00843 -1.14518 0.5782 0.695775 -0.346178 0.3153 0.352623 -0.269074 -0.0585275 0.273009 -0.28487 0.220361 0.444168 0.922363 -0.757338 0.182147 0.39453 0.368809 -0.0161603 -0.764101 -0.0673021 0.207496 -0.0626472 0.639811 -0.968167 0.417433 -0.874502 1.10951 -0.237799 -0.532996 -0.13051 0.351467 -0.0922216 -0.0853933 0.0429288 0.000145861 -0.0586838 0.212539 -0.54266 0.589179 -0.173171 -0.596985 0.41461 -0.206704 -0.39457 0.712108 -1.31893 0.00121585 0.279621 1.36832 -0.984826 0.894884 -0.931372 -0.28334 -0.519981 -0.0162767 0.0218007 0.343371 -0.258117 -0.0814126 -0.104798 0.024609 -0.19964 0.117568 -0.0609167 -0.276536 0.335016 -0.0779381 0.0199813 -0.0367734 -0.0405001 -0.319372 -0.544715 0.260545 0.19256 0.500514 0.000737513 -0.10737 0.487723 0.339691 -0.265521 -0.50277 0.125946 0.199393 -0.381002 0.045737 0.296534 0.352671 0.0687602 -0.063688 -0.400495 0.00771697 0.424089 0.703282 0.227174 -0.367345 -0.281385 0.349347 1.01283 -0.190261 0.362312 -0.53156 0.182677 -0.1151 0.00966699 0.0860093 -0.413058 -0.447622 -0.0790479 -0.273632 0.123762 -0.444294 -0.155857 -0.118314 -0.450095 -0.334979 -0.63281 -0.126249
140780 0.0671924 0.126242 0.734606 0.119218 0.68137 0.539802 0.924232 0.43432 -0.708739 0.444728 0.59804 -0.999537 0.481976 -0.357314 -0.193666 0.311045 0.0930896 -0.02629 0.163609 -0.179551 -0.188918 0.0472823 0.533554 0.538642 -1.10677 0.159507 0.600258 0.717388 -0.155797 -0.786777 0.236809 0.043172 -0.21768 0.56388 -0.523447 -0.299478 -0.0454861 0.562703 0.168629 -0.157675 0.239025 0.397242 -0.253269 0.180446 0.345427 -0.241748 0.108224 0.692844 -0.0876162 0.946465 -2.02252e-06 -0.878569 0.484186 -0.332586 -0.506513 -0.548659 -0.646428 0.173193 0.552932 0.489248 -0.147338 0.0303275 -0.251287 0.0917643 -0.486305 -0.291673 -0.377718 0.0442158 -0.0599706 0.267505 0.070866 0.176865 -0.308927 -0.245211 -0.279625 0.0636177 0.168046 0.093265 -0.0441941 0.309334 0.249027 -0.0902112 -0.716964 0.0704435 0.667435 0.860831 0.125383 0.660741 0.427224 0.422253 0.235774 0.156084 0.320879 0.485839 0.0639523 -0.118004 0.0638963 -0.257185 0.123991 -0.372563 -0.0801497 0.11479 0.514105 0.379132 -0.266331 0.0750103 -0.384844 -0.366356 0.055082 -0.0131324 0.282909 -0.436009 -0.114084 -0.108052 0.716126 0.0701604 -0.475356 -0.457423 -0.526541 -0.181187 -0.463579 -0.320327 -0.354576 0.114732 -0.148691 0.20848 -0.187011 -0.0233955
140776 0.175622 0.238151 0.765758 0.074676 0.78408 0.557311 0.777864 0.658733 -0.91932 0.370788 0.683259 -0.804519 0.756265 -0.328955 -0.18241 0.185911 -0.17805 -0.0173707 0.143629 -0.623545 -0.150535 0.189919 0.571903 0.592339 -1.10988 0.440001 0.768645 0.978605 -0.336459 -1.0787 -0.0981484 0.00974207 -0.181241 0.57379 -0.397745 -0.216292 -0.200253 0.765712 0.169337 -0.151101 0.431857 0.82326 -0.298125 0.0993602 0.349717 -0.00513155 -0.106658 0.813818 0.0934903 1.08514 -0.0423106 -0.977563 0.146814 -0.127483 -0.776153 -0.398655 -0.817912 0.0972901 0.404373 0.510617 -0.309452 0.147224 -0.175867 0.156884 -0.695706 -0.152352 -0.130996 0.0671488 0.330977 0.411196 0.0734127 0.127343 -0.386708 -0.191978 -0.266982 0.0942481 0.0672738 -0.0971029 0.0356762 0.279709 0.472649 0.376833 -0.584559 -0.216148 0.60045 1.16634 0.0217599 0.558506 -0.157402 0.455066 0.158397 0.464781 0.646058 0.610198 0.119814 -0.252799 0.302942 -0.569396 0.388993 -0.376355 0.0911575 0.0888537 0.475509 0.568438 -0.0414521 -0.229519 -0.428657 -0.59073 0.50281 -0.0665504 0.271877 -0.130295 0.00137891 -0.392631 0.543808 0.230176 -0.731767 -0.369894 -0.516809 0.0223515 -0.428287 -0.323478 -0.414468 0.191399 -0.19849 -0.0071772 -0.142151 -0.332499
140777 -0.116464 0.521594 0.932037 0.212052 0.527597 0.530577 0.630564 0.592932 -0.698722 0.260065 0.793569 -0.95762 0.5754 -0.0819489 0.202585 0.442902 0.0519293 0.0271452 0.31789 -0.518256 -0.219308 0.320381 0.236216 0.882264 -0.972018 0.21277 0.769388 1.14868 -0.28137 -1.02585 0.035763 0.212131 -0.218768 0.606718 -0.0807057 0.0233064 -0.271232 0.790508 0.0374958 -0.134113 0.374781 0.478198 -0.437402 -0.0118608 0.553978 -0.117359 0.088608 0.511082 -0.215542 0.24592 -0.249441 -1.27787 0.157786 -0.15557 0.0421316 -0.357437 -0.8165 -0.0299525 0.344395 0.249535 -0.504792 0.30222 0.140814 0.274871 -0.353346 -0.14328 0.144795 -0.185345 0.256413 0.32266 0.547126 0.31905 -0.150367 0.131665 -0.253603 0.118 0.112704 -0.329002 0.326482 0.218284 0.852629 0.393784 -0.850883 -0.39222 0.418158 0.826265 0.0438868 0.745333 -0.667495 0.220432 0.180208 0.41383 0.136847 0.36768 0.108148 -0.0757339 -0.0215306 -0.193902 0.430992 -0.347818 -0.195257 0.260611 0.318217 0.236432 0.105417 0.172072 -0.980597 -0.00459608 0.227965 -0.180312 0.0997977 -0.275019 -0.0565042 -0.126013 0.144299 -0.286586 -0.555287 -0.36631 -0.376675 -0.459672 -0.0843131 -0.220967 -0.284429 0.318709 -0.0528126 -0.0660046 -0.270116 0.208914
86130 -0.198764 0.257162 0.471402 0.14118 0.326633 0.523166 0.838545 0.339206 -0.443747 0.0537908 0.566849 -0.563321 0.346953 -0.0547547 0.136855 0.362578 0.256491 -0.367028 0.1135 -0.431138 -0.415018 0.0664699 0.144756 0.531729 -0.801372 0.140876 0.668291 0.469571 -0.105891 -0.638832 0.100272 0.00987861 -0.426148 0.114761 -0.0947017 0.0917826 -0.418434 0.641362 -0.0797219 -0.417403 0.275979 0.173884 -0.0768482 0.083549 0.117936 -0.0417099 -0.0950847 0.248312 -0.376335 0.606123 -0.372509 -0.770601 -0.0183478 -0.410739 0.061718 -0.0874939 -0.352479 -0.356293 0.496551 0.110243 -0.499395 0.509405 0.0195688 -0.0720988 -0.160114 0.0389341 0.00847371 -0.0488442 -0.0743674 0.28357 0.303017 0.334335 0.153014 0.028215 -0.0655357 -0.178522 0.169207 -0.0375729 0.0800359 0.103326 0.246601 0.0803019 -0.453908 -0.048077 0.110449 0.70861 0.0716761 0.175252 -0.241772 0.504517 0.0422018 0.515502 0.155576 0.207549 0.0908863 -0.037593 -0.000325931 0.0502939 0.131386 -0.0776061 -0.149227 0.0726461 0.0441 0.0153366 0.0214586 0.0432869 -0.166058 -0.09502 0.22679 -0.0769721 -0.0330511 -0.118643 -0.105906 -0.0765467 0.30872 -0.0106792 -0.177362 -0.26235 -0.250123 -0.381494 -0.431042 0.108047 0.0116709 -0.0204975 0.333442 -0.00929385 0.0471606 0.162702
