760 64
241 0.249759 0.601281 0.158898 -0.0635604 0.353036 -0.0938105 0.0819037 -0.415048 -0.0058392 0.119385 0.0644132 -0.242519 -0.245353 -0.218924 0.0369394 -0.0506147 -0.371349 0.0366283 -0.296957 0.185359 0.373421 0.157036 0.415105 -0.162042 0.218326 0.0862224 -0.0798451 0.228981 -0.0380157 0.145725 -0.295098 -0.278378 -0.032788 0.0117943 0.245003 0.0722703 0.0756138 0.0148717 0.0959065 -0.132264 -0.143485 0.0447196 -0.157327 0.266461 0.10701 0.0583458 -0.231415 -0.2948 -0.31915 -0.177405 -0.0561871 0.109079 0.192986 -0.0788414 0.246819 0.253753 -0.0657018 -0.186306 -0.410859 -0.0270264 -0.00655771 0.130722 0.309237 -0.250653
242 0.146339 0.548555 0.114143 -0.0596559 0.231916 -0.0605243 0.0713773 -0.298697 0.00881648 0.0847738 0.0707096 -0.180003 -0.159544 -0.148942 0.0182426 -0.0438556 -0.259921 0.0410488 -0.205521 0.121825 0.261273 0.107601 0.293093 -0.121821 0.137486 0.0543151 -0.0588473 0.182985 -0.0492553 0.10371 -0.179748 -0.193022 -0.0208082 0.0284902 0.164291 0.0638393 0.0282968 -0.00980205 0.0499492 -0.112004 -0.079625 -0.00703305 -0.10452 0.190958 0.0622404 0.0158924 -0.143855 -0.217466 -0.218142 -0.133803 -0.0291352 0.0445565 0.124574 -0.0761404 0.15585 0.17244 -0.0426214 -0.125106 -0.29412 -0.0184158 0.0154412 0.111372 0.212082 -0.167874
243 0.165125 0.473097 0.107655 -0.0478583 0.216909 -0.0658883 0.0732913 -0.23812 -0.03735 0.0987711 0.0864933 -0.141889 -0.17543 -0.11896 0.00469021 -0.0177391 -0.279712 0.0517911 -0.252268 0.100095 0.206169 0.0642488 0.270736 -0.162355 0.16222 0.0623387 -0.0325806 0.176986 0.0135031 0.110221 -0.14275 -0.198669 -0.0134717 -0.00648197 0.177425 0.0905134 0.0680017 0.00527154 0.0680218 -0.106802 -0.0757761 0.0299828 -0.0521206 0.229181 0.0575287 0.0168398 -0.123867 -0.158951 -0.224679 -0.148598 -0.0316997 0.0580384 0.115215 -0.0868134 0.180235 0.159964 -0.0508551 -0.135689 -0.290314 -0.000685084 -0.0073949 0.108944 0.247553 -0.219932
244 0.167859 0.406259 0.0839069 -0.0293269 0.22235 -0.0819784 0.103047 -0.187963 -0.0737649 0.134129 0.141675 -0.0964397 -0.169196 -0.0797497 -0.0154633 0.00825197 -0.294401 0.0732103 -0.289296 0.0869445 0.138586 0.0202959 0.24179 -0.190109 0.198959 0.0699042 -0.0249014 0.187943 0.0866191 0.127964 -0.0995597 -0.188542 0.00389983 -0.0269123 0.182439 0.128033 0.120946 0.0221711 0.0771777 -0.104652 -0.0781139 0.0588277 0.0115567 0.254945 0.051186 -0.00930568 -0.100679 -0.104508 -0.215693 -0.179133 -0.0258949 0.0590848 0.107786 -0.112831 0.19912 0.128458 -0.058383 -0.141523 -0.279508 0.0329418 -0.0153803 0.131244 0.252413 -0.285924
245 0.0836112 0.379019 0.0486455 -0.0257988 0.152429 -0.0661054 0.163767 -0.126034 -0.0935446 0.162586 0.192136 -0.0265766 -0.159981 -0.0308376 -0.0365925 0.0402146 -0.295076 0.0710235 -0.309882 0.0762773 0.0720392 -0.0436343 0.194822 -0.233821 0.201696 0.0680887 0.0032997 0.176476 0.143597 0.118136 -0.0249162 -0.159471 0.0307294 -0.0284137 0.168425 0.159104 0.147861 0.0238832 0.0607443 -0.102077 -0.0346956 0.0687375 0.0706216 0.259344 0.0372244 -0.0352552 -0.0490409 -0.0432647 -0.190917 -0.179544 -0.0129738 0.0383253 0.0728138 -0.126365 0.166092 0.0960168 -0.0492 -0.118713 -0.231198 0.0582853 -0.0143415 0.145768 0.253488 -0.32169
0 0.82001 -0.669589 0.124286 0.0224512 1.24545 -0.492178 0.897919 -2.04238 -0.167658 0.946099 -0.0590799 -0.467485 -0.984583 -0.58806 0.553132 0.041953 -1.19274 0.105054 -0.945425 0.912662 1.38787 0.705735 1.28693 -0.0776566 0.868519 0.422436 -0.320266 0.248348 0.351043 0.337199 -1.75937 -0.953671 0.00443152 -0.449589 1.17302 0.270606 0.932842 0.957269 0.461909 -0.187757 -0.90553 0.917805 -0.416811 0.540489 0.988172 0.871866 -1.46163 -0.740586 -0.684753 -0.246979 -0.46079 0.457637 1.00414 0.237508 0.508225 1.21111 -0.122458 -0.264063 -1.06809 -0.0456084 -0.105489 -0.0535469 0.740656 -0.488677
579 0.425733 2.89127 0.643895 -0.352357 0.265691 -0.442635 -0.2087 0.233374 0.106323 0.0119022 -0.160748 -0.72837 -0.371762 -0.356056 -0.278445 -0.417498 -0.102539 -0.0545303 -0.248327 0.239679 -0.972136 0.0291328 0.226176 -0.547503 0.205932 -0.183008 -0.511735 0.152054 -0.251743 0.0501823 -0.196271 -0.614253 -0.58315 -0.359168 0.2616 0.00926073 0.190313 -0.274449 0.450412 -0.270109 -0.593055 0.0901001 -0.315994 0.812257 -0.650441 0.362202 -0.585714 0.460076 -0.857666 -0.739633 -0.255051 0.870627 -0.0525344 0.0412576 0.869517 0.205163 -0.591455 -0.773105 -1.34659 0.288036 -0.362446 0.205341 0.353726 -0.629471
580 0.364144 2.74408 0.59962 -0.203904 0.291233 -0.258558 -0.247561 0.26972 0.110393 -0.129584 -0.0216061 -0.685949 -0.399936 -0.285141 -0.21603 -0.359733 -0.17501 0.034301 -0.0811109 0.317004 -0.910976 0.106521 0.140699 -0.522057 0.153434 -0.271351 -0.364821 0.0161077 -0.275548 0.111062 -0.0909095 -0.523116 -0.424326 -0.3722 0.21931 -0.0838431 0.124236 -0.296151 0.290804 -0.310898 -0.577804 0.017841 -0.254045 0.799809 -0.644187 0.214685 -0.455813 0.334391 -0.821437 -0.658848 -0.127969 0.681895 -0.134916 -0.0194451 0.808637 0.0614847 -0.5716 -0.710612 -1.17736 0.267467 -0.330176 0.335598 0.435141 -0.597072
581 0.411404 2.87919 0.729938 -0.252328 0.366679 -0.290348 -0.208387 0.299376 0.174188 -0.105222 -0.000830588 -0.820318 -0.450634 -0.323093 -0.0718928 -0.416118 -0.240043 0.123007 -0.0171375 0.404115 -0.86168 0.286247 0.153857 -0.491703 0.158995 -0.331528 -0.366646 -0.155261 -0.29059 0.0935112 -0.27852 -0.606682 -0.402054 -0.508033 0.359711 -0.140438 0.296926 -0.262583 0.290468 -0.246356 -0.684942 0.096772 -0.333323 0.912268 -0.590629 0.353126 -0.711066 0.242513 -0.921169 -0.66478 -0.208771 0.797135 -0.162386 0.1785 0.767393 0.115085 -0.689725 -0.68084 -1.23457 0.212535 -0.31059 0.372397 0.410873 -0.452034
582 0.262239 2.76826 0.619075 -0.168416 0.333389 -0.2562 -0.287755 0.231855 0.0718447 -0.136632 -0.108845 -0.640492 -0.500755 -0.318975 -0.253873 -0.32301 -0.185342 -0.0361708 0.0145524 0.39657 -0.919503 0.0980515 0.106709 -0.507478 0.251579 -0.203798 -0.406878 0.0805107 -0.334139 0.0762561 -0.145345 -0.529319 -0.494509 -0.383583 0.288323 -0.165251 0.0406532 -0.195746 0.282291 -0.34578 -0.679782 -0.0220582 -0.278294 0.742948 -0.647338 0.199086 -0.458181 0.33257 -0.821796 -0.671808 -0.089865 0.608498 -0.093202 -0.0530548 0.942103 0.126802 -0.538975 -0.802764 -1.34935 0.281177 -0.388581 0.36806 0.448907 -0.666339
249 0.128271 0.841771 0.140811 -0.116211 0.245985 0.063431 -0.236648 -0.625267 0.225524 -0.204988 -0.105574 -0.448085 -0.0372954 -0.359696 0.0590292 -0.202101 -0.161635 -0.0658215 -0.00702283 0.0773603 0.753014 0.328712 0.465435 0.0800053 -0.0562397 0.0540379 -0.0538026 0.300959 -0.467968 0.0824607 -0.220262 -0.157281 -0.0477566 0.355391 0.00554512 -0.112641 -0.419137 -0.253406 -0.118329 -0.134868 0.080118 -0.347207 -0.422306 -0.0301226 0.0504817 -0.117415 0.00310545 -0.654392 -0.201628 0.0227543 0.0637926 -0.105323 0.114775 -0.0941233 0.016336 0.186642 0.0697824 -0.0635472 -0.184966 -0.251665 0.182873 0.109966 0.14271 0.138459
250 0.00559959 0.945148 0.0980548 -0.099087 0.255161 0.081129 -0.199855 -0.641914 0.187714 -0.204479 -0.0118811 -0.404157 -0.0363846 -0.336155 0.0303837 -0.142991 -0.232756 -0.0222966 -0.0957829 0.023364 0.783397 0.267136 0.496309 -0.00509787 -0.0223258 0.0928983 -0.00149995 0.393378 -0.390869 0.14259 -0.104488 -0.143893 0.00636544 0.409939 -0.00217472 -0.0253461 -0.427897 -0.303473 -0.121122 -0.16908 0.144022 -0.39742 -0.365694 0.0109032 0.0450247 -0.230123 0.0914139 -0.673956 -0.213373 -0.0142888 0.097695 -0.164436 0.0958052 -0.196538 0.0242258 0.150131 0.0854828 -0.0817153 -0.161782 -0.224316 0.198944 0.164008 0.220805 0.0299854
251 0.00943859 0.865454 0.113628 -0.111901 0.205249 0.075825 -0.220006 -0.562613 0.21665 -0.209974 -0.0681541 -0.394081 -0.0209333 -0.337422 0.036493 -0.177168 -0.140792 -0.0495796 0.00310007 0.0447041 0.688619 0.282061 0.409153 0.0619772 -0.0665748 0.0379885 -0.0357814 0.293169 -0.424997 0.0871577 -0.151007 -0.119572 -0.0239565 0.348536 -0.0136161 -0.0981667 -0.416473 -0.259921 -0.10876 -0.134517 0.0961519 -0.344081 -0.37842 -0.0439597 0.0261022 -0.142078 0.0376592 -0.611647 -0.173776 0.0263106 0.0810533 -0.116466 0.0776283 -0.0961623 -0.00703512 0.15861 0.0659763 -0.0625086 -0.148314 -0.228996 0.179393 0.0963553 0.134492 0.138515
252 -0.102596 1.18506 0.0996312 -0.129657 0.310705 0.0893302 -0.217246 -0.737429 0.168295 -0.228693 0.0124494 -0.436041 -0.0506588 -0.384682 0.020649 -0.140081 -0.301519 -0.0144597 -0.154007 0.00649321 0.926948 0.274162 0.588912 -0.0264147 -0.00706913 0.135654 0.0289065 0.491124 -0.422179 0.194133 -0.0933229 -0.172551 0.0391964 0.509881 -0.0123743 -0.000414709 -0.486104 -0.369984 -0.127574 -0.208253 0.204333 -0.473056 -0.380623 0.0400789 0.0741512 -0.295835 0.130928 -0.810156 -0.254719 -0.0195116 0.121765 -0.207853 0.142768 -0.280309 0.0556677 0.161838 0.106988 -0.0927041 -0.187679 -0.259482 0.213653 0.209472 0.310438 -0.00318599
253 -0.0976681 1.1214 0.0852142 -0.111905 0.282332 0.105344 -0.223105 -0.755233 0.174946 -0.22515 0.0610405 -0.426564 -0.0474802 -0.368923 0.00880681 -0.13359 -0.318495 -0.000895712 -0.191883 -0.0164157 0.91935 0.261008 0.578811 -0.0537462 -0.00474038 0.133512 0.0504146 0.517125 -0.405745 0.207262 -0.028773 -0.148704 0.0398268 0.523239 -0.019308 0.0158628 -0.499423 -0.39099 -0.153957 -0.233976 0.245017 -0.488233 -0.344305 0.0455202 0.0606056 -0.32593 0.192702 -0.779216 -0.246063 -0.0295157 0.14612 -0.223502 0.11495 -0.323554 0.0258708 0.15358 0.118986 -0.0745808 -0.144209 -0.245662 0.233266 0.229254 0.303558 -0.0364019
254 -0.277223 1.48483 -0.14562 -0.105773 0.617765 0.253858 -0.013429 -1.15806 -0.000839558 -0.22206 0.520987 -0.251226 -0.0274541 -0.336859 -0.140549 0.230127 -0.845296 0.235494 -0.709814 -0.155841 1.50804 -0.0796383 1.0323 -0.54984 0.29528 0.448689 0.302838 1.20938 -0.0120461 0.597101 0.506611 -0.26236 0.405988 0.977874 -0.138318 0.47443 -0.477636 -0.704296 -0.0920377 -0.389772 0.591732 -0.812449 -0.157722 0.383917 0.177126 -0.981072 0.682997 -1.12745 -0.460278 -0.228351 0.362986 -0.57959 0.176699 -0.900707 0.212485 -0.0476068 0.241335 -0.160714 -0.0967272 -0.323614 0.277831 0.564617 0.813697 -0.667527
255 -0.565009 1.41881 -0.156411 -0.00029631 0.633979 0.133477 -0.303944 -1.19648 -0.0421163 -0.162156 0.531866 -0.348712 -0.207985 -0.239226 -0.104812 -0.0821727 -0.812429 0.219754 -0.906462 -0.172432 1.2926 0.101847 0.876367 -0.472421 0.311514 0.282806 0.401229 1.03474 -0.230882 0.65687 0.246643 -0.124035 0.22593 0.978786 0.140229 0.509361 -0.545417 -0.772817 -0.221087 -0.555502 0.708255 -0.844201 -0.0270936 0.536643 0.127967 -0.758478 0.743141 -1.17066 -0.410187 -0.186188 0.310928 -0.627541 0.297383 -1.03054 0.160076 0.116606 0.285401 -0.172176 -0.0777893 -0.253924 0.379626 0.707745 0.882574 -0.604319
256 -0.499749 1.31481 0.0158309 -0.103305 0.410427 -0.00153149 -0.209493 -0.995103 -0.111257 -0.269983 0.623538 -0.496867 -0.175199 -0.502967 -0.145321 0.120925 -0.917978 0.0697652 -0.937467 -0.235217 1.39759 0.0196035 0.997587 -0.474162 0.224495 0.448726 0.305414 1.26469 -0.140924 0.522784 0.429853 -0.188646 0.234186 0.945168 0.00857733 0.326131 -0.755844 -0.580451 -0.266714 -0.580238 0.68371 -0.602413 -0.00528315 0.258423 0.132919 -0.942778 0.648 -1.04545 -0.455361 -0.284827 0.316235 -0.459583 0.133196 -1.04696 0.188355 0.121758 0.277753 -0.145282 -0.125007 -0.176337 0.354078 0.587366 0.845718 -0.733237
435 0.235557 0.493651 0.115071 -0.0354359 0.290679 -0.108955 0.118784 -0.248406 -0.0599441 0.148733 0.170427 -0.153083 -0.223681 -0.126831 -0.0306894 0.00095285 -0.367089 0.0727142 -0.342743 0.127435 0.175051 0.032367 0.321904 -0.260223 0.240033 0.0699575 -0.0389164 0.239856 0.0814554 0.158546 -0.125971 -0.234943 -0.0121339 -0.00874192 0.210987 0.14183 0.130371 -0.00624495 0.0923997 -0.15346 -0.0950274 0.0522647 -0.024969 0.319438 0.0432988 -0.00304911 -0.113988 -0.141978 -0.30759 -0.217355 -0.029697 0.0843761 0.123826 -0.145909 0.248612 0.155868 -0.0782865 -0.192676 -0.347808 0.0368643 -0.0222356 0.167122 0.311257 -0.355262
436 0.192156 0.460379 0.0973523 -0.0282284 0.258874 -0.111985 0.142319 -0.180223 -0.0938154 0.161408 0.196064 -0.100699 -0.216585 -0.0726592 -0.0572258 0.0287803 -0.368335 0.0733818 -0.36034 0.112243 0.0934229 -0.0241443 0.274814 -0.289892 0.232593 0.0621933 -0.0119494 0.227471 0.123448 0.157706 -0.0736159 -0.226051 0.00740019 -0.0396476 0.199039 0.168276 0.168312 -0.00734243 0.0955265 -0.137537 -0.0896545 0.078337 0.0454336 0.327559 0.0158612 -0.0209838 -0.0938084 -0.0725162 -0.287649 -0.22783 -0.0257947 0.0827053 0.103653 -0.159477 0.248037 0.126508 -0.0944773 -0.192491 -0.331557 0.0806632 -0.034415 0.175247 0.307966 -0.392203
437 0.140854 0.36822 0.0579326 -0.000746702 0.220022 -0.120794 0.156608 -0.102749 -0.128736 0.174733 0.252645 -0.0233755 -0.199655 -0.0138164 -0.0729282 0.0628825 -0.35473 0.102433 -0.379731 0.0695541 0.0147935 -0.0902937 0.208769 -0.318795 0.25623 0.0820919 0.0148817 0.230042 0.195105 0.168519 0.0314469 -0.177901 0.0270061 -0.0408615 0.181477 0.200868 0.195115 -0.00731936 0.0957134 -0.148832 -0.0494365 0.0722981 0.120759 0.340697 0.00505393 -0.0747681 -0.023714 0.00523964 -0.258036 -0.242132 -0.00871977 0.0704745 0.0670415 -0.191058 0.240364 0.0768441 -0.0834637 -0.178085 -0.280091 0.108414 -0.0538286 0.190439 0.308543 -0.451348
289 0.225101 0.545583 0.157777 -0.0835814 0.209726 -0.032762 -0.0802605 -0.304246 0.100589 -0.0352823 -0.0641531 -0.273881 -0.106581 -0.216023 0.0381556 -0.123563 -0.148939 -0.0217062 -0.0542058 0.124297 0.331787 0.193974 0.29888 -0.0103412 0.0431554 0.0231954 -0.0818647 0.139697 -0.218826 0.0457363 -0.24124 -0.178141 -0.0663235 0.0714395 0.104755 -0.059455 -0.103676 -0.0724172 0.0152136 -0.0752279 -0.0923845 -0.0799265 -0.254963 0.0848596 0.0223962 0.0420028 -0.149189 -0.306827 -0.196045 -0.063816 -0.0187115 0.0548499 0.100308 0.00179918 0.120152 0.175957 -0.0347049 -0.119309 -0.271831 -0.0992165 0.0372709 0.0714721 0.129064 0.00270941
290 0.42697 0.575869 0.196992 -0.100671 0.307102 -0.038683 -0.0938382 -0.461738 0.133295 -0.0388139 -0.0903556 -0.376534 -0.155527 -0.296463 0.0676371 -0.153808 -0.22322 -0.0353048 -0.097869 0.176235 0.459884 0.276563 0.405543 -0.0174184 0.0736079 0.0357775 -0.121441 0.185814 -0.271872 0.068246 -0.344529 -0.250676 -0.0902177 0.0839254 0.16083 -0.0576946 -0.113919 -0.0671342 0.0377435 -0.102502 -0.13674 -0.0835093 -0.335123 0.118902 0.0545996 0.0669761 -0.227169 -0.3934 -0.282983 -0.0875139 -0.029163 0.0904601 0.149142 0.0118997 0.164626 0.263378 -0.0514108 -0.156998 -0.365646 -0.12133 0.0566737 0.083082 0.192775 -0.0254965
291 0.483337 0.635718 0.221546 -0.106879 0.361321 -0.0613481 -0.0663216 -0.558145 0.150349 -0.01304 -0.0852886 -0.428392 -0.197873 -0.350128 0.0862446 -0.186646 -0.283133 -0.0300562 -0.113618 0.219258 0.565084 0.324417 0.494764 -0.00422211 0.0959527 0.0488453 -0.148544 0.213486 -0.307282 0.0873475 -0.425666 -0.298818 -0.0870024 0.0981257 0.206491 -0.0573381 -0.112682 -0.0496625 0.0365915 -0.129256 -0.160174 -0.0889628 -0.391469 0.145351 0.0918049 0.105616 -0.286651 -0.476988 -0.323801 -0.095427 -0.0482928 0.101757 0.191634 0.0186029 0.184987 0.31955 -0.0486332 -0.173103 -0.43616 -0.129689 0.0591206 0.0897664 0.223613 -0.0195211
292 0.414528 0.502992 0.198372 -0.0889719 0.305095 -0.0435037 -0.0615799 -0.458143 0.125384 -0.0201145 -0.0937488 -0.349538 -0.167839 -0.286521 0.0762501 -0.147536 -0.214267 -0.0319208 -0.083008 0.179032 0.45009 0.277707 0.38915 0.00664298 0.0827249 0.0276353 -0.12764 0.162487 -0.252487 0.0656926 -0.367334 -0.243948 -0.0850633 0.0658921 0.175418 -0.0566591 -0.0862222 -0.0424544 0.0393777 -0.102821 -0.153798 -0.0664635 -0.317702 0.103921 0.0696499 0.100994 -0.24318 -0.384469 -0.266096 -0.0776303 -0.0400418 0.0902778 0.153796 0.026039 0.156159 0.272852 -0.0442024 -0.147638 -0.358193 -0.11418 0.0454034 0.0570806 0.179517 0.00236358
293 0.429577 0.405836 0.193589 -0.0881948 0.288205 -0.0527477 -0.0664734 -0.447813 0.14213 -0.0109612 -0.133011 -0.348458 -0.16527 -0.287717 0.0957062 -0.158722 -0.176845 -0.0388619 -0.0490416 0.19843 0.425738 0.296258 0.373374 0.0349477 0.0644416 0.0316816 -0.1426 0.121128 -0.246506 0.0478661 -0.406224 -0.242489 -0.0858625 0.0336671 0.164027 -0.0722301 -0.0670377 -0.0085303 0.0415414 -0.0758014 -0.179579 -0.0272006 -0.329381 0.0951096 0.0918872 0.129187 -0.287001 -0.368627 -0.241446 -0.059191 -0.0506402 0.104726 0.164755 0.0616268 0.137227 0.271275 -0.0480426 -0.12431 -0.354285 -0.109624 0.0278123 0.0318197 0.144601 0.0297811
123 0.0925386 0.488574 0.295447 -0.179441 0.656459 -0.196303 -0.29324 -0.28282 -0.0441204 -0.218821 -0.463394 -0.413011 -0.0640131 -0.161545 0.299041 0.017055 -0.0679244 0.0456685 -0.0202537 -0.026524 0.391978 0.319373 0.264837 0.0671111 0.0903922 0.229613 -0.0574737 -0.0299071 -0.140903 0.206939 -0.588501 -0.323933 0.00645133 0.18926 0.329668 0.0332343 -0.196448 0.0806045 0.218671 -0.151054 -0.145732 -0.0625821 -0.265606 0.110049 0.249097 0.0594048 -0.523203 -0.611218 -0.232259 0.104458 -0.230878 0.0838762 0.402659 -0.155018 0.415108 0.297848 -0.0446958 -0.235448 -0.484359 -0.169142 -0.0382373 0.103981 0.477257 -0.102699
294 0.450044 0.212092 0.140507 -0.0597797 0.317252 -0.076943 -0.0402352 -0.377376 0.051969 0.026846 -0.0452454 -0.264471 -0.171886 -0.207116 0.0761044 -0.060559 -0.267043 0.00915898 -0.187578 0.170584 0.32595 0.160711 0.341872 -0.0772478 0.161094 0.0730411 -0.0775836 0.162704 -0.0842286 0.0843481 -0.302663 -0.231729 -0.0416149 0.0201228 0.197781 0.0337796 0.0215767 0.0167644 0.0821347 -0.0890413 -0.150059 0.0407954 -0.178702 0.184038 0.100915 0.061288 -0.213258 -0.247446 -0.238144 -0.107485 -0.04614 0.0968667 0.163333 -0.0231737 0.202296 0.214627 -0.0504739 -0.154784 -0.340232 -0.056823 0.00197406 0.0907799 0.235676 -0.162357
295 0.439022 0.0706226 0.119514 -0.0450713 0.313588 -0.0736437 -0.05105 -0.347778 0.0156839 0.024446 -0.0368977 -0.217424 -0.155367 -0.182433 0.0773662 -0.0230311 -0.256219 0.0213591 -0.211256 0.141537 0.314416 0.137267 0.307795 -0.0807854 0.155318 0.0824308 -0.0513039 0.160287 -0.0377799 0.0983887 -0.265318 -0.194322 -0.0277748 0.0157454 0.174765 0.0387894 0.0258337 0.0187637 0.0872203 -0.0894833 -0.125514 0.0548994 -0.132769 0.176955 0.114398 0.0391392 -0.185639 -0.219652 -0.21652 -0.0957861 -0.050806 0.0843195 0.149572 -0.0404559 0.205327 0.190363 -0.03885 -0.136095 -0.288151 -0.0428444 -0.0127987 0.0839507 0.222307 -0.166092
296 0.451666 -0.0481572 0.106217 -0.0295987 0.295694 -0.075145 -0.0533091 -0.300918 -0.00479317 0.0322989 -0.0296249 -0.178997 -0.14135 -0.140115 0.0600401 0.00634997 -0.24102 0.0340881 -0.230967 0.127096 0.215924 0.0754195 0.256034 -0.113901 0.171943 0.0899181 -0.0424835 0.135847 0.0187237 0.0846742 -0.224097 -0.169564 -0.0267692 -0.0104094 0.172721 0.0609996 0.0804001 0.0289489 0.110623 -0.0691661 -0.114888 0.0801451 -0.0620983 0.194654 0.092013 0.0286973 -0.170058 -0.143546 -0.19869 -0.103535 -0.0477269 0.0974945 0.137113 -0.0592051 0.215878 0.150063 -0.0487694 -0.137429 -0.270777 -0.0155129 -0.0411898 0.0800482 0.223628 -0.215927
272 0.494933 0.671131 0.238106 -0.121987 0.385271 -0.0474827 -0.12451 -0.581086 0.166639 -0.0471143 -0.130114 -0.446172 -0.201264 -0.367106 0.104176 -0.175615 -0.270112 -0.0442459 -0.102952 0.228117 0.571711 0.331869 0.50222 -0.000618777 0.10254 0.055763 -0.142648 0.20952 -0.319107 0.0834379 -0.44373 -0.303242 -0.098689 0.111905 0.195311 -0.0712187 -0.147067 -0.0624846 0.0463087 -0.129919 -0.174592 -0.0934706 -0.394234 0.142713 0.0943245 0.0938171 -0.277949 -0.493852 -0.317369 -0.0888858 -0.0476074 0.109605 0.184616 0.0214755 0.203929 0.309062 -0.0590505 -0.175666 -0.44127 -0.154767 0.0639949 0.0935143 0.231035 -0.0208899
273 0.564645 0.635695 0.238986 -0.121377 0.403433 -0.0502836 -0.123068 -0.612067 0.168078 -0.0449631 -0.130863 -0.467651 -0.218713 -0.374331 0.0989371 -0.191572 -0.276388 -0.0325857 -0.116429 0.242432 0.584329 0.34339 0.515362 -0.00255397 0.0985348 0.0548633 -0.151394 0.217912 -0.316841 0.0826133 -0.463956 -0.310213 -0.103376 0.105083 0.196894 -0.0725518 -0.130765 -0.0699521 0.0387122 -0.133473 -0.183238 -0.0716994 -0.400387 0.150716 0.0880731 0.0932947 -0.303092 -0.496078 -0.337096 -0.102498 -0.0476936 0.106757 0.189071 0.0210107 0.21288 0.324947 -0.0597884 -0.18978 -0.461844 -0.151728 0.0648827 0.0951705 0.234585 -0.0169929
274 0.5752 0.569581 0.239741 -0.119057 0.407375 -0.0625217 -0.145444 -0.622262 0.168208 -0.0468495 -0.174597 -0.464531 -0.201499 -0.384964 0.128213 -0.185494 -0.270131 -0.0578736 -0.101915 0.250677 0.601223 0.354359 0.516351 0.0169035 0.103753 0.058798 -0.159803 0.191218 -0.319285 0.0703399 -0.49779 -0.305752 -0.106928 0.100702 0.214167 -0.0932947 -0.129185 -0.0351645 0.0592633 -0.112479 -0.200307 -0.045743 -0.419545 0.131609 0.113373 0.131211 -0.332288 -0.504949 -0.311988 -0.0820686 -0.0562436 0.126033 0.218473 0.0489227 0.205571 0.340765 -0.0559324 -0.171043 -0.454355 -0.159798 0.0615081 0.0836698 0.217827 0.00189505
275 0.562591 0.496825 0.238549 -0.115754 0.401133 -0.0637242 -0.118449 -0.575884 0.159302 -0.0271627 -0.149369 -0.443796 -0.207374 -0.349273 0.113778 -0.167008 -0.258109 -0.0445418 -0.120653 0.231544 0.549734 0.32968 0.489995 0.00516482 0.10957 0.0673116 -0.147279 0.186382 -0.2834 0.075841 -0.468253 -0.301537 -0.111757 0.0834264 0.204488 -0.0718196 -0.097118 -0.0220296 0.0650098 -0.116821 -0.201859 -0.027972 -0.369749 0.134678 0.114849 0.112502 -0.305129 -0.455372 -0.314346 -0.086425 -0.0627291 0.129033 0.196075 0.0327896 0.211919 0.312986 -0.0615372 -0.167564 -0.432048 -0.139124 0.043484 0.0815613 0.227681 -0.020394
276 0.573602 0.439998 0.231073 -0.109505 0.39696 -0.0555508 -0.137362 -0.564467 0.147634 -0.0435942 -0.148957 -0.425686 -0.202763 -0.337308 0.118558 -0.151001 -0.250791 -0.0444915 -0.113558 0.227378 0.529964 0.307693 0.47484 -0.00578294 0.122074 0.068635 -0.140054 0.183881 -0.261028 0.0716816 -0.450181 -0.272928 -0.0938343 0.0743066 0.189894 -0.0680355 -0.103333 -0.0267331 0.0620234 -0.106798 -0.184273 -0.0315432 -0.351862 0.136156 0.110471 0.0976379 -0.298796 -0.438288 -0.299349 -0.0871376 -0.0577101 0.116286 0.193561 0.0243804 0.217956 0.300172 -0.0579333 -0.172562 -0.417726 -0.151085 0.0389251 0.0778417 0.222937 -0.0452958
657 0.538952 0.503368 0.239956 -0.142406 0.416045 -0.0994116 -0.126535 -0.450753 0.137961 -0.0538266 -0.118196 -0.456147 -0.214211 -0.319708 0.0933779 -0.137175 -0.313364 -0.0174936 -0.159942 0.233137 0.504889 0.263043 0.469197 -0.0773961 0.161163 0.0750142 -0.135174 0.264227 -0.267316 0.0930287 -0.414364 -0.290614 -0.079113 0.0897964 0.2034 -0.0558902 -0.0822978 -0.0552761 0.080377 -0.135736 -0.184545 -0.0545301 -0.31701 0.203331 0.0857286 0.0810706 -0.2995 -0.435653 -0.347841 -0.142008 -0.0557635 0.101348 0.174541 -0.0344299 0.278674 0.315836 -0.060901 -0.205344 -0.487274 -0.124643 0.0199158 0.124923 0.274245 -0.109159
658 0.465995 0.703566 0.251073 -0.149249 0.407407 -0.0744622 -0.0775761 -0.505988 0.151239 -0.0321452 -0.128436 -0.446682 -0.218403 -0.348843 0.103784 -0.169826 -0.310415 -0.0368601 -0.142087 0.2416 0.58808 0.324248 0.508928 -0.0292994 0.124677 0.0698734 -0.147063 0.24211 -0.290344 0.093047 -0.480198 -0.322168 -0.0906935 0.0937112 0.215678 -0.0778318 -0.111428 -0.0267907 0.0621068 -0.133809 -0.191843 -0.0495861 -0.385236 0.168066 0.121989 0.0980769 -0.322913 -0.506336 -0.335865 -0.11226 -0.0678001 0.106787 0.21323 0.0154392 0.241736 0.35479 -0.0608606 -0.189672 -0.471755 -0.156644 0.0393095 0.100017 0.255617 -0.0338737
659 0.410607 0.591838 0.226412 -0.131033 0.379408 -0.0837196 -0.0814981 -0.399138 0.103336 -0.0385349 -0.0918585 -0.411771 -0.211839 -0.284438 0.0786893 -0.123072 -0.31675 -0.0160773 -0.172662 0.203564 0.489723 0.236304 0.448324 -0.0892096 0.165237 0.0777479 -0.119028 0.250566 -0.229192 0.0988732 -0.380647 -0.28104 -0.0668282 0.0902507 0.207824 -0.0390919 -0.0739432 -0.0463838 0.0728946 -0.142066 -0.167142 -0.0446242 -0.285061 0.216431 0.0784063 0.0631928 -0.274381 -0.417282 -0.327192 -0.132849 -0.0575562 0.095416 0.173307 -0.0555672 0.267077 0.296273 -0.0623968 -0.196242 -0.460077 -0.12323 0.0186308 0.13131 0.279435 -0.123181
663 0.452705 0.772659 0.24962 -0.138656 0.423686 -0.0965292 -0.0462396 -0.518145 0.112652 -0.00184276 -0.025614 -0.450605 -0.2603 -0.34238 0.0642977 -0.153975 -0.378465 -0.00396376 -0.224803 0.234503 0.534927 0.269795 0.534204 -0.122701 0.179906 0.0762842 -0.125352 0.309901 -0.25244 0.1405 -0.396078 -0.334774 -0.0788534 0.102215 0.247174 -0.0136517 -0.0777119 -0.0738443 0.0641365 -0.177282 -0.175423 -0.0642122 -0.32816 0.255466 0.0705862 0.0546001 -0.272046 -0.474557 -0.401801 -0.179496 -0.0403017 0.110228 0.194147 -0.0644002 0.281554 0.326315 -0.0715122 -0.22962 -0.528672 -0.112423 0.0387803 0.156112 0.329779 -0.159952
664 0.399926 0.744394 0.227642 -0.12583 0.401592 -0.107494 -0.0176354 -0.477407 0.104559 0.0309963 -0.00539758 -0.406724 -0.25031 -0.316464 0.059922 -0.133624 -0.369435 -0.000522817 -0.21893 0.219838 0.526158 0.256609 0.504774 -0.125141 0.169348 0.0695651 -0.123786 0.298055 -0.222307 0.122622 -0.372012 -0.318654 -0.0748236 0.0831651 0.242904 -0.0151146 -0.0491455 -0.0530233 0.0676304 -0.164246 -0.158512 -0.0624132 -0.298621 0.24588 0.0717372 0.0615045 -0.273679 -0.444701 -0.377749 -0.170896 -0.052531 0.0892593 0.183724 -0.0669917 0.257393 0.329092 -0.0761337 -0.215826 -0.500581 -0.098802 0.0305985 0.156797 0.306302 -0.14842
665 0.401297 0.312919 0.166077 -0.109291 0.307917 -0.098358 -0.0451801 -0.294962 0.0782132 0.00632656 -0.0171032 -0.3095 -0.174207 -0.201873 0.0452746 -0.0847239 -0.262596 0.00507262 -0.157547 0.182285 0.330713 0.154054 0.345271 -0.106238 0.149768 0.0629102 -0.0922578 0.211356 -0.145144 0.0752023 -0.269308 -0.228566 -0.03988 0.0446019 0.175829 0.000347231 -0.0150248 -0.0385169 0.0612035 -0.123339 -0.141489 -0.013941 -0.203021 0.189838 0.0548219 0.0598986 -0.211319 -0.291047 -0.275701 -0.122373 -0.0376693 0.0667804 0.115059 -0.053868 0.197148 0.230429 -0.050615 -0.16994 -0.356926 -0.0650546 0.0111056 0.100288 0.225942 -0.126665
660 0.390239 0.149124 0.143281 -0.129009 0.318547 -0.11867 -0.0415307 -0.209046 0.0639522 -0.0103659 -0.0108504 -0.305341 -0.183907 -0.176156 0.0380192 -0.052034 -0.26958 0.00241802 -0.182435 0.183834 0.279896 0.0913084 0.304383 -0.142157 0.179683 0.0764358 -0.08213 0.237371 -0.111018 0.0736122 -0.236071 -0.200979 -0.0182973 0.0400584 0.168941 0.0100535 0.0291872 -0.0341394 0.0839569 -0.122208 -0.149744 0.0251629 -0.133402 0.22965 0.0437024 0.0383387 -0.197817 -0.233252 -0.259237 -0.149779 -0.0501954 0.0751807 0.110157 -0.0765012 0.23563 0.208063 -0.0604229 -0.169982 -0.37735 -0.0460182 -0.0360475 0.113434 0.232819 -0.170737
666 0.328094 0.0693472 0.130419 -0.134935 0.307862 -0.122206 -0.012802 -0.149446 0.0587486 -0.00336597 -0.0122605 -0.269593 -0.161848 -0.123731 0.0345667 -0.0417517 -0.24563 0.0108599 -0.152775 0.172262 0.254217 0.0695718 0.264514 -0.127791 0.172711 0.0743096 -0.0733854 0.220271 -0.104842 0.0540319 -0.225778 -0.168556 -0.000164645 0.0224082 0.161116 -0.00626075 0.0392759 -0.0203907 0.0896379 -0.100854 -0.136908 0.0245261 -0.105787 0.207471 0.0456846 0.0462543 -0.205321 -0.20756 -0.23618 -0.127637 -0.0479817 0.0534355 0.0873158 -0.0780358 0.210307 0.202897 -0.0484466 -0.155845 -0.344484 -0.0398102 -0.0322326 0.105301 0.203512 -0.147656
667 0.329826 0.108171 0.0910831 -0.0578497 0.328507 -0.116263 0.0431907 -0.220957 -0.058436 0.0767525 0.0672424 -0.156136 -0.196691 -0.0904636 0.0224408 0.0369675 -0.335801 0.0568375 -0.326197 0.125466 0.183084 0.00288484 0.28746 -0.223973 0.240569 0.121894 -0.0139796 0.233094 0.0989899 0.134072 -0.146951 -0.204056 0.028368 7.4867e-06 0.192115 0.121425 0.132575 0.0322376 0.120635 -0.116753 -0.0987708 0.0897529 0.0233186 0.295993 0.085565 -0.0213245 -0.139162 -0.120789 -0.257687 -0.171547 -0.0350959 0.0684588 0.139501 -0.149773 0.267913 0.159077 -0.0514427 -0.161599 -0.313435 0.0213776 -0.0555035 0.154557 0.318088 -0.352635
534 0.307572 0.604303 0.133962 -0.0581299 0.326447 -0.0757036 0.0991019 -0.387631 -0.00866875 0.112091 0.120339 -0.222415 -0.239761 -0.197448 0.0140477 -0.0366593 -0.381969 0.0428291 -0.319263 0.167275 0.358833 0.128114 0.421487 -0.197914 0.214805 0.0880315 -0.0451465 0.267611 -0.0124105 0.162776 -0.223177 -0.261656 -0.0186209 0.0284876 0.221702 0.0998946 0.0707799 -0.00310603 0.0782068 -0.156932 -0.101038 0.0215673 -0.117174 0.275943 0.078509 0.0217103 -0.165347 -0.281227 -0.327216 -0.198616 -0.0264448 0.0742711 0.165526 -0.119831 0.22788 0.233311 -0.0618393 -0.177232 -0.382199 -0.0128383 0.0104083 0.154331 0.329776 -0.278798
535 0.229029 0.598365 0.120397 -0.037944 0.306863 -0.0916128 0.137203 -0.337269 -0.0401276 0.138492 0.162363 -0.168345 -0.236707 -0.156585 -0.00595392 -0.0103897 -0.396846 0.0536707 -0.345579 0.140805 0.293375 0.0802091 0.380486 -0.222487 0.234802 0.0947289 -0.0287831 0.277248 0.0499526 0.165402 -0.185015 -0.257002 -0.00515587 0.0186726 0.228124 0.125237 0.11267 0.00126835 0.0807577 -0.14977 -0.0953927 0.0349901 -0.0747451 0.299899 0.0707303 0.00416582 -0.146538 -0.228389 -0.302919 -0.1992 -0.0209416 0.0618151 0.153523 -0.144786 0.237683 0.210093 -0.0529102 -0.173439 -0.36696 0.00257078 -0.00773493 0.161413 0.328427 -0.318575
536 0.211702 0.52565 0.104055 -0.0276707 0.287186 -0.0825261 0.13302 -0.288316 -0.0789887 0.142073 0.17704 -0.135731 -0.231563 -0.121736 -0.019253 0.0136109 -0.394053 0.0694536 -0.367299 0.109318 0.248542 0.0336843 0.339419 -0.246327 0.238154 0.0917379 -0.00268613 0.272531 0.083418 0.172078 -0.11187 -0.222422 0.0188837 0.0177588 0.206553 0.161096 0.124299 -0.00796825 0.0806151 -0.149273 -0.0665102 0.0346598 -0.0145077 0.300739 0.069453 -0.0299394 -0.0867644 -0.19015 -0.29225 -0.215515 -0.00880251 0.043417 0.132184 -0.180167 0.230885 0.178967 -0.0601143 -0.167695 -0.317108 0.0253414 -0.00600898 0.172274 0.328285 -0.351832
537 0.156112 0.482374 0.0831599 -0.0234776 0.269385 -0.0928307 0.150785 -0.234754 -0.100678 0.163654 0.229795 -0.0726285 -0.217965 -0.0827491 -0.0383566 0.0427964 -0.389996 0.0866626 -0.388591 0.093243 0.16662 -0.0155028 0.303653 -0.291156 0.253252 0.0951481 0.0122908 0.278256 0.145376 0.168393 -0.0483929 -0.198208 0.0392998 0.0102802 0.195699 0.177665 0.149376 -0.0168857 0.0881638 -0.156042 -0.0437321 0.0482406 0.048015 0.326416 0.0471859 -0.0637421 -0.0542321 -0.121758 -0.279169 -0.211525 -0.00613598 0.0451153 0.108912 -0.198489 0.229316 0.126702 -0.0524893 -0.165291 -0.290147 0.0517257 -0.0135967 0.179522 0.330528 -0.403533
538 0.149699 0.429193 0.0604231 -0.00821479 0.246027 -0.094438 0.184989 -0.167772 -0.12831 0.187443 0.251672 -0.0230998 -0.210094 -0.0413022 -0.0628461 0.0658199 -0.381584 0.0941202 -0.405972 0.066704 0.0921432 -0.0674801 0.252523 -0.313834 0.265753 0.100998 0.0368564 0.253676 0.20569 0.178418 -0.00201781 -0.177946 0.0523015 -0.0183085 0.195427 0.203911 0.190757 -0.00177895 0.0915638 -0.144793 -0.0265672 0.074938 0.103118 0.338618 0.0460651 -0.062751 -0.0207237 -0.0673756 -0.250908 -0.22416 -0.00178238 0.0323361 0.0983908 -0.21046 0.239066 0.0977101 -0.054941 -0.163054 -0.271086 0.0775709 -0.0332839 0.19007 0.325845 -0.42884
495 0.429028 0.67399 0.214991 -0.100617 0.338075 -0.0408417 -0.0987401 -0.520772 0.158404 -0.0311742 -0.0666426 -0.40777 -0.182768 -0.326449 0.0563289 -0.184071 -0.254458 -0.0243449 -0.0975033 0.197678 0.502974 0.293846 0.45109 -0.0190075 0.0786448 0.0268882 -0.133749 0.220142 -0.306597 0.0861754 -0.343669 -0.269065 -0.083445 0.10293 0.160111 -0.0631324 -0.134928 -0.0884598 0.0150157 -0.124037 -0.124253 -0.121114 -0.350774 0.131073 0.0509265 0.0585799 -0.220569 -0.437253 -0.304447 -0.10919 -0.0292507 0.0798273 0.155265 -0.00201616 0.16771 0.268002 -0.0476623 -0.162973 -0.387963 -0.118032 0.0744884 0.106431 0.205897 -0.0350992
496 0.439516 0.806932 0.240177 -0.106311 0.383897 -0.0591278 -0.0775167 -0.57776 0.155631 -0.0190334 -0.0490906 -0.449635 -0.217798 -0.363219 0.0564921 -0.184249 -0.318092 -0.018494 -0.140687 0.222724 0.54569 0.325892 0.518068 -0.0484017 0.116278 0.044914 -0.135181 0.25303 -0.306176 0.114742 -0.379812 -0.305141 -0.0944625 0.103255 0.197788 -0.0407432 -0.124657 -0.0897397 0.0358987 -0.163747 -0.15611 -0.110239 -0.369653 0.174093 0.0594612 0.0586242 -0.249174 -0.488068 -0.350189 -0.140116 -0.0340399 0.0989125 0.181502 -0.023963 0.209854 0.30867 -0.0707406 -0.192406 -0.461774 -0.120193 0.066912 0.125772 0.256951 -0.0609246
497 0.502993 0.765574 0.263539 -0.105866 0.396226 -0.070925 -0.0814242 -0.622571 0.178055 -0.0213991 -0.0673838 -0.470281 -0.222983 -0.3803 0.0805964 -0.206066 -0.312725 -0.0145061 -0.130851 0.228394 0.597833 0.365682 0.531092 -0.025767 0.105481 0.036886 -0.158176 0.240401 -0.337759 0.110789 -0.433188 -0.327243 -0.102417 0.097415 0.218446 -0.0617389 -0.12292 -0.0788718 0.0379336 -0.161543 -0.172302 -0.126745 -0.418055 0.15811 0.059925 0.0978947 -0.300922 -0.515969 -0.364678 -0.123096 -0.038671 0.109069 0.20519 0.000150166 0.188487 0.352188 -0.0643359 -0.190783 -0.476631 -0.130619 0.0716152 0.104281 0.255009 -0.0274291
504 0.436169 0.856914 0.260052 -0.116287 0.383211 -0.0603274 -0.0507567 -0.652066 0.187754 -0.0127389 -0.0800083 -0.487503 -0.220009 -0.410658 0.0852992 -0.255202 -0.297444 -0.00864256 -0.0782964 0.23074 0.657342 0.425971 0.546679 0.0192849 0.0711746 0.0285947 -0.164381 0.232549 -0.396938 0.113903 -0.441613 -0.336892 -0.100067 0.112677 0.217117 -0.0791693 -0.170129 -0.076994 0.0151995 -0.165872 -0.171565 -0.175291 -0.478216 0.120253 0.0732048 0.125994 -0.309875 -0.57962 -0.352035 -0.100562 -0.0402227 0.0858331 0.210454 0.00794425 0.143366 0.381926 -0.0453587 -0.173934 -0.466367 -0.13612 0.0955116 0.0752069 0.229752 0.0386815
505 0.449421 0.835422 0.260624 -0.10036 0.339213 -0.056256 -0.0148499 -0.667541 0.212082 -0.00664742 -0.0707923 -0.485671 -0.219154 -0.420681 0.0829435 -0.276049 -0.262445 -0.0144976 -0.0426825 0.217119 0.65154 0.450619 0.528258 0.0652497 0.0319156 -0.000421435 -0.186579 0.187368 -0.435712 0.0971106 -0.441799 -0.333943 -0.10314 0.0981271 0.216786 -0.102433 -0.166555 -0.0872521 -0.00226119 -0.166249 -0.180732 -0.214786 -0.485667 0.0786715 0.0607197 0.140942 -0.320759 -0.585874 -0.334494 -0.0893906 -0.031334 0.069453 0.207332 0.0319847 0.0789959 0.378628 -0.0382122 -0.152402 -0.451406 -0.135831 0.105627 0.0274063 0.175681 0.101876
506 0.609799 0.656699 0.272908 -0.0849588 0.331978 -0.0431496 -0.0835127 -0.683405 0.254878 -0.0468331 -0.103379 -0.517502 -0.189306 -0.432421 0.0868547 -0.292799 -0.215498 -0.0257522 0.00291997 0.219531 0.63415 0.464576 0.511129 0.103283 0.0129542 -0.0192487 -0.190962 0.165205 -0.471621 0.0743538 -0.427345 -0.311647 -0.123688 0.105215 0.179855 -0.140727 -0.194318 -0.106171 -0.0193654 -0.154787 -0.187619 -0.226751 -0.521754 0.0444729 0.0339559 0.146693 -0.324057 -0.572483 -0.311854 -0.0730911 -0.0180459 0.0796786 0.181329 0.0710632 0.0544809 0.371276 -0.0402612 -0.149235 -0.423293 -0.138019 0.100993 0.0039211 0.139262 0.150625
507 0.470745 0.603909 0.23287 -0.0517098 0.251446 -0.0498513 0.0311552 -0.601621 0.214142 0.0131616 -0.0454497 -0.435381 -0.186482 -0.379776 0.061053 -0.283715 -0.211319 0.011763 0.00526387 0.182707 0.590885 0.451393 0.465306 0.104569 -0.00503484 -0.0245387 -0.166949 0.139005 -0.423059 0.0786804 -0.367093 -0.277418 -0.0907761 0.0757421 0.181235 -0.115466 -0.14255 -0.0724232 -0.0265614 -0.143479 -0.169129 -0.238962 -0.47459 0.0270302 0.0326906 0.163703 -0.301854 -0.537185 -0.276213 -0.0682946 -0.00503266 0.0492281 0.183407 0.0544493 -0.0141947 0.365037 -0.00850315 -0.0952027 -0.355574 -0.114267 0.104904 -0.0268339 0.106076 0.174541
508 0.490991 0.47628 0.21723 -0.0283837 0.22992 -0.0519774 0.0357557 -0.564478 0.20209 0.00833479 -0.0181819 -0.411857 -0.16863 -0.362678 0.0565918 -0.280719 -0.185359 0.0398879 0.0201658 0.140399 0.520651 0.426367 0.420185 0.111618 -0.0193487 -0.0328451 -0.167297 0.108018 -0.417371 0.0955253 -0.304475 -0.257301 -0.0759437 0.0697924 0.170473 -0.102844 -0.132346 -0.0704617 -0.0330832 -0.161274 -0.159613 -0.275511 -0.440519 0.0278366 0.0088186 0.145782 -0.287482 -0.489947 -0.266609 -0.0677573 0.00198544 0.0257982 0.167109 0.0226485 -0.0299186 0.345429 -0.0135007 -0.0884017 -0.333823 -0.0754705 0.105981 -0.0482782 0.0915775 0.17379
509 0.583644 0.323212 0.212421 -0.00790414 0.189507 -0.0523723 0.044987 -0.554208 0.21417 0.0169324 0.013626 -0.388866 -0.172591 -0.353852 0.0342886 -0.285164 -0.179538 0.0508419 0.0304097 0.136732 0.475268 0.415001 0.399207 0.108164 -0.0186451 -0.0570436 -0.171414 0.0947609 -0.396988 0.0778523 -0.264367 -0.251448 -0.0755738 0.0520882 0.159643 -0.098761 -0.11242 -0.0826702 -0.0553252 -0.159599 -0.162192 -0.277909 -0.422832 0.00711851 -0.00630747 0.161638 -0.27982 -0.455291 -0.252177 -0.0758128 0.004535 0.0288474 0.141431 0.030574 -0.0693985 0.326919 -0.0163472 -0.0885555 -0.310081 -0.040845 0.0948479 -0.0658813 0.0760897 0.184608
510 0.486054 0.36394 0.190681 0.013595 0.151156 -0.0699903 0.162446 -0.50197 0.181065 0.0891686 0.078396 -0.310482 -0.168212 -0.289098 0.0235385 -0.27279 -0.176957 0.0841702 0.0368393 0.11032 0.404348 0.41087 0.342551 0.102863 -0.0236528 -0.0639765 -0.157028 0.0576677 -0.347054 0.0820341 -0.227038 -0.24039 -0.0545821 -0.000450226 0.178842 -0.0730919 -0.0471667 -0.0405056 -0.0495108 -0.161864 -0.151486 -0.268724 -0.366816 0.00900327 -0.0136105 0.17883 -0.28816 -0.403789 -0.231937 -0.0788536 0.01151 0.0215603 0.148973 0.024962 -0.112312 0.332766 -0.0177956 -0.0614732 -0.281114 -0.00925485 0.096419 -0.0883645 0.0604016 0.181316
499 0.666408 0.0783018 0.175174 0.0493525 0.126712 -0.0724646 0.17254 -0.513275 0.154267 0.116189 0.179319 -0.296483 -0.192087 -0.303587 -0.0219569 -0.267965 -0.215926 0.114034 -0.0172179 0.101661 0.367991 0.388205 0.369428 0.0456757 0.00678884 -0.0651715 -0.13336 0.0876117 -0.317001 0.121322 -0.159366 -0.230795 -0.0517382 -0.0242802 0.190314 -0.0237274 -0.00316405 -0.0482239 -0.0575686 -0.188966 -0.1443 -0.280678 -0.332817 0.0553376 -0.0440273 0.162544 -0.261292 -0.36826 -0.25807 -0.115056 0.024079 0.0077115 0.127522 0.00196387 -0.164716 0.311529 -0.0133095 -0.051417 -0.266135 0.0364633 0.09426 -0.0947843 0.0700539 0.138197
500 0.591286 0.0765193 0.193519 0.0826246 0.0896997 -0.0802376 0.271014 -0.465431 0.12163 0.144595 0.178563 -0.235676 -0.193785 -0.265136 -0.00942923 -0.28107 -0.210888 0.169606 -0.03306 0.0645309 0.349396 0.407223 0.312873 0.0887084 -0.00201155 -0.07976 -0.145566 0.0408301 -0.289886 0.130172 -0.139219 -0.238877 -0.0191385 -0.0565458 0.209809 -0.0194083 0.036451 -0.000552988 -0.0528658 -0.199981 -0.153779 -0.317214 -0.303826 0.0427638 -0.0236505 0.200165 -0.296547 -0.349237 -0.217576 -0.122349 0.0194314 0.0118685 0.1697 -0.0315113 -0.167741 0.351075 0.00625896 -0.016279 -0.234406 0.0840561 0.0652138 -0.149052 0.0454157 0.169571
501 0.672883 -0.123404 0.164179 0.0989345 0.0671839 -0.0694998 0.277138 -0.465418 0.100064 0.157587 0.240771 -0.237781 -0.200859 -0.252798 -0.0467712 -0.265712 -0.220206 0.206396 -0.0581596 0.0320128 0.304989 0.364256 0.301241 0.0450252 0.0156646 -0.0763239 -0.125248 0.062187 -0.244298 0.155526 -0.0599597 -0.219609 0.00046815 -0.0642637 0.209338 0.027089 0.0884091 -0.0198815 -0.0371735 -0.205386 -0.155077 -0.343605 -0.257387 0.0531569 -0.0677175 0.181296 -0.248509 -0.30027 -0.233127 -0.142838 0.0366524 -0.0198363 0.148008 -0.0714076 -0.203894 0.326036 0.0091104 -0.0198096 -0.227813 0.124005 0.0553441 -0.142235 0.0706608 0.105292
502 0.645413 -0.110794 0.135301 0.122257 0.0942727 -0.103463 0.314819 -0.484618 0.0857623 0.185179 0.258997 -0.192625 -0.169683 -0.203402 -0.0434895 -0.238579 -0.227733 0.221327 -0.0774948 0.0342068 0.261201 0.346027 0.275695 0.0380993 0.0199711 -0.0544553 -0.0918655 0.0372602 -0.182509 0.164815 0.00113496 -0.194008 0.029249 -0.0776126 0.211471 0.0549953 0.0964505 -0.000228831 -0.0332129 -0.203014 -0.126845 -0.298642 -0.181757 0.0618871 -0.047017 0.146403 -0.224379 -0.254458 -0.199874 -0.14099 0.0504892 -0.0231098 0.145144 -0.101971 -0.210759 0.2826 0.0188402 -0.0127315 -0.177753 0.145381 0.0618874 -0.151027 0.0826013 0.0801282
524 0.556881 0.379095 0.211209 -0.102291 0.395237 -0.0679396 -0.104937 -0.572556 0.136958 -0.0137626 -0.142876 -0.40876 -0.189388 -0.33506 0.120403 -0.140086 -0.268622 -0.0312456 -0.116518 0.241975 0.555479 0.319706 0.467247 0.0202669 0.112634 0.0705691 -0.140635 0.185641 -0.256312 0.0690699 -0.476583 -0.286317 -0.0826862 0.0663267 0.213393 -0.0547474 -0.0762207 -0.00734633 0.0536824 -0.0978912 -0.18642 -0.0247689 -0.350417 0.123403 0.137108 0.118939 -0.311556 -0.454744 -0.287106 -0.0690614 -0.0695995 0.108777 0.217084 0.046128 0.186379 0.326875 -0.0448931 -0.15367 -0.406599 -0.144441 0.0427702 0.0603239 0.207283 -0.0139237
525 0.539914 0.301611 0.191404 -0.0873395 0.374617 -0.0603831 -0.101658 -0.524211 0.120091 -0.0132915 -0.139703 -0.388365 -0.184351 -0.315011 0.127058 -0.123875 -0.250688 -0.0402981 -0.112411 0.230378 0.530778 0.300896 0.449908 0.0145842 0.110848 0.0686946 -0.123687 0.161279 -0.235386 0.0696645 -0.461315 -0.263718 -0.0764595 0.0565167 0.196964 -0.0569591 -0.0671393 0.00148119 0.065237 -0.0914515 -0.183706 -0.00600623 -0.333798 0.119853 0.143047 0.119816 -0.304349 -0.416148 -0.258538 -0.071041 -0.07225 0.104809 0.207229 0.0393829 0.19087 0.305746 -0.0471859 -0.148969 -0.382633 -0.133374 0.0302086 0.0545034 0.194987 -0.0258909
455 0.379984 0.0806282 0.11066 -0.0543096 0.293306 -0.0640929 -0.0379706 -0.337848 0.0374377 0.0145297 -0.0817303 -0.219958 -0.139781 -0.164912 0.0888924 -0.0394073 -0.199623 0.00206633 -0.145549 0.141374 0.302131 0.155402 0.282235 -0.0309559 0.126953 0.0711806 -0.0718491 0.110846 -0.0575383 0.0664574 -0.286186 -0.166601 -0.0439533 0.01049 0.15484 0.0142593 0.0166212 0.037793 0.074241 -0.0605581 -0.131361 0.0540879 -0.146661 0.110628 0.11312 0.0617606 -0.196975 -0.217463 -0.173053 -0.0599495 -0.0587576 0.0883523 0.142207 -0.00677411 0.170265 0.188671 -0.0329075 -0.0986414 -0.261824 -0.061299 -0.00497502 0.056273 0.17234 -0.103778
456 0.391925 -0.072113 0.0934231 -0.0257771 0.270859 -0.0661279 -0.0320776 -0.275777 -0.00398105 0.00800568 -0.046096 -0.166175 -0.128832 -0.118333 0.0816159 -0.000889278 -0.193755 0.020821 -0.174958 0.108947 0.22058 0.0896063 0.231339 -0.0612141 0.138081 0.081677 -0.0394168 0.108215 0.0030529 0.0728104 -0.22078 -0.147503 -0.0237782 0.00814562 0.142284 0.0512244 0.051766 0.0358669 0.0861697 -0.0540215 -0.104221 0.0720659 -0.0662982 0.144057 0.101731 0.0340613 -0.15551 -0.153068 -0.158925 -0.0688277 -0.0498168 0.075817 0.137264 -0.0311901 0.175683 0.135756 -0.0262532 -0.0977711 -0.223982 -0.0327954 -0.0320314 0.0600149 0.192599 -0.15851
744 0.27833 0.694059 0.183706 -0.0748349 0.21115 -0.0282581 -0.0885649 -0.312896 0.128767 -0.0650005 -0.0392637 -0.285179 -0.101546 -0.224384 0.00110688 -0.14332 -0.15069 -0.0190725 -0.0592172 0.103075 0.292445 0.189709 0.283112 -0.0573724 0.0432495 0.00120419 -0.0833348 0.153555 -0.236906 0.0505185 -0.162474 -0.175372 -0.0666884 0.0728985 0.0817615 -0.0565707 -0.120261 -0.107781 0.0190291 -0.100105 -0.0724208 -0.123391 -0.242033 0.121514 -0.0244954 0.0190363 -0.109942 -0.288796 -0.228139 -0.0926561 -0.00579646 0.0551421 0.0745792 -0.021945 0.140899 0.164762 -0.0485517 -0.134281 -0.29107 -0.0792525 0.0406328 0.0917767 0.139602 -0.0248746
745 0.475039 1.32225 0.354789 -0.1321 0.470918 -0.0801572 0.0413022 -0.741411 0.171242 0.0789437 -0.0934461 -0.457772 -0.245715 -0.420946 0.0473525 -0.260744 -0.369527 -0.0189769 -0.144652 0.257007 0.784116 0.419892 0.622086 -0.0347382 0.142211 0.0412326 -0.184877 0.251851 -0.381506 0.0714553 -0.504862 -0.342593 -0.0952321 0.0308524 0.263407 -0.105708 -0.113043 -0.00478324 0.0922303 -0.096392 -0.207455 -0.112828 -0.485586 0.17232 0.101238 0.144448 -0.319333 -0.633157 -0.374517 -0.158523 -0.0276903 0.124378 0.231384 0.0462304 0.235403 0.470805 -0.0374353 -0.202865 -0.544733 -0.15557 0.085916 0.0871616 0.234186 0.0144101
758 0.500996 1.44316 0.382093 -0.134908 0.497932 -0.0884856 0.081738 -0.798543 0.180486 0.112039 -0.108312 -0.458862 -0.244498 -0.423064 0.0544738 -0.286322 -0.38683 -0.00905486 -0.14632 0.268899 0.830177 0.437592 0.65882 -0.0297218 0.159443 0.0379778 -0.203062 0.239846 -0.401061 0.0449277 -0.533513 -0.354453 -0.0939859 -0.023989 0.293336 -0.124643 -0.082529 0.0417913 0.118863 -0.0742921 -0.238504 -0.0984426 -0.497667 0.175215 0.109245 0.186693 -0.351126 -0.652663 -0.387569 -0.170979 -0.0428509 0.142822 0.254977 0.0793339 0.245939 0.51638 -0.0348239 -0.211302 -0.590982 -0.144852 0.0806091 0.0607514 0.224415 0.0165581
746 0.439967 1.5294 0.394413 -0.118856 0.488598 -0.0955528 0.162739 -0.720501 0.12705 0.17524 -0.0393708 -0.360529 -0.213233 -0.354998 -0.0040995 -0.264247 -0.405572 0.0259577 -0.176816 0.209111 0.782764 0.372352 0.605473 -0.0784593 0.168354 0.0374603 -0.170084 0.236651 -0.330988 0.0330313 -0.439372 -0.313015 -0.0460271 -0.0677956 0.279321 -0.0843696 -0.0454233 0.0623825 0.137371 -0.0502468 -0.199915 -0.100107 -0.429612 0.182161 0.0971197 0.142 -0.270264 -0.616114 -0.35432 -0.190434 -0.0174157 0.119594 0.223712 0.0556413 0.236854 0.493561 -0.0180267 -0.198723 -0.530785 -0.112315 0.0971251 0.0714488 0.227934 -0.00996857
759 0.472137 1.46654 0.391868 -0.128169 0.46073 -0.0713605 0.0688215 -0.721958 0.170515 0.0976613 -0.104238 -0.424066 -0.204798 -0.393877 0.0299082 -0.297106 -0.367169 -0.00802117 -0.114996 0.237788 0.803062 0.421188 0.615065 -0.032759 0.132905 0.0245501 -0.19451 0.226103 -0.397048 0.0270425 -0.480524 -0.3176 -0.0776672 -0.016016 0.255998 -0.138797 -0.105847 0.0209731 0.105649 -0.0675327 -0.207294 -0.123101 -0.485403 0.158143 0.0914588 0.162665 -0.295037 -0.65144 -0.350102 -0.157819 -0.0186366 0.119393 0.229282 0.0754124 0.224499 0.493941 -0.0245277 -0.19001 -0.546389 -0.151044 0.089428 0.0593495 0.198021 0.053967
747 0.359791 1.12246 0.30229 -0.0882415 0.361096 -0.0813011 0.172093 -0.511756 0.085284 0.162351 -0.0402366 -0.2392 -0.161798 -0.259763 0.0104954 -0.200538 -0.310124 0.023007 -0.134193 0.172804 0.567873 0.28498 0.446663 -0.054238 0.13037 0.0164501 -0.137029 0.138668 -0.222869 0.00918783 -0.352438 -0.241817 -0.0337824 -0.0960618 0.221847 -0.0799756 0.00701332 0.0962997 0.117927 -0.0166823 -0.183139 -0.0403837 -0.30926 0.14499 0.0764758 0.155227 -0.233606 -0.433621 -0.2507 -0.142894 -0.029728 0.118574 0.174639 0.0768317 0.172139 0.40121 -0.0214199 -0.139111 -0.403062 -0.07684 0.0635918 0.0238405 0.146919 0.000915587
748 0.344595 0.997491 0.273956 -0.0677328 0.340793 -0.0844936 0.184664 -0.462184 0.0546445 0.179762 -0.0219871 -0.195694 -0.164078 -0.21651 -0.00731178 -0.174922 -0.296396 0.034406 -0.154074 0.172064 0.489355 0.24021 0.398426 -0.0724967 0.144262 0.0183448 -0.122912 0.126269 -0.156562 0.011314 -0.315271 -0.221945 -0.0212262 -0.122865 0.227927 -0.0496866 0.0611753 0.113686 0.136667 -0.0212661 -0.189605 -0.000453769 -0.246882 0.15268 0.0737641 0.141681 -0.229084 -0.362674 -0.23802 -0.157797 -0.0231935 0.12108 0.172757 0.0597338 0.181436 0.36892 -0.0277495 -0.134811 -0.392161 -0.0427954 0.0384233 0.025381 0.1422 -0.0506551
749 0.330327 0.860895 0.246357 -0.0517035 0.313039 -0.0822069 0.170747 -0.423199 0.0307505 0.183942 0.0100075 -0.134172 -0.141684 -0.171209 -0.012082 -0.131945 -0.299919 0.0429615 -0.174966 0.131365 0.43893 0.192861 0.359347 -0.087967 0.160684 0.0426213 -0.0950114 0.123251 -0.096747 0.0122618 -0.261824 -0.187114 -0.000993737 -0.116749 0.211057 -0.0254315 0.0751188 0.118594 0.129382 -0.00351456 -0.15178 0.0233259 -0.183106 0.166663 0.0735878 0.116104 -0.177148 -0.302587 -0.212736 -0.142183 -0.0188572 0.103697 0.154588 0.0328533 0.167932 0.319448 -0.0255684 -0.123533 -0.340598 -0.0208438 0.0233772 0.0289539 0.147439 -0.0861848
750 0.273218 0.816786 0.230981 -0.0389548 0.302543 -0.0888084 0.223921 -0.335421 -0.0136915 0.209255 0.0395542 -0.0735339 -0.127693 -0.122716 -0.0329819 -0.102213 -0.28589 0.0515648 -0.203134 0.110761 0.369064 0.13693 0.314225 -0.128192 0.165985 0.0479955 -0.074133 0.116823 -0.0292597 0.0145091 -0.206262 -0.165873 0.0247317 -0.141143 0.206133 0.0103063 0.113237 0.134018 0.138534 0.00167784 -0.134865 0.0333842 -0.118053 0.168126 0.0758964 0.0863872 -0.144433 -0.238843 -0.19527 -0.16512 -0.0179472 0.0894181 0.137917 0.0130565 0.169383 0.298828 -0.0198067 -0.12056 -0.313542 0.0106957 0.00890486 0.0421057 0.14443 -0.116213
751 0.253393 0.742613 0.208817 -0.0223091 0.274922 -0.0897648 0.248931 -0.284907 -0.035228 0.235525 0.0859271 -0.0304592 -0.127131 -0.0790639 -0.0453231 -0.0709167 -0.290633 0.0729375 -0.223011 0.0927538 0.314257 0.0952319 0.272382 -0.148169 0.170101 0.043462 -0.0582776 0.100471 0.0265737 0.02774 -0.152321 -0.141576 0.0400343 -0.161699 0.195169 0.0237277 0.152771 0.13967 0.146019 0.00493101 -0.126879 0.0572042 -0.0572985 0.183424 0.0724664 0.0781843 -0.123869 -0.184811 -0.163087 -0.166627 -0.0162552 0.0932294 0.117818 -0.00502519 0.169859 0.261466 -0.0198937 -0.0987587 -0.269489 0.0312166 0.00854344 0.0402605 0.150885 -0.154658
752 0.223567 0.63346 0.166217 -0.023078 0.271723 -0.0974778 0.250797 -0.261445 -0.0795171 0.239099 0.130752 0.0288918 -0.128766 -0.0555037 -0.0499391 -0.0374319 -0.312065 0.0741979 -0.254421 0.0723897 0.291078 0.0356573 0.247268 -0.184366 0.20221 0.0671426 -0.0222756 0.126084 0.0853177 0.0319272 -0.105299 -0.120654 0.0659709 -0.152716 0.190623 0.0707948 0.166466 0.146934 0.150108 0.00258482 -0.0780961 0.0638204 0.000622766 0.196882 0.075577 0.0330542 -0.0658727 -0.156054 -0.15115 -0.158365 -0.0120032 0.0691963 0.116804 -0.0501084 0.163367 0.225118 -0.0111604 -0.0948355 -0.22776 0.0426398 0.00219178 0.0634018 0.167315 -0.203236
741 0.127856 0.264357 0.0444365 -0.0192637 0.210123 -0.0840748 0.138019 -0.174864 -0.0833444 0.145802 0.163892 -0.0431869 -0.170532 -0.0666286 -0.00884483 0.0387827 -0.303265 0.0671471 -0.299654 0.0929633 0.163532 -0.00602102 0.252636 -0.195427 0.185282 0.0813532 0.00417515 0.191375 0.112665 0.118759 -0.0702664 -0.168884 0.0293203 -0.00208102 0.172178 0.13339 0.131884 0.0288433 0.064623 -0.0981595 -0.0443971 0.0585194 0.0298473 0.231712 0.062338 -0.0235046 -0.0550754 -0.107979 -0.208873 -0.154193 -0.0170989 0.0404626 0.0962952 -0.123004 0.170871 0.111574 -0.0325007 -0.115736 -0.209133 0.0399623 -0.00890634 0.124329 0.238686 -0.288136
136 0.349157 0.641533 0.182566 -0.088506 0.317579 -0.0681864 -0.0444834 -0.440946 0.0855261 0.0139003 0.0234992 -0.331553 -0.184224 -0.267613 0.0291828 -0.120606 -0.299866 -0.00294593 -0.175948 0.176068 0.414556 0.218604 0.417037 -0.103635 0.126579 0.0403804 -0.0896813 0.244174 -0.195194 0.108468 -0.274511 -0.253395 -0.0686298 0.079021 0.172544 0.00356826 -0.068443 -0.080639 0.0391935 -0.142378 -0.111638 -0.0663442 -0.253319 0.197491 0.0460389 0.0271833 -0.177761 -0.369268 -0.311826 -0.149279 -0.0231625 0.0711411 0.142656 -0.0517829 0.192141 0.245763 -0.0617289 -0.177516 -0.390436 -0.0763422 0.0369146 0.128431 0.253471 -0.140049
137 0.355871 0.747623 0.201629 -0.086745 0.345786 -0.0736625 -0.0500634 -0.466863 0.0856261 0.0114265 0.0303979 -0.346443 -0.206898 -0.286086 0.0260419 -0.121212 -0.336968 0.00294811 -0.214176 0.170247 0.433543 0.215985 0.465797 -0.132195 0.149717 0.052723 -0.097354 0.268826 -0.187987 0.133603 -0.274018 -0.27893 -0.0706155 0.0912128 0.186514 0.0225359 -0.0714359 -0.0924413 0.0498834 -0.159717 -0.109324 -0.0799638 -0.265318 0.22463 0.0390984 0.0156192 -0.18973 -0.381623 -0.344944 -0.161516 -0.0204748 0.0845642 0.154552 -0.0776434 0.214087 0.249933 -0.0621174 -0.191947 -0.415884 -0.0714226 0.0465971 0.148789 0.290335 -0.161851
138 0.367348 0.763412 0.202112 -0.0939256 0.348262 -0.0722267 -0.0562893 -0.472349 0.0794815 0.0168501 0.0422854 -0.344234 -0.207099 -0.283089 0.0140593 -0.116403 -0.343344 0.0184339 -0.222093 0.176194 0.425654 0.20666 0.459417 -0.136707 0.15267 0.0540968 -0.0959934 0.27883 -0.177409 0.14342 -0.260771 -0.290134 -0.0695706 0.0916431 0.189834 0.0281273 -0.0679837 -0.0942177 0.0599945 -0.169552 -0.110099 -0.0834743 -0.260586 0.247551 0.0394896 0.0182058 -0.175933 -0.374557 -0.349989 -0.180265 -0.0135782 0.0909387 0.156059 -0.0788538 0.224128 0.253518 -0.0658842 -0.198082 -0.432654 -0.0717985 0.0450159 0.159305 0.287456 -0.179761
139 0.339037 0.704672 0.188482 -0.0803467 0.345728 -0.0842053 -0.0145973 -0.430084 0.0576708 0.0291044 0.0730552 -0.307204 -0.217053 -0.247122 0.00747074 -0.0900844 -0.354394 0.0326383 -0.251772 0.155023 0.375498 0.173632 0.437532 -0.168643 0.179562 0.062187 -0.0859385 0.275469 -0.126711 0.15323 -0.222917 -0.273695 -0.0517321 0.0708184 0.192311 0.0538418 -0.0184834 -0.0683203 0.0695041 -0.158859 -0.0989696 -0.0587221 -0.209146 0.263853 0.0401823 0.00141804 -0.166871 -0.324936 -0.347672 -0.185504 -0.0214169 0.0773955 0.145109 -0.100711 0.238897 0.242281 -0.0659056 -0.198961 -0.411622 -0.0445374 0.0285808 0.16095 0.296329 -0.232632
140 0.33343 0.688665 0.174195 -0.0691409 0.331737 -0.0876798 0.00832341 -0.396926 0.0202378 0.0612395 0.0972784 -0.271663 -0.227743 -0.225375 0.000282024 -0.0835799 -0.357993 0.0324873 -0.289943 0.15804 0.333638 0.142333 0.416336 -0.194965 0.19405 0.072373 -0.0718718 0.281714 -0.0801615 0.156606 -0.190742 -0.265523 -0.0464728 0.0572913 0.194506 0.0735655 0.0150874 -0.0701422 0.0767061 -0.16257 -0.100557 -0.0370041 -0.161051 0.274398 0.0287346 -0.000295316 -0.149233 -0.287765 -0.335108 -0.209884 -0.0102904 0.0789223 0.136413 -0.117248 0.240444 0.221685 -0.0678563 -0.206161 -0.405496 -0.0163006 0.0125507 0.178884 0.314487 -0.266894
141 0.250881 0.719449 0.165782 -0.0672947 0.321982 -0.0895369 0.0552305 -0.344015 -0.0027137 0.0900373 0.133102 -0.232209 -0.222526 -0.193695 -0.00872405 -0.0429654 -0.374684 0.0546056 -0.323047 0.140628 0.307312 0.11221 0.394264 -0.222901 0.216996 0.0737814 -0.0536248 0.286997 -0.0356259 0.164562 -0.178696 -0.261489 -0.031519 0.0304722 0.214268 0.0934747 0.0399839 -0.0389304 0.0815085 -0.164844 -0.0882382 -0.0110726 -0.12316 0.311529 0.0421636 -0.00676907 -0.137376 -0.25359 -0.34063 -0.215696 -0.0242585 0.0763788 0.145508 -0.138568 0.247965 0.205296 -0.072827 -0.210691 -0.399592 -0.00332918 0.00852239 0.179968 0.330704 -0.309888
142 0.230348 0.602978 0.141934 -0.0539401 0.300534 -0.0857393 0.0687453 -0.315759 -0.0408515 0.10054 0.147545 -0.179546 -0.212069 -0.148567 -0.0172488 -0.0138886 -0.36778 0.0566825 -0.332843 0.12486 0.242392 0.0633608 0.356331 -0.229007 0.215118 0.0820474 -0.033614 0.26819 0.031604 0.168909 -0.140275 -0.238271 -0.00784871 0.025341 0.203842 0.12574 0.0708697 -0.0272209 0.0865883 -0.164112 -0.0799784 0.00614688 -0.0683669 0.301342 0.0428111 -0.0193855 -0.116668 -0.209533 -0.317074 -0.205963 -0.0172383 0.07229 0.140238 -0.143805 0.252364 0.186766 -0.0742115 -0.185207 -0.368099 0.0101604 -0.00346025 0.181708 0.320786 -0.325156
143 0.193337 0.499842 0.110601 -0.0313377 0.280293 -0.103599 0.0846958 -0.232428 -0.0731207 0.111971 0.1776 -0.131276 -0.214196 -0.0998464 -0.039793 0.0146804 -0.357353 0.0849362 -0.345833 0.100185 0.14447 0.00121207 0.286166 -0.255267 0.23887 0.0766284 -0.00991834 0.239479 0.0850694 0.155943 -0.0826812 -0.216323 -0.00289444 -0.0158833 0.19764 0.141618 0.13341 -0.0191541 0.0965808 -0.15547 -0.0791627 0.0331886 0.0078366 0.322293 0.031749 -0.0296219 -0.0846924 -0.117972 -0.284371 -0.229374 -0.0262441 0.0801488 0.116436 -0.172336 0.258268 0.140583 -0.0851989 -0.179418 -0.34361 0.0541603 -0.033654 0.175868 0.314429 -0.36643
144 0.146376 0.470472 0.0889173 -0.0265175 0.25653 -0.104745 0.109852 -0.168077 -0.107215 0.142703 0.226919 -0.0766421 -0.192791 -0.0603597 -0.0627334 0.0459852 -0.365923 0.0883494 -0.369414 0.0849369 0.0644023 -0.0438902 0.255973 -0.296297 0.243765 0.0726576 0.014736 0.251515 0.142882 0.173017 -0.00525027 -0.192195 0.0156021 -0.0260564 0.19556 0.174898 0.156569 -0.0178902 0.102532 -0.149437 -0.0530785 0.0476036 0.0652788 0.344868 0.00330504 -0.0571365 -0.04043 -0.0483142 -0.279621 -0.230714 -0.0194093 0.0766012 0.0908403 -0.192991 0.25666 0.0988114 -0.0807092 -0.194076 -0.303214 0.0805918 -0.0412587 0.18953 0.331475 -0.420325
145 0.0856475 0.388215 0.0619418 -0.00314962 0.219558 -0.0974808 0.130975 -0.115582 -0.138197 0.146374 0.272119 -0.0106799 -0.185028 -0.0186393 -0.0782768 0.0771587 -0.374118 0.116893 -0.4025 0.0369883 0.019014 -0.100919 0.215842 -0.336547 0.260467 0.0824884 0.0347255 0.265137 0.204521 0.178337 0.0694958 -0.168232 0.0502874 -0.0127299 0.176663 0.215622 0.176196 -0.0242513 0.0930831 -0.153702 -0.00781087 0.0375456 0.133837 0.352376 0.00146779 -0.0971149 0.0131104 -0.0026072 -0.254115 -0.245273 0.00417361 0.035969 0.0637935 -0.242824 0.242229 0.0649146 -0.0774912 -0.171059 -0.267181 0.105595 -0.0477219 0.200866 0.337142 -0.479271
460 0.329618 0.786169 0.195307 -0.0917299 0.351966 -0.0825578 0.00137131 -0.457429 0.0706247 0.0558248 0.0328571 -0.33616 -0.238057 -0.275108 0.0303242 -0.115837 -0.348082 0.00859039 -0.244049 0.183186 0.434992 0.212716 0.453128 -0.144397 0.154252 0.0514605 -0.092356 0.271312 -0.151307 0.141282 -0.287311 -0.293199 -0.0534831 0.0654754 0.214897 0.0372269 -0.0353518 -0.059064 0.0528731 -0.159543 -0.120006 -0.0568461 -0.242978 0.242599 0.0576855 0.0349923 -0.196528 -0.375992 -0.350866 -0.179192 -0.0272601 0.0905512 0.168561 -0.0716021 0.224056 0.260256 -0.069646 -0.20557 -0.435086 -0.0679092 0.0451532 0.157053 0.297529 -0.188647
461 0.355918 0.770526 0.198175 -0.0935446 0.364862 -0.0885503 0.0248283 -0.46207 0.0639763 0.0769239 0.0314279 -0.328035 -0.252075 -0.277055 0.0334566 -0.107754 -0.351392 0.0197117 -0.251882 0.200015 0.420195 0.210341 0.463364 -0.139416 0.167609 0.0541983 -0.0922465 0.254412 -0.150994 0.126715 -0.312202 -0.299575 -0.0687291 0.0484967 0.234242 0.031883 -0.00281868 -0.03375 0.0711357 -0.160132 -0.144876 -0.0284425 -0.244364 0.255708 0.057129 0.0580463 -0.22548 -0.368585 -0.349253 -0.186553 -0.0337579 0.102738 0.177676 -0.0640647 0.244115 0.275614 -0.0786011 -0.210513 -0.44172 -0.0569106 0.0313427 0.151741 0.301279 -0.199752
462 0.308102 0.760734 0.188061 -0.079096 0.349465 -0.0942974 0.040435 -0.421316 0.0299131 0.0855853 0.0695345 -0.299791 -0.253651 -0.246303 0.00702883 -0.0995577 -0.37359 0.0353845 -0.272653 0.193231 0.351458 0.163364 0.422233 -0.178085 0.185015 0.0609938 -0.0800061 0.266748 -0.0907914 0.131964 -0.262573 -0.292839 -0.0559826 0.0211331 0.223543 0.0606948 0.0364854 -0.0349745 0.0775709 -0.164237 -0.14111 -0.0188943 -0.190305 0.282399 0.0472854 0.0372281 -0.195391 -0.307196 -0.346544 -0.199024 -0.0298432 0.105414 0.154153 -0.0866523 0.246261 0.257034 -0.0797872 -0.208178 -0.438287 -0.025353 0.0170403 0.160565 0.315038 -0.254868
463 0.285177 0.596561 0.14023 -0.0667815 0.312978 -0.0943265 0.0381447 -0.380396 0.00526571 0.0960456 0.108951 -0.237356 -0.227149 -0.194497 0.0015012 -0.0484845 -0.364264 0.0508517 -0.307675 0.148953 0.291068 0.112555 0.378123 -0.212098 0.198812 0.0713318 -0.0620859 0.251846 -0.0260996 0.147171 -0.186643 -0.264393 -0.0247945 0.0265393 0.218649 0.0948467 0.0553845 -0.036831 0.0802976 -0.164136 -0.101392 0.0035961 -0.118282 0.28857 0.0448403 0.0114227 -0.144978 -0.242047 -0.317696 -0.210054 -0.0242844 0.0958764 0.13135 -0.116692 0.237279 0.21496 -0.0765191 -0.200073 -0.388432 -0.00465216 0.010089 0.158232 0.310736 -0.297503
464 0.219893 0.584241 0.118517 -0.0484966 0.307145 -0.0945221 0.0705449 -0.316844 -0.0344495 0.120009 0.140992 -0.184804 -0.217739 -0.155633 -0.0279395 -0.0214752 -0.375781 0.0603553 -0.336227 0.124829 0.232188 0.0589272 0.355269 -0.242391 0.21083 0.0816275 -0.0384899 0.260627 0.0373744 0.156189 -0.127435 -0.239851 -0.00554357 0.0220585 0.211202 0.129053 0.0819046 -0.0284758 0.0793399 -0.155141 -0.0738711 0.0149468 -0.058186 0.316559 0.0322432 -0.0295213 -0.112187 -0.188613 -0.305982 -0.215898 -0.0228012 0.0774983 0.115443 -0.150604 0.242112 0.167856 -0.0728425 -0.191345 -0.356781 0.0169548 -0.0113749 0.174724 0.332456 -0.336822
465 0.19653 0.524915 0.114545 -0.0468361 0.270492 -0.103776 0.063862 -0.237546 -0.0490205 0.122514 0.159078 -0.139084 -0.216188 -0.114628 -0.0563174 -0.0117724 -0.358354 0.0706242 -0.334724 0.105431 0.139216 0.00511118 0.29201 -0.27562 0.210457 0.0631341 -0.0153165 0.242031 0.0680068 0.149364 -0.0676717 -0.212441 -0.00983884 -0.00977206 0.197705 0.137901 0.119216 -0.0299495 0.0850082 -0.15025 -0.074387 0.0307113 0.00427203 0.318874 0.0014179 -0.0424725 -0.0694093 -0.118202 -0.299691 -0.238502 -0.0131438 0.0790828 0.090253 -0.157378 0.256355 0.13271 -0.0834587 -0.191077 -0.337443 0.057176 -0.029207 0.187186 0.318176 -0.377228
466 0.0974217 0.421599 0.0623256 -0.0261028 0.228813 -0.0972736 0.108111 -0.18494 -0.0912805 0.151147 0.201542 -0.0617031 -0.192963 -0.0471411 -0.0595239 0.0339222 -0.350052 0.0777053 -0.353487 0.0748943 0.0685432 -0.0429788 0.245917 -0.28132 0.21076 0.0802398 0.00919329 0.230716 0.142598 0.152438 0.00639284 -0.18528 0.0260888 -0.0226497 0.174032 0.169597 0.155221 -0.0248506 0.0864819 -0.146921 -0.0293409 0.047052 0.0759887 0.327262 0.0111364 -0.0722317 -0.0336489 -0.0553705 -0.247711 -0.233859 -0.00701235 0.0634775 0.071457 -0.180261 0.223434 0.101229 -0.069707 -0.169056 -0.280808 0.0756571 -0.0255437 0.180861 0.311388 -0.400867
467 0.0961154 0.320435 0.0447924 -0.0105341 0.214314 -0.09565 0.12845 -0.153811 -0.119016 0.143049 0.237148 -0.017186 -0.181921 -0.00631504 -0.0742041 0.071192 -0.345629 0.106404 -0.391413 0.0438632 0.0203371 -0.0938639 0.206728 -0.313816 0.236361 0.0857984 0.0390113 0.240923 0.204023 0.168959 0.0579796 -0.158193 0.0367445 -0.0273058 0.163222 0.211766 0.173583 -0.0178174 0.0912051 -0.141439 -0.0058398 0.0587564 0.135111 0.332038 -0.00439255 -0.0949169 0.0187612 -0.00477642 -0.232643 -0.243713 0.00623788 0.0364897 0.0588416 -0.222548 0.222735 0.0686571 -0.0703572 -0.164029 -0.230587 0.0972723 -0.0417349 0.19248 0.319095 -0.433699
477 -0.0485094 0.732854 0.0397441 -0.0522447 -0.000435841 -0.0130202 0.439629 -0.21504 0.0344109 0.332264 0.175517 -0.0224924 -0.223301 -0.149438 0.000198433 -0.10092 -0.248626 -0.0959036 -0.113789 0.257213 0.429541 0.178612 0.332924 0.00774626 0.0639218 -0.0424256 -0.0868727 0.138571 -0.0465158 0.0137381 -0.356932 -0.221679 -0.0386074 -0.0624323 0.175882 -0.035533 0.124547 0.167541 -0.0619125 -0.000319274 -0.125243 0.14506 -0.230197 0.0225417 0.159217 0.239168 -0.196583 -0.259116 -0.151962 -0.0607158 -0.0351426 0.0426795 0.138484 0.177591 -0.0899927 0.286731 0.00408415 0.0198045 -0.152736 -0.0671009 0.117883 0.0216713 -0.00574986 0.0971978
104 0.227511 0.425609 0.0903638 -0.0361849 0.308565 -0.0997408 0.130376 -0.342358 -0.0615839 0.150006 0.165994 -0.154271 -0.224596 -0.143076 0.00140086 0.0190924 -0.407709 0.0633635 -0.377613 0.129987 0.324607 0.0630018 0.387078 -0.237985 0.250844 0.111333 -0.00300415 0.294116 0.0848728 0.185184 -0.155576 -0.247861 0.0181823 0.0362632 0.231578 0.159826 0.115376 0.0155214 0.0841217 -0.145517 -0.0506543 0.0440071 -0.0280593 0.296259 0.111198 -0.037904 -0.101844 -0.233829 -0.291332 -0.201724 -0.0165277 0.0369903 0.158826 -0.171026 0.22019 0.199225 -0.0453826 -0.164041 -0.31293 0.0143364 -0.0003651 0.175797 0.347908 -0.357046
105 0.153522 0.416578 0.0706671 -0.0194319 0.266143 -0.0985417 0.158793 -0.229259 -0.109815 0.162345 0.238248 -0.0681484 -0.217688 -0.0788219 -0.053124 0.0545611 -0.400545 0.0887743 -0.411446 0.0839625 0.189099 -0.0272299 0.314406 -0.297281 0.255589 0.103013 0.0276264 0.298913 0.156681 0.194587 -0.0326583 -0.218168 0.0450824 0.0176211 0.195669 0.197954 0.149899 -0.0103572 0.0832446 -0.157421 -0.0285289 0.0457193 0.0586391 0.324628 0.0611482 -0.0768141 -0.0293905 -0.129605 -0.286306 -0.229582 -0.00818815 0.0436438 0.117844 -0.225497 0.235449 0.138651 -0.047659 -0.170128 -0.288904 0.0610208 -0.0274583 0.202471 0.358142 -0.421276
106 0.14032 0.336899 0.042169 -0.00786951 0.251354 -0.103328 0.165692 -0.196866 -0.13539 0.163083 0.257823 -0.0286947 -0.213096 -0.0369394 -0.0638805 0.0835824 -0.407007 0.104152 -0.424546 0.0578975 0.14673 -0.0733086 0.282639 -0.322293 0.275607 0.114983 0.0417267 0.302115 0.206822 0.187727 0.0160968 -0.192871 0.0507736 -0.000654868 0.197154 0.219941 0.172605 8.48808e-05 0.0876872 -0.158041 -0.00912024 0.0625397 0.122388 0.345249 0.0482007 -0.102851 -0.00473911 -0.0753555 -0.268778 -0.229025 0.00561255 0.0239503 0.0965493 -0.237326 0.233819 0.0980405 -0.0451265 -0.162492 -0.254783 0.0841175 -0.0306772 0.19911 0.346946 -0.466006
366 0.301165 0.657717 0.159343 -0.0621671 0.348453 -0.104695 0.0480332 -0.387884 -0.00712199 0.107924 0.139818 -0.247625 -0.237395 -0.192843 -0.0181277 -0.0585442 -0.397201 0.0576345 -0.338124 0.15055 0.303223 0.106598 0.419376 -0.227977 0.220238 0.076536 -0.053281 0.286632 -0.0144197 0.156864 -0.171858 -0.281265 -0.0328443 0.0375149 0.227785 0.11318 0.0706171 -0.0494873 0.0829348 -0.173714 -0.111383 -0.00459271 -0.106846 0.321709 0.0353273 -0.00854489 -0.135976 -0.247139 -0.356808 -0.221378 -0.0168637 0.0814977 0.141082 -0.136732 0.264745 0.208217 -0.0763724 -0.213216 -0.402318 0.00964664 -0.00412096 0.192667 0.340742 -0.319918
367 0.256631 0.589792 0.136996 -0.0409863 0.319367 -0.103954 0.0921476 -0.321134 -0.0481448 0.13113 0.163714 -0.18845 -0.242671 -0.146511 -0.0360428 -0.0163785 -0.407443 0.0613145 -0.36125 0.142579 0.226389 0.0602105 0.368241 -0.257393 0.232721 0.0849786 -0.0324342 0.276629 0.0429459 0.159128 -0.129763 -0.263724 -0.0160694 -0.000425797 0.217463 0.138794 0.117531 -0.0232922 0.0879413 -0.163831 -0.0987461 0.0302231 -0.0421588 0.324646 0.0412317 -0.00720315 -0.114747 -0.173915 -0.324982 -0.232671 -0.0221648 0.0960246 0.129272 -0.160447 0.261744 0.181154 -0.0866071 -0.200004 -0.381518 0.0256816 -0.00994264 0.181782 0.347047 -0.365178
368 0.189163 0.503161 0.0837442 -0.01739 0.287274 -0.113997 0.110851 -0.280949 -0.0900372 0.153515 0.228232 -0.124505 -0.235998 -0.100828 -0.0501297 0.0267472 -0.411174 0.0766746 -0.397661 0.108854 0.198833 -0.00317146 0.327981 -0.294275 0.249193 0.0887565 0.00372147 0.295339 0.114365 0.173587 -0.0475563 -0.22414 0.0257319 -0.000663666 0.199499 0.177331 0.145047 -0.0295722 0.0886378 -0.159427 -0.0462077 0.0376731 0.0217275 0.338542 0.0433082 -0.064036 -0.054501 -0.140351 -0.310331 -0.242644 -0.0107088 0.0620225 0.112464 -0.208534 0.252432 0.149853 -0.0701412 -0.183774 -0.323507 0.0661489 -0.0178843 0.192084 0.348039 -0.418251
369 0.197903 0.412547 0.0738249 -0.000997148 0.244826 -0.10951 0.108502 -0.191947 -0.0961081 0.146315 0.234148 -0.0856239 -0.224403 -0.0525942 -0.0686121 0.0293948 -0.383959 0.0827436 -0.386141 0.080606 0.0837881 -0.0452567 0.27345 -0.299845 0.248423 0.0864743 0.0181513 0.258572 0.156094 0.159362 0.011054 -0.201359 0.0180277 -0.0196251 0.192115 0.184128 0.178955 -0.0300176 0.0958346 -0.154017 -0.0559917 0.0497909 0.0827754 0.351026 0.00783473 -0.0722977 -0.025944 -0.0423183 -0.284266 -0.250289 0.00686484 0.0631016 0.0808748 -0.209253 0.238551 0.104401 -0.0731693 -0.184379 -0.294796 0.0835092 -0.0422605 0.191706 0.323504 -0.423065
370 0.149732 0.345903 0.0446628 0.00369992 0.226072 -0.101422 0.100884 -0.112608 -0.142031 0.142446 0.25799 -0.0312547 -0.193441 -0.0120706 -0.0853462 0.0737102 -0.37469 0.107504 -0.407568 0.0358312 0.00504488 -0.103577 0.217602 -0.329514 0.248596 0.0872666 0.0466739 0.258738 0.218962 0.169301 0.0866376 -0.163481 0.0448172 -0.0195345 0.16214 0.213534 0.18048 -0.0320583 0.0983373 -0.144989 -0.0230126 0.055311 0.152352 0.357342 -0.00489841 -0.104571 0.027852 0.00961011 -0.255033 -0.254786 0.018617 0.0445507 0.0645205 -0.248931 0.249388 0.0572133 -0.0760889 -0.17124 -0.258389 0.111656 -0.0612338 0.19415 0.338355 -0.480741
481 0.0260834 0.94691 0.112472 -0.0909938 0.111476 -0.0183363 0.217087 -0.466718 0.141317 0.187142 0.0633692 -0.246247 -0.236683 -0.307986 0.0317836 -0.177106 -0.263343 -0.112382 -0.0772045 0.28975 0.544309 0.298139 0.459202 0.0416385 0.0523472 -0.0404968 -0.149413 0.199217 -0.239948 0.039127 -0.426501 -0.275738 -0.0936039 0.0363962 0.168038 -0.0900511 -0.0137605 0.0549364 -0.0617175 -0.0578052 -0.144149 0.0227054 -0.376787 0.0434792 0.120619 0.218332 -0.254423 -0.3992 -0.237423 -0.0740434 -0.0446224 0.0716281 0.16201 0.152899 -0.00679624 0.31859 -0.0210377 -0.0488792 -0.279643 -0.131232 0.115098 0.0464797 0.0549834 0.123834
482 -0.0650397 0.948084 0.0841651 -0.0892802 0.0910708 -0.00731397 0.274084 -0.371432 0.109732 0.202121 0.0874595 -0.199892 -0.223362 -0.265348 0.0275124 -0.146457 -0.26749 -0.108364 -0.0873547 0.287526 0.508746 0.245151 0.425686 0.022164 0.0570596 -0.0300697 -0.120639 0.196109 -0.183315 0.0342593 -0.39878 -0.261951 -0.0781729 0.0206794 0.152944 -0.0726751 0.00737496 0.0679825 -0.0574211 -0.0444839 -0.129569 0.0578492 -0.331348 0.0434737 0.129335 0.210641 -0.221839 -0.373261 -0.22632 -0.0739923 -0.0492926 0.0681663 0.149181 0.139636 -0.0201521 0.296457 -0.0128574 -0.0225095 -0.2439 -0.120938 0.112035 0.0680058 0.0402987 0.115471
475 -0.145262 1.07559 0.0507095 -0.0845252 -0.00701876 0.00290731 0.45503 -0.306325 0.101649 0.32831 0.22678 -0.107681 -0.251606 -0.239122 -0.0357367 -0.141792 -0.284852 -0.143531 -0.104693 0.322134 0.487265 0.210315 0.417936 -0.0107666 0.0422703 -0.0793917 -0.114155 0.223382 -0.150503 0.0217006 -0.370994 -0.265209 -0.0810134 -0.00830602 0.146786 -0.0814043 0.0540045 0.0965629 -0.120439 -0.0260091 -0.103129 0.10412 -0.315269 0.0386331 0.113805 0.24276 -0.169397 -0.320823 -0.210208 -0.0888959 -0.0327077 0.0519862 0.103915 0.196767 -0.0927859 0.301765 -0.0164243 0.00422713 -0.191912 -0.103132 0.151538 0.0802762 -0.0195962 0.132226
483 -0.101907 0.556497 0.0178993 -0.0412269 0.0468042 -0.0309726 0.330729 -0.230408 -0.00491704 0.26191 0.147303 -0.0255773 -0.198669 -0.127147 0.00729785 -0.0357269 -0.239269 -0.0633002 -0.15084 0.213414 0.327924 0.113731 0.284196 -0.035881 0.101735 -0.00500007 -0.0513142 0.13622 -7.44078e-05 0.0297855 -0.281166 -0.191059 -0.0128788 -0.0471323 0.163547 0.0042723 0.125907 0.145676 -0.0316941 -0.0256672 -0.0869036 0.137216 -0.142454 0.0667731 0.15533 0.1617 -0.151238 -0.20273 -0.135431 -0.0644687 -0.041821 0.0484064 0.127831 0.101198 -0.0206478 0.225313 -0.0021508 0.000820204 -0.146258 -0.0474474 0.0745021 0.0564346 0.0539754 0.0139761
695 0.298795 0.610729 0.161494 -0.0846913 0.261153 -0.0373253 -0.125199 -0.343076 0.0835079 -0.0335547 -0.0350424 -0.310075 -0.136084 -0.233618 0.0182751 -0.107797 -0.215529 -0.00900742 -0.132196 0.128736 0.301812 0.162823 0.331127 -0.0823132 0.0947949 0.0333011 -0.0875208 0.185494 -0.179505 0.0859508 -0.197816 -0.204907 -0.0638084 0.0708252 0.128509 -0.0124299 -0.0799098 -0.100536 0.0381344 -0.123735 -0.0930678 -0.0888555 -0.208323 0.168254 0.00738677 -0.00238202 -0.136174 -0.288239 -0.264068 -0.12329 -0.00638747 0.0679715 0.0981867 -0.0584781 0.18808 0.168655 -0.0558598 -0.156223 -0.333847 -0.0588304 0.0294482 0.106196 0.204018 -0.110646
696 0.360469 0.715226 0.196274 -0.0861408 0.341357 -0.0774381 -0.0691442 -0.430337 0.0810251 -0.00256955 -0.00239452 -0.35908 -0.202987 -0.265363 0.0274645 -0.110176 -0.311643 0.00792854 -0.206648 0.177304 0.386631 0.19499 0.424167 -0.134586 0.156394 0.0487927 -0.097902 0.256361 -0.164994 0.130983 -0.263812 -0.280524 -0.0714653 0.0701848 0.197122 0.0259182 -0.0459564 -0.0830413 0.064798 -0.161719 -0.120316 -0.0550286 -0.238231 0.239601 0.0376478 0.0283714 -0.191741 -0.341146 -0.335482 -0.177882 -0.0224015 0.1094 0.140503 -0.074107 0.247929 0.245276 -0.0764909 -0.211335 -0.427394 -0.0537153 0.0248585 0.143605 0.285604 -0.195405
697 0.372287 0.723285 0.209903 -0.0965305 0.353541 -0.075758 -0.0441841 -0.468644 0.0763998 0.0358542 -0.0141799 -0.368512 -0.21811 -0.296914 0.0421728 -0.116176 -0.330112 0.00100323 -0.213841 0.196073 0.42942 0.222177 0.452921 -0.117637 0.16528 0.0599972 -0.110513 0.237314 -0.179498 0.120055 -0.318321 -0.302763 -0.0765187 0.0461482 0.214352 0.00287886 -0.0374865 -0.0480372 0.0659591 -0.151503 -0.160126 -0.0375632 -0.261301 0.233934 0.0457116 0.0588436 -0.238318 -0.363463 -0.351384 -0.175403 -0.0401988 0.117691 0.16716 -0.0549506 0.237923 0.273756 -0.0711908 -0.205636 -0.455492 -0.0680586 0.0268033 0.145743 0.285869 -0.169005
698 0.316224 0.750076 0.195566 -0.074643 0.353962 -0.0916797 0.0279035 -0.432368 0.0329962 0.0809152 0.0504132 -0.318142 -0.234894 -0.251458 0.0179756 -0.0919409 -0.37204 0.0153485 -0.256833 0.200607 0.378058 0.189979 0.452171 -0.161389 0.195993 0.0655445 -0.0925419 0.246405 -0.109596 0.135346 -0.298676 -0.304964 -0.0581888 0.0166981 0.241378 0.0488398 0.0246497 -0.024081 0.0800694 -0.150101 -0.156914 -0.00593923 -0.20908 0.271067 0.0539436 0.0602938 -0.229302 -0.321456 -0.363746 -0.201835 -0.0393254 0.11995 0.172883 -0.0674123 0.258433 0.264694 -0.0859574 -0.208464 -0.446864 -0.0303173 0.0206157 0.158728 0.314704 -0.232494
699 0.298079 0.66063 0.17004 -0.0669721 0.328536 -0.102528 0.0563481 -0.381695 0.00875235 0.0927006 0.0748773 -0.267652 -0.233816 -0.213255 0.00394451 -0.0619301 -0.360105 0.0273589 -0.277629 0.168922 0.329747 0.140655 0.409071 -0.183518 0.203599 0.0700748 -0.0831355 0.2431 -0.057582 0.147142 -0.246855 -0.279076 -0.0508876 0.0133439 0.22243 0.065627 0.0477399 -0.0135118 0.077539 -0.159434 -0.139008 0.00890159 -0.165768 0.272124 0.0604532 0.0317559 -0.186167 -0.284751 -0.337532 -0.19555 -0.032238 0.107985 0.153339 -0.0826539 0.259284 0.246727 -0.0742335 -0.194415 -0.412461 -0.0120174 -0.00140877 0.166269 0.300458 -0.260679
700 0.215696 0.670405 0.149962 -0.0702341 0.3271 -0.0976905 0.0544326 -0.338478 -0.0151514 0.106376 0.102688 -0.233863 -0.225956 -0.187571 -0.00331978 -0.0444378 -0.38445 0.0409309 -0.313193 0.147391 0.268883 0.0932836 0.382125 -0.223643 0.215197 0.0733172 -0.0576645 0.259311 -0.0145652 0.15728 -0.197054 -0.280373 -0.0259559 0.00713734 0.229705 0.09931 0.0699222 -0.0164375 0.0908227 -0.160178 -0.111465 0.0157651 -0.113061 0.302228 0.0343763 0.00617589 -0.16227 -0.232338 -0.345502 -0.226315 -0.0249169 0.0959759 0.140496 -0.127432 0.27574 0.207956 -0.0895598 -0.212742 -0.417157 -0.000707513 -0.0142158 0.183184 0.325629 -0.312764
701 0.237674 0.525192 0.118728 -0.0481785 0.327903 -0.116082 0.0484029 -0.333322 -0.037451 0.124812 0.148922 -0.193404 -0.221398 -0.160078 -0.0158009 -0.00935308 -0.411772 0.0635026 -0.350439 0.135845 0.265803 0.059905 0.366484 -0.24767 0.233959 0.0900726 -0.0335921 0.277691 0.042104 0.167092 -0.137419 -0.24904 -0.00880974 0.00182631 0.232492 0.144317 0.106974 -0.00749822 0.0928109 -0.169446 -0.0885044 0.0304736 -0.0534461 0.321372 0.0556118 -0.0300546 -0.116037 -0.205866 -0.322048 -0.231938 -0.0287963 0.0731195 0.128565 -0.156682 0.26291 0.194727 -0.0750427 -0.204402 -0.37668 0.0265581 -0.00190375 0.186145 0.352877 -0.368386
702 0.219879 0.534771 0.107809 -0.0340952 0.273898 -0.109433 0.0525511 -0.246852 -0.0623771 0.118833 0.185879 -0.14752 -0.214927 -0.123231 -0.0597686 0.00831116 -0.389762 0.0734533 -0.366757 0.107752 0.155349 -2.75861e-06 0.306528 -0.291952 0.230258 0.0740403 -0.0170276 0.278639 0.0870321 0.169117 -0.0525218 -0.236026 -0.000524092 0.00544311 0.197737 0.15945 0.112727 -0.0348884 0.0969053 -0.166612 -0.0659226 0.0210409 0.00403469 0.338495 -0.000399345 -0.0556742 -0.0597511 -0.119304 -0.311627 -0.248387 -0.01426 0.0690874 0.0889533 -0.177285 0.263232 0.125888 -0.0841344 -0.2033 -0.358273 0.0596587 -0.0194069 0.201548 0.341499 -0.401011
703 0.159017 0.493563 0.091446 -0.0156907 0.250015 -0.107855 0.113461 -0.160994 -0.106325 0.141923 0.212119 -0.0848398 -0.203226 -0.0624036 -0.0689934 0.0454214 -0.379426 0.0870772 -0.364563 0.0811485 0.0900663 -0.0461769 0.266125 -0.302386 0.241655 0.0726468 0.0124238 0.250809 0.136947 0.158403 -0.0131834 -0.204451 0.0206406 -0.0279545 0.187145 0.17668 0.158293 -0.0142383 0.100524 -0.159805 -0.0486133 0.0521266 0.0582678 0.343653 0.00351379 -0.057362 -0.041863 -0.0701333 -0.27958 -0.244519 -0.00449773 0.069366 0.0789875 -0.182455 0.253678 0.110606 -0.0874254 -0.183063 -0.315465 0.0897276 -0.0426281 0.195829 0.329558 -0.428349
706 0.159862 0.348429 0.0726936 -0.0196205 0.204527 -0.0720721 0.0783852 -0.151051 -0.0908122 0.117416 0.197889 -0.0651524 -0.159482 -0.0482117 -0.0696238 0.0404934 -0.321777 0.0645667 -0.315069 0.0509084 0.0691133 -0.0554973 0.225049 -0.269426 0.203112 0.0550894 0.00877577 0.238126 0.121738 0.141441 0.0311797 -0.163038 0.0123629 -0.00936021 0.138736 0.160849 0.113023 -0.0359911 0.0721522 -0.131371 -0.0197113 0.0165328 0.0553375 0.283604 -0.0068197 -0.084494 -0.00519713 -0.0438426 -0.243801 -0.21977 0.00881787 0.0460674 0.0585088 -0.16845 0.201782 0.0673647 -0.0670404 -0.149445 -0.250262 0.0720824 -0.0189668 0.176005 0.276737 -0.359621
225 0.416975 0.689504 0.208067 -0.0949551 0.367662 -0.0746815 -0.0466683 -0.477211 0.0882405 0.0165537 -0.0114918 -0.362025 -0.222801 -0.292629 0.0482614 -0.128582 -0.316188 -0.000822025 -0.199064 0.205713 0.42795 0.235167 0.45558 -0.113913 0.153753 0.0600535 -0.105444 0.235666 -0.177324 0.123824 -0.32301 -0.292228 -0.0818482 0.0530674 0.216571 0.00704434 -0.0346684 -0.0554584 0.0585199 -0.148923 -0.14598 -0.034828 -0.260079 0.22782 0.0556845 0.0603021 -0.224017 -0.35922 -0.340503 -0.162101 -0.0349531 0.114774 0.157614 -0.0500022 0.24134 0.262979 -0.0694203 -0.207123 -0.437055 -0.0710926 0.0336928 0.134437 0.278317 -0.155546
226 0.427338 0.722899 0.207796 -0.100378 0.389146 -0.084774 -0.0252275 -0.525465 0.0919421 0.0370895 -0.0115462 -0.385117 -0.236943 -0.302343 0.0498997 -0.127009 -0.339953 0.00296394 -0.203942 0.212404 0.47446 0.251828 0.480116 -0.107982 0.161593 0.0596223 -0.11292 0.254483 -0.190858 0.117029 -0.35771 -0.303563 -0.0717604 0.0555854 0.227958 0.00917894 -0.0335427 -0.0453195 0.0569458 -0.146333 -0.166632 -0.0326886 -0.288297 0.218909 0.0825711 0.075436 -0.260782 -0.408116 -0.355438 -0.162374 -0.0362921 0.109182 0.18795 -0.0353962 0.231186 0.303275 -0.0714447 -0.206278 -0.455296 -0.0766787 0.0304 0.133889 0.280522 -0.152677
227 0.556155 0.650111 0.240259 -0.0966268 0.457416 -0.104797 -0.0546084 -0.611169 0.106086 0.0287799 -0.0344101 -0.438307 -0.265033 -0.351288 0.0764985 -0.128649 -0.392872 0.0151695 -0.264393 0.242182 0.518846 0.28012 0.546756 -0.116166 0.208211 0.0829971 -0.141374 0.264675 -0.193835 0.138655 -0.404927 -0.352986 -0.0858896 0.0540898 0.257802 0.0243206 -0.0207443 -0.0453608 0.0835133 -0.162697 -0.189376 -0.0140819 -0.305799 0.269166 0.0973389 0.0858414 -0.306967 -0.419661 -0.396952 -0.182397 -0.0567525 0.13437 0.212202 -0.0518874 0.289811 0.332789 -0.0856543 -0.236237 -0.528569 -0.0904558 0.025284 0.136081 0.335932 -0.196363
232 0.457917 0.866632 0.25247 -0.117951 0.44434 -0.0861016 -0.019624 -0.601814 0.109257 0.0287724 -0.0152917 -0.436244 -0.277297 -0.363849 0.0595345 -0.152918 -0.401433 0.0025305 -0.257884 0.238765 0.576223 0.294751 0.564253 -0.125782 0.194775 0.0826324 -0.139251 0.292524 -0.226856 0.150825 -0.402583 -0.358152 -0.084865 0.0854712 0.266364 0.0176565 -0.0560695 -0.0584604 0.0764171 -0.175798 -0.174153 -0.055897 -0.347891 0.262332 0.0885616 0.0680202 -0.285582 -0.48701 -0.418456 -0.197927 -0.0385775 0.121229 0.222124 -0.0644122 0.276983 0.345677 -0.0857072 -0.233474 -0.537313 -0.0997513 0.0431744 0.15872 0.347117 -0.175107
233 0.452421 0.759019 0.227122 -0.105448 0.427786 -0.0908752 -0.0348172 -0.605789 0.0949296 0.0267261 -0.0141295 -0.416838 -0.251725 -0.351469 0.063687 -0.129454 -0.378146 0.00178373 -0.249036 0.224684 0.5537 0.272365 0.53954 -0.112376 0.187514 0.0762737 -0.12666 0.281115 -0.204295 0.155147 -0.388404 -0.341263 -0.0736352 0.0847229 0.25066 0.0146815 -0.0543079 -0.0613083 0.0742096 -0.179351 -0.169293 -0.0548266 -0.32231 0.249265 0.0884083 0.0548264 -0.274257 -0.451549 -0.38226 -0.181278 -0.0347342 0.111221 0.21172 -0.0644832 0.259576 0.330631 -0.0698338 -0.222234 -0.495154 -0.0935765 0.0408636 0.142104 0.332937 -0.184053
228 0.486912 0.450226 0.201138 -0.089025 0.330804 -0.0635862 -0.0739571 -0.4469 0.122443 -0.0117457 -0.0727833 -0.35466 -0.170034 -0.279804 0.0772598 -0.125479 -0.246937 -0.0186373 -0.123704 0.19712 0.432066 0.249171 0.406503 -0.0287 0.116879 0.0552811 -0.122768 0.170979 -0.216229 0.074329 -0.346896 -0.25739 -0.0752786 0.0603602 0.173915 -0.0293242 -0.069767 -0.0375094 0.0474541 -0.108088 -0.14959 -0.0328875 -0.285195 0.143999 0.0808063 0.0782282 -0.247958 -0.363234 -0.277291 -0.0948365 -0.0427803 0.103183 0.160568 0.00988 0.180033 0.269848 -0.0500184 -0.148538 -0.384291 -0.0900395 0.0399762 0.0823262 0.201201 -0.0638953
133 0.0719524 0.728907 0.286623 -0.21886 0.51281 -0.0098749 -0.26627 -0.398187 0.067917 -0.208271 -0.613356 -0.531614 -0.101085 -0.373937 0.341338 -0.108125 -0.112032 -0.11959 -0.00789121 0.215887 0.794871 0.445932 0.481563 0.234751 0.0887564 0.211239 -0.163503 0.092684 -0.344109 0.0787099 -0.816205 -0.351667 -0.125839 0.185968 0.210684 -0.190663 -0.261743 0.115913 0.200324 -0.0386699 -0.247084 0.0400965 -0.494036 0.0431989 0.329957 0.187762 -0.532911 -0.715694 -0.25608 0.0564542 -0.19884 0.199432 0.445087 0.0375705 0.409664 0.436722 0.0164647 -0.104765 -0.494851 -0.359797 -0.0303298 0.0526469 0.274592 0.147533
132 0.144306 0.704195 0.270761 -0.198198 0.511704 -0.0170604 -0.180852 -0.489996 0.0922487 -0.146223 -0.550258 -0.516916 -0.121055 -0.3873 0.329497 -0.117024 -0.145268 -0.105347 -0.0177883 0.24031 0.857477 0.46661 0.529878 0.232937 0.101828 0.203222 -0.169331 0.110678 -0.349734 0.0887943 -0.831817 -0.348701 -0.122948 0.186761 0.241065 -0.173553 -0.237964 0.133942 0.166997 -0.0493231 -0.242608 0.0376302 -0.51248 0.0244652 0.350639 0.191317 -0.52769 -0.751355 -0.259433 0.0684018 -0.175468 0.161136 0.44641 0.0717745 0.353589 0.454288 0.0187242 -0.101543 -0.481439 -0.349159 -0.00332169 0.0544292 0.269352 0.161296
457 0.0711135 0.710714 0.296466 -0.226127 0.594712 -0.0214837 -0.238634 -0.515011 0.07712 -0.180785 -0.655897 -0.575606 -0.119685 -0.433036 0.382278 -0.120703 -0.174657 -0.115711 -0.0280707 0.256586 0.967547 0.521822 0.584209 0.259897 0.0976641 0.238501 -0.185566 0.116247 -0.392558 0.104133 -0.944247 -0.396707 -0.117907 0.209407 0.266685 -0.204385 -0.263926 0.145228 0.214925 -0.0538491 -0.266044 0.0520391 -0.570663 0.0265146 0.407095 0.209713 -0.607887 -0.850782 -0.285679 0.0692448 -0.220104 0.2004 0.52295 0.06413 0.429732 0.51615 0.0266141 -0.1062 -0.547059 -0.403391 -0.0197105 0.060164 0.31624 0.181225
134 -0.0518075 0.667084 0.287131 -0.242843 0.588103 -0.00915058 -0.336708 -0.375791 0.0135337 -0.286425 -0.706077 -0.552108 -0.0682562 -0.35725 0.379206 -0.0498085 -0.107744 -0.127677 -0.0384247 0.199685 0.86578 0.429288 0.507026 0.230188 0.121034 0.287999 -0.133999 0.123851 -0.331449 0.112829 -0.850993 -0.363729 -0.129853 0.254793 0.224197 -0.188846 -0.31004 0.127901 0.244542 -0.0537139 -0.220352 0.0595031 -0.486736 0.0624024 0.389763 0.140412 -0.544727 -0.773597 -0.272934 0.0745256 -0.221224 0.195321 0.511121 -0.0185659 0.517933 0.435327 0.0225014 -0.123823 -0.537121 -0.414488 -0.072723 0.0977895 0.342543 0.110007
201 0.105929 0.636634 0.289645 -0.219182 0.597787 -0.0529305 -0.265942 -0.540921 0.0912587 -0.197132 -0.61808 -0.584974 -0.131186 -0.419726 0.367502 -0.125076 -0.153675 -0.122351 -0.00845892 0.236063 0.928235 0.498871 0.564744 0.244087 0.0931974 0.235261 -0.174501 0.116475 -0.403652 0.109759 -0.890358 -0.376664 -0.124253 0.216038 0.256549 -0.181253 -0.28357 0.127544 0.200535 -0.0602101 -0.250845 0.014594 -0.56339 0.0358965 0.368771 0.198733 -0.584987 -0.827832 -0.284257 0.0707164 -0.193211 0.18103 0.488594 0.0382036 0.402747 0.491792 0.0229327 -0.129229 -0.538322 -0.384812 -0.0102327 0.0621357 0.306591 0.174225
130 0.0896439 0.628034 0.303473 -0.223943 0.565672 -0.015109 -0.339389 -0.331299 0.0335896 -0.279463 -0.672787 -0.560662 -0.0965336 -0.390381 0.347351 -0.0958734 -0.123212 -0.122518 -0.0356903 0.212613 0.805187 0.423709 0.495409 0.207032 0.105036 0.256219 -0.153163 0.134757 -0.337786 0.116462 -0.814807 -0.363627 -0.149332 0.212257 0.193221 -0.196574 -0.271121 0.0972477 0.253215 -0.0466422 -0.243243 0.0397706 -0.485873 0.088595 0.322868 0.149611 -0.539228 -0.722414 -0.293514 0.0257423 -0.192726 0.228379 0.472981 -0.0028806 0.495834 0.420111 -0.00282258 -0.120441 -0.546037 -0.378792 -0.0864033 0.0849 0.318285 0.110379
182 0.312142 0.547205 0.265528 -0.164082 0.493796 -0.0360334 -0.164982 -0.539949 0.121931 -0.110123 -0.448248 -0.514749 -0.156232 -0.381545 0.265876 -0.138064 -0.176718 -0.0936005 -0.0293998 0.252588 0.754723 0.439867 0.514154 0.181504 0.0870304 0.159095 -0.173907 0.105456 -0.343725 0.0795174 -0.737055 -0.339646 -0.125568 0.146204 0.240444 -0.142346 -0.188352 0.0948043 0.147001 -0.0679835 -0.237724 0.0157907 -0.490039 0.0499176 0.269846 0.205761 -0.501659 -0.660341 -0.270675 0.0293582 -0.160101 0.163328 0.372536 0.0729187 0.303052 0.432164 0.00240075 -0.125381 -0.464361 -0.286027 0.0112523 0.0403299 0.241653 0.126899
199 0.391307 0.478011 0.224449 -0.131028 0.384052 -0.0301179 -0.106651 -0.48247 0.142476 -0.0740473 -0.293914 -0.426736 -0.145009 -0.328987 0.19147 -0.150126 -0.162233 -0.0777704 -0.0145551 0.213795 0.607951 0.383178 0.431304 0.13066 0.059035 0.0849177 -0.149565 0.10697 -0.328043 0.0457539 -0.576267 -0.26981 -0.103821 0.101736 0.191048 -0.123918 -0.155844 0.0321077 0.0769914 -0.0551501 -0.198011 -0.0234024 -0.421514 0.0416805 0.176867 0.168041 -0.373384 -0.52816 -0.243677 -0.00516664 -0.0937545 0.129754 0.271057 0.0745003 0.206446 0.343945 -0.00719144 -0.111371 -0.394212 -0.203732 0.0415441 0.0242374 0.164908 0.11087
544 0.49216 0.204724 0.1602 -0.0657751 0.349235 -0.0755507 -0.0767541 -0.440792 0.0727441 -0.00802233 -0.0691203 -0.312731 -0.186356 -0.236433 0.0750821 -0.0777743 -0.266722 -0.000947182 -0.181308 0.180557 0.380771 0.196566 0.36892 -0.0627155 0.148415 0.0759103 -0.0900909 0.182895 -0.124048 0.0866892 -0.317799 -0.228273 -0.0577555 0.0485362 0.180128 0.0104641 -0.0106237 -0.00940551 0.0859625 -0.0967431 -0.150589 0.0262221 -0.206548 0.169362 0.0916334 0.0574443 -0.216844 -0.293373 -0.250691 -0.10494 -0.0435433 0.10168 0.167376 -0.0289368 0.217215 0.22389 -0.0517165 -0.151882 -0.346951 -0.0839943 -0.00429281 0.0971538 0.239454 -0.144665
545 0.519033 0.107027 0.147972 -0.0515159 0.347671 -0.0866245 -0.0976851 -0.391576 0.0423368 -3.87604e-05 -0.0495458 -0.273157 -0.172224 -0.206909 0.0605687 -0.0478838 -0.26788 0.00331214 -0.200944 0.157294 0.299301 0.150999 0.336227 -0.0957618 0.163431 0.084453 -0.0678179 0.164508 -0.0706623 0.0895318 -0.273463 -0.212563 -0.0584347 0.0162711 0.178581 0.0386006 0.0179075 0.0031001 0.0906647 -0.0899335 -0.132466 0.0503517 -0.143833 0.204697 0.0779393 0.0461542 -0.195972 -0.219482 -0.248415 -0.12672 -0.0525787 0.113127 0.150709 -0.0472448 0.240551 0.185868 -0.0579117 -0.171717 -0.336461 -0.0510072 -0.0186273 0.101162 0.251915 -0.188987
546 0.419507 0.0876823 0.115224 -0.0495991 0.327244 -0.0767235 -0.0640275 -0.321735 0.00292509 0.013618 -0.0143354 -0.209981 -0.164948 -0.156655 0.0467314 -0.00686226 -0.273593 0.0191186 -0.23615 0.128128 0.261823 0.102605 0.288838 -0.128292 0.169245 0.0880787 -0.0434535 0.168737 -0.0171694 0.0979594 -0.21369 -0.188144 -0.0282564 0.0237347 0.168724 0.0655444 0.0499583 0.00766572 0.0979198 -0.091218 -0.104549 0.0554653 -0.0894155 0.216581 0.0812911 0.0106548 -0.148842 -0.179311 -0.229851 -0.130357 -0.0463412 0.090433 0.145702 -0.0808557 0.240479 0.161872 -0.0536677 -0.154555 -0.297996 -0.0238684 -0.0371402 0.11529 0.256918 -0.229857
547 0.405019 0.00584849 0.107439 -0.0310214 0.307063 -0.0927306 -0.0511719 -0.276411 -0.0220727 0.0138757 0.0134908 -0.169112 -0.15537 -0.1088 0.0389566 0.0126808 -0.267549 0.0278736 -0.251999 0.104386 0.188937 0.0479505 0.253004 -0.159553 0.19163 0.10453 -0.0273441 0.166354 0.0536156 0.110337 -0.156793 -0.166662 -0.0129296 0.0069302 0.158885 0.0878763 0.0640915 -0.000611669 0.106617 -0.0951212 -0.0898311 0.0770503 -0.0335585 0.227719 0.0688552 -0.00512811 -0.107717 -0.129221 -0.212244 -0.146888 -0.0447221 0.0785862 0.130058 -0.101618 0.25048 0.128259 -0.0597189 -0.159411 -0.273621 -0.00177364 -0.0484991 0.134193 0.265204 -0.281708
343 0.369388 0.766724 0.196897 -0.0893704 0.361802 -0.104725 0.0279218 -0.421051 0.0448492 0.0698872 0.0750429 -0.317823 -0.239522 -0.26252 0.00662518 -0.0973185 -0.38721 0.027432 -0.287259 0.186838 0.392046 0.182995 0.454401 -0.190062 0.192315 0.0716139 -0.0915445 0.286553 -0.120856 0.159595 -0.270969 -0.3086 -0.0579289 0.0501364 0.224846 0.0555998 0.0125458 -0.0609875 0.0749018 -0.1808 -0.120904 -0.0364003 -0.205085 0.287629 0.0493849 0.029411 -0.200945 -0.341318 -0.378786 -0.209416 -0.0360439 0.106458 0.168934 -0.102169 0.262064 0.264972 -0.085669 -0.209813 -0.460405 -0.0434963 0.0215429 0.169721 0.321832 -0.245039
344 0.408226 0.728002 0.196131 -0.085626 0.373256 -0.103229 0.0273924 -0.418947 0.0286849 0.0746977 0.0850169 -0.312604 -0.260454 -0.249851 0.00621108 -0.0988349 -0.408837 0.0455733 -0.308307 0.182936 0.376297 0.169905 0.469514 -0.202962 0.215862 0.0771906 -0.08227 0.290617 -0.095203 0.163961 -0.258018 -0.31036 -0.0444391 0.0368228 0.23911 0.0748841 0.0278552 -0.0527736 0.0806721 -0.174803 -0.141442 -0.0274253 -0.193213 0.311078 0.0491284 0.025375 -0.206583 -0.326523 -0.378626 -0.224425 -0.0241787 0.110965 0.171951 -0.121697 0.28622 0.254899 -0.0941145 -0.22962 -0.475062 -0.0260191 0.0074638 0.182039 0.355794 -0.284693
345 0.39232 0.691747 0.182938 -0.0759807 0.371058 -0.118395 0.0531603 -0.391138 0.00712574 0.100294 0.110335 -0.272212 -0.254928 -0.222997 -0.00763131 -0.0740005 -0.416676 0.041229 -0.321807 0.182541 0.349955 0.149682 0.449907 -0.229845 0.222638 0.0684433 -0.0807136 0.290705 -0.0497345 0.164801 -0.236373 -0.308891 -0.0341026 0.0324066 0.252906 0.0881705 0.0548939 -0.0298775 0.0853459 -0.176805 -0.121468 -9.44977e-05 -0.150239 0.308589 0.055166 0.018149 -0.189822 -0.292597 -0.380438 -0.233509 -0.0272503 0.103215 0.163526 -0.114607 0.285744 0.243816 -0.0810101 -0.22098 -0.462905 -0.0175441 0.00906435 0.183958 0.352521 -0.314272
346 0.343524 0.623248 0.16066 -0.0671981 0.33822 -0.121289 0.0516831 -0.337625 -0.0116721 0.0973957 0.143119 -0.231315 -0.240726 -0.188352 -0.0207879 -0.039605 -0.404068 0.0631653 -0.330543 0.153198 0.272341 0.0967054 0.407341 -0.245632 0.220002 0.0729358 -0.0472149 0.288102 -0.0105137 0.170314 -0.173214 -0.282709 -0.0227186 0.0262619 0.224439 0.106675 0.0781142 -0.039372 0.0891228 -0.17655 -0.0993744 -0.00681357 -0.10236 0.322808 0.0323447 -0.00262271 -0.155093 -0.246966 -0.359869 -0.236279 -0.0189114 0.104394 0.149504 -0.143156 0.278658 0.20766 -0.0904697 -0.216532 -0.420912 0.0085477 -0.00820735 0.191149 0.347598 -0.336044
347 0.264665 0.517881 0.1363 -0.0604778 0.292221 -0.10957 0.0644706 -0.2858 -0.0255465 0.106122 0.12338 -0.189622 -0.211283 -0.163979 -0.0181616 -0.0329852 -0.351257 0.050415 -0.29874 0.132357 0.221759 0.0692203 0.34774 -0.219036 0.202656 0.0598156 -0.0390084 0.245841 0.0132812 0.147068 -0.159375 -0.239204 -0.0278569 0.00198587 0.208957 0.112081 0.081522 -0.0171139 0.0765056 -0.145645 -0.105015 0.0148568 -0.0662237 0.284945 0.037951 -4.53086e-05 -0.129156 -0.193374 -0.315959 -0.208152 -0.0303432 0.0955977 0.119233 -0.12027 0.239634 0.179883 -0.0755053 -0.186042 -0.360764 0.01306 -0.0182329 0.16816 0.308824 -0.306053
348 0.229667 0.562537 0.122268 -0.0543534 0.304906 -0.114868 0.0777519 -0.240157 -0.0690286 0.125628 0.189209 -0.151031 -0.222311 -0.115495 -0.0401147 0.00515132 -0.394249 0.0846805 -0.364838 0.121219 0.148663 0.0256433 0.321889 -0.288801 0.238563 0.077748 -0.0226244 0.270521 0.0872084 0.17399 -0.0888987 -0.237244 0.000354185 -0.00360564 0.215137 0.153018 0.120172 -0.0372787 0.0981333 -0.175367 -0.0763318 0.0290066 0.000234647 0.342384 0.0191896 -0.0343224 -0.102461 -0.127367 -0.329313 -0.246938 -0.0180689 0.0981116 0.104492 -0.180524 0.284605 0.158336 -0.091137 -0.215821 -0.380976 0.0510688 -0.0317998 0.187506 0.33916 -0.400356
349 0.220445 0.490557 0.103827 -0.0349812 0.271254 -0.109667 0.117551 -0.203563 -0.0853871 0.15713 0.238407 -0.101684 -0.208143 -0.0822228 -0.0657306 0.0224472 -0.38453 0.0793254 -0.388342 0.105251 0.105892 -0.0239464 0.291002 -0.306008 0.249959 0.0786629 -0.00705943 0.264367 0.131326 0.178757 -0.028084 -0.216853 0.0214692 -0.0225247 0.199151 0.183678 0.155008 -0.0276878 0.0871073 -0.164617 -0.0492001 0.0402505 0.0405479 0.339079 0.0112797 -0.0523492 -0.0501744 -0.0896691 -0.311636 -0.243424 -0.0093253 0.0784627 0.0915134 -0.182988 0.264536 0.129658 -0.0886431 -0.201167 -0.330962 0.0809739 -0.0301688 0.193907 0.341522 -0.421059
724 0.209667 0.472993 0.102471 -0.0346738 0.230212 -0.101415 0.0884529 -0.146691 -0.0789996 0.131764 0.203214 -0.087723 -0.186814 -0.0665268 -0.073539 0.0128239 -0.340117 0.0832683 -0.340934 0.0796242 0.076434 -0.0190154 0.248365 -0.292263 0.217601 0.0620918 -0.00236047 0.234577 0.1112 0.157835 -0.00819558 -0.201119 0.00413588 -0.0207165 0.17299 0.157483 0.134018 -0.0394729 0.0802028 -0.154743 -0.0405141 0.0184459 0.0421115 0.314649 -0.0117984 -0.0499587 -0.044691 -0.0649273 -0.281403 -0.234163 -0.00682659 0.0753843 0.0678555 -0.181508 0.228513 0.10264 -0.0784069 -0.186948 -0.299116 0.0736916 -0.0357432 0.180116 0.301026 -0.390201
350 0.171504 0.400021 0.0668655 -0.00593202 0.226308 -0.129661 0.122744 -0.0901551 -0.152738 0.170823 0.296442 -0.0157764 -0.199715 -0.0115937 -0.0941192 0.0685009 -0.38296 0.109251 -0.414195 0.0553279 -0.01435 -0.122463 0.226567 -0.367261 0.257748 0.0839153 0.0398956 0.262982 0.227403 0.18948 0.0948176 -0.177277 0.0509807 -0.0265854 0.180621 0.221544 0.190976 -0.0319093 0.0966646 -0.165899 -0.0147596 0.0568358 0.148978 0.359008 -0.0161825 -0.103295 0.0246301 0.0033036 -0.269573 -0.260035 0.00467183 0.0555594 0.0465258 -0.240297 0.261624 0.0527543 -0.0738216 -0.185736 -0.276469 0.128694 -0.0553362 0.212557 0.347166 -0.491014
64 0.282197 0.446197 0.141634 -0.0725182 0.203799 -0.0145048 -0.0957039 -0.277113 0.0980492 -0.0474827 -0.0712463 -0.267334 -0.0871586 -0.2118 0.0397714 -0.105746 -0.13606 -0.0335195 -0.0533053 0.110788 0.31899 0.178399 0.274213 -0.0156763 0.0363927 0.0202704 -0.0706367 0.142742 -0.20208 0.0607787 -0.224724 -0.169257 -0.0660679 0.0924482 0.093689 -0.053582 -0.120401 -0.0706412 0.00441173 -0.081287 -0.0614602 -0.090455 -0.227637 0.0771013 0.0268455 0.0302925 -0.127657 -0.301182 -0.193756 -0.0623357 -0.0103566 0.043139 0.0926514 -0.0100829 0.126394 0.159655 -0.0217322 -0.0997152 -0.252879 -0.0946407 0.039378 0.0755105 0.136448 -0.00530717
650 0.490135 0.402155 0.194273 -0.0914731 0.333523 -0.0384775 -0.117892 -0.456262 0.129275 -0.033956 -0.121275 -0.359566 -0.146926 -0.290964 0.0897123 -0.135428 -0.212704 -0.0314003 -0.0974894 0.18444 0.477267 0.264352 0.406832 0.00660782 0.0818425 0.0543337 -0.107531 0.17472 -0.24693 0.0709356 -0.377099 -0.243892 -0.0902882 0.0950319 0.156687 -0.0538215 -0.107139 -0.0367545 0.0370264 -0.105619 -0.137253 -0.0440058 -0.309594 0.122084 0.0947104 0.0734115 -0.23498 -0.409671 -0.256895 -0.0695799 -0.0431935 0.0881925 0.167712 0.00958587 0.180003 0.263923 -0.0398886 -0.139733 -0.347695 -0.128664 0.0329615 0.0884 0.199127 -0.0183567
691 0.628553 0.306432 0.21485 -0.0810855 0.374071 -0.0723807 -0.0946223 -0.493515 0.0963916 0.00497714 -0.0929968 -0.349353 -0.195419 -0.283364 0.0906844 -0.11736 -0.263742 -0.0188714 -0.153745 0.205605 0.410114 0.24122 0.415283 -0.0437526 0.133829 0.0546827 -0.11856 0.162167 -0.188171 0.0726516 -0.39174 -0.264613 -0.0767035 0.0223561 0.2031 -0.0270229 -0.0178429 -0.0050189 0.0710506 -0.0947337 -0.184661 0.0159031 -0.272604 0.166858 0.0879578 0.103522 -0.271176 -0.334239 -0.283277 -0.100489 -0.0623545 0.133233 0.167375 0.0235341 0.223523 0.277154 -0.0700044 -0.178506 -0.400435 -0.0891519 0.0173063 0.0736956 0.225794 -0.0939966
692 0.517095 0.256823 0.154008 -0.0575331 0.332578 -0.0851447 -0.0268081 -0.438559 0.0618513 0.0594972 -0.0247452 -0.273049 -0.204186 -0.233896 0.0704694 -0.0795253 -0.289261 -0.000808934 -0.188907 0.187871 0.356309 0.188714 0.380804 -0.0910735 0.154367 0.0555174 -0.0920968 0.168848 -0.0991053 0.0888366 -0.323722 -0.235133 -0.049255 0.00718692 0.207327 0.014616 0.0388002 0.0111943 0.0769038 -0.0946165 -0.150094 0.0386017 -0.192469 0.18891 0.0840602 0.0861771 -0.224568 -0.262276 -0.264002 -0.125259 -0.0535507 0.104853 0.146975 -0.0110076 0.186603 0.23489 -0.0717554 -0.155235 -0.34762 -0.0540082 0.0107013 0.0874034 0.216977 -0.150094
693 0.578162 0.17511 0.161902 -0.0577849 0.331705 -0.0632141 -0.0765269 -0.370675 0.0431463 0.0365973 -0.0371138 -0.262536 -0.189054 -0.214388 0.0565395 -0.0659649 -0.264349 0.00943376 -0.196011 0.179686 0.281964 0.152707 0.337397 -0.10121 0.150512 0.0582084 -0.0790704 0.163448 -0.0682355 0.0893303 -0.281115 -0.225949 -0.0509859 0.000934966 0.173695 0.0303559 0.0296646 0.00116203 0.0841379 -0.0995935 -0.149278 0.0434578 -0.164704 0.198961 0.0685395 0.0622477 -0.205617 -0.21261 -0.24987 -0.119079 -0.0454434 0.114518 0.128282 -0.0194558 0.221341 0.20932 -0.0630999 -0.154861 -0.337743 -0.0447984 -0.0166621 0.0938572 0.225772 -0.183959
694 0.548531 0.0310857 0.133396 -0.0297613 0.31984 -0.07435 -0.0830036 -0.311004 -0.0138435 0.0276784 0.023364 -0.189821 -0.161876 -0.149266 0.0237097 -0.00814171 -0.266022 0.0311247 -0.249779 0.130687 0.208547 0.0605561 0.290332 -0.142825 0.182686 0.0834649 -0.0319748 0.179877 0.00992856 0.105952 -0.169039 -0.181326 -0.019823 0.00328221 0.148971 0.0798236 0.0702845 -0.0152478 0.100933 -0.107399 -0.0976334 0.0471012 -0.0489711 0.22712 0.0544389 -0.00292468 -0.127374 -0.142639 -0.224852 -0.14954 -0.0182898 0.0922178 0.111742 -0.0935945 0.236026 0.146135 -0.065669 -0.15452 -0.279112 0.000983909 -0.0292831 0.107528 0.250043 -0.269101
705 0.469302 0.0109092 0.100147 -0.0261408 0.300539 -0.0759297 -0.0387859 -0.249847 -0.0514718 0.047621 0.0611684 -0.132933 -0.157174 -0.0920073 0.0168777 0.0357606 -0.285449 0.0555558 -0.282531 0.0859201 0.167142 0.0175087 0.246655 -0.175173 0.192231 0.103036 0.000397663 0.186569 0.0889301 0.12782 -0.104755 -0.149728 0.0116169 0.00571387 0.150399 0.113312 0.0904418 -0.00542379 0.103113 -0.111555 -0.0570563 0.0697268 0.0148104 0.23436 0.0483134 -0.0327929 -0.0726165 -0.0986858 -0.206394 -0.154032 -0.0099757 0.0732029 0.106939 -0.128378 0.222655 0.114285 -0.0387066 -0.138863 -0.24138 0.0126621 -0.038842 0.125705 0.25596 -0.301957
116 0.144338 0.363053 0.0441929 -0.0023579 0.242806 -0.0868932 0.122169 -0.185884 -0.129507 0.15988 0.276166 -0.0418652 -0.208339 -0.0513735 -0.0786926 0.0757164 -0.411055 0.114693 -0.440741 0.0516236 0.08424 -0.0783565 0.266095 -0.348056 0.267249 0.0983018 0.038859 0.281089 0.209975 0.182765 0.050369 -0.188169 0.040094 -0.0134786 0.187513 0.218631 0.186043 -0.0145178 0.0990304 -0.148561 -0.0137664 0.0541171 0.135876 0.363475 0.023795 -0.11228 0.00573672 -0.0320914 -0.275721 -0.242464 0.0122553 0.0387448 0.0837566 -0.239038 0.245409 0.0743446 -0.0561687 -0.169595 -0.275812 0.100051 -0.0407308 0.213411 0.360256 -0.473108
409 0.298273 0.51587 0.154765 -0.0770869 0.233647 -0.0367307 -0.0971406 -0.307649 0.0966755 -0.0447672 -0.0359644 -0.290864 -0.123039 -0.212269 0.023043 -0.117172 -0.189011 -0.0121558 -0.0864626 0.118053 0.280994 0.161336 0.293535 -0.0658133 0.0689106 0.016967 -0.0839526 0.16921 -0.187318 0.0753116 -0.189769 -0.183714 -0.0660507 0.0673821 0.10158 -0.0283338 -0.0997689 -0.0926107 0.0231114 -0.106279 -0.0884817 -0.0803645 -0.211758 0.145209 -0.00143635 0.00668587 -0.120609 -0.274957 -0.232385 -0.104424 -0.0133984 0.0613694 0.08343 -0.032391 0.157423 0.161436 -0.0457483 -0.151013 -0.301304 -0.071315 0.0353851 0.103325 0.16635 -0.074875
410 0.399335 0.643281 0.203744 -0.0912907 0.339935 -0.0589452 -0.106913 -0.480728 0.137553 -0.0496818 -0.0688922 -0.386129 -0.174984 -0.306196 0.0461477 -0.155508 -0.257111 -0.0212604 -0.118107 0.168402 0.456331 0.256892 0.426823 -0.0585378 0.102621 0.0428791 -0.119703 0.215088 -0.25096 0.0929758 -0.296476 -0.26004 -0.0908615 0.0978699 0.159516 -0.0320451 -0.123414 -0.0891694 0.0304319 -0.129429 -0.121239 -0.096413 -0.310963 0.152236 0.0352592 0.0314924 -0.201976 -0.395232 -0.30165 -0.109655 -0.0147521 0.0782369 0.144394 -0.0258752 0.198123 0.252203 -0.0474223 -0.178021 -0.385538 -0.109433 0.0506873 0.118715 0.224488 -0.0742766
411 0.481145 0.659323 0.216338 -0.101346 0.405065 -0.0593159 -0.111816 -0.594502 0.153837 -0.0382071 -0.0838528 -0.435777 -0.206266 -0.352703 0.0747366 -0.16673 -0.300069 -0.016105 -0.149914 0.213701 0.574874 0.313349 0.502206 -0.0497525 0.120879 0.0662504 -0.133417 0.253679 -0.281946 0.102182 -0.39078 -0.293581 -0.0848993 0.126238 0.192998 -0.040239 -0.119479 -0.0768291 0.051478 -0.150901 -0.151792 -0.0853463 -0.369353 0.167932 0.0777511 0.0588895 -0.250779 -0.489272 -0.337959 -0.122688 -0.0381053 0.0926667 0.191092 -0.0224202 0.224942 0.307845 -0.0586095 -0.184261 -0.444497 -0.129317 0.0667715 0.120148 0.264983 -0.0807365
